{"version": "0.5.4", "metadata": {"date": {"year": 2024, "month": 12, "day": 9, "hour": 23, "minute": 35, "second": 27}, "loudness": -15.664616584777832, "gain": 0.8121325615571245, "training": {"settings": {"ignore_checks": false}, "data": {"latency": {"manual": null, "calibration": {"algorithm_version": 1, "delays": [36], "safety_factor": 1, "recommended": 35, "warnings": {"matches_lookahead": false, "disagreement_too_high": false}}}, "checks": {"version": 3, "passed": true}}, "validation_esr": 0.015072655997466532}}, "architecture": "WaveNet", "config": {"layers": [{"input_size": 1, "condition_size": 1, "head_size": 8, "channels": 16, "kernel_size": 3, "dilations": [1, 2, 4, 8, 16, 32, 64, 128, 256, 512], "activation": "Tanh", "gated": false, "head_bias": false}, {"input_size": 16, "condition_size": 1, "head_size": 1, "channels": 8, "kernel_size": 3, "dilations": [1, 2, 4, 8, 16, 32, 64, 128, 256, 512], "activation": "Tanh", "gated": false, "head_bias": true}], "head": null, "head_scale": 0.02}, "weights": [0.0020099105313420296, 0.32737934589385986, -0.8225299119949341, -0.7306095361709595, -0.43824031949043274, 0.20229235291481018, -0.0062850103713572025, 0.805999755859375, -0.07333748042583466, 0.13569128513336182, -0.2723521888256073, -0.0059857964515686035, -0.8874810338020325, -0.7421990036964417, -0.47862476110458374, 0.0025243533309549093, 0.14382565021514893, 0.07608561217784882, 0.0653175488114357, 0.014887171797454357, 0.09834824502468109, 0.09959571063518524, -0.11007221788167953, 0.060797981917858124, -0.002395264571532607, -0.06475331634283066, 0.08496670424938202, -0.112092025578022, -0.1629987508058548, -0.07560539990663528, -0.024788035079836845, 0.19462715089321136, -0.05676586180925369, -0.09285532683134079, -0.11817605048418045, -0.11620752513408661, -0.0070423041470348835, 0.2029874473810196, 0.10872134566307068, 0.04809124767780304, -0.03512556478381157, -0.07520001381635666, 0.08048173040151596, -0.07021675258874893, -0.07544449716806412, -0.11415567994117737, 0.02039603888988495, 0.045573677867650986, -0.030944371595978737, -0.05342594161629677, 0.08892665803432465, 0.1741858869791031, -0.02326294407248497, -0.027550799772143364, 0.11696109920740128, -0.16400888562202454, -0.017400013282895088, -0.08993290364742279, -0.17522887885570526, -0.11453591287136078, 0.09233073145151138, 0.09434633702039719, -0.08942054212093353, 0.02860081195831299, -0.06790824234485626, 0.01366798859089613, -0.3661406338214874, -0.172446608543396, -0.15410774946212769, -0.008358094841241837, 0.10332350432872772, 0.19967444241046906, 0.21332788467407227, 0.3336195945739746, 0.37786051630973816, 0.2839107811450958, 0.24188905954360962, 0.12715083360671997, 0.16807658970355988, -0.2883778214454651, -0.37038660049438477, -0.011832961812615395, 0.24745841324329376, 0.02736360765993595, 0.07347536832094193, -0.23991180956363678, -0.276968777179718, -0.22404780983924866, 0.2422412633895874, 0.13389798998832703, 0.17220035195350647, -0.1179695799946785, -0.12384690344333649, -0.07771003246307373, 0.05885055661201477, 0.149923637509346, 0.21322472393512726, 0.19275552034378052, 0.06498919427394867, -0.0070268153212964535, 0.35020673274993896, 0.34940797090530396, 0.09420505911111832, 0.17911078035831451, 0.11608389765024185, 0.1545250117778778, 0.10500314831733704, 0.1392742544412613, 0.1462615728378296, -0.06140729412436485, -0.05832356959581375, 0.12855547666549683, -0.08179030567407608, 0.15426813066005707, 0.10455712676048279, -0.10471847653388977, 0.051805466413497925, -0.0552067756652832, 0.0036148286890238523, -0.05407509207725525, 0.12381553649902344, -0.007069482002407312, -0.1577465981245041, 0.138845294713974, -0.14738450944423676, -0.1670946627855301, 0.04258808493614197, -0.06631071865558624, 0.02083590254187584, -0.19694307446479797, 0.004369990900158882, 0.00213181646540761, 0.02745417132973671, 0.008542034775018692, 0.18920747935771942, -0.08308115601539612, 0.027364175766706467, -0.05107218772172928, 0.13632912933826447, 0.09153048694133759, 0.20167970657348633, -0.0014151229988783598, 0.13281182944774628, -0.08254984766244888, -0.04450812190771103, -0.06442064791917801, 0.043584588915109634, 0.06696097552776337, -0.08934415876865387, -0.19874022901058197, -0.06800605356693268, -0.13625727593898773, -0.11493974179029465, 0.15016254782676697, 0.06651609390974045, -0.2218639999628067, 0.16371244192123413, -0.04606045410037041, -0.049854081124067307, -0.08949971944093704, -0.021896855905652046, -0.04879993945360184, -0.0665602833032608, -0.1264197677373886, -0.18712463974952698, 0.04267879202961922, -0.05986093357205391, 0.222454234957695, -0.1766006052494049, -0.00653974711894989, 0.2946787178516388, -0.1074463352560997, 0.12773969769477844, 0.21364152431488037, -0.18745434284210205, 0.09908270090818405, -0.16519145667552948, -0.0060664513148367405, 0.05989604443311691, -0.027145110070705414, -0.0813552513718605, -0.03472483903169632, -0.06299147754907608, 0.08905284851789474, 0.03649956360459328, 0.16582930088043213, -0.11847808212041855, -0.015657054260373116, -0.26010751724243164, 0.14785727858543396, 0.10800477862358093, 0.24914352595806122, -0.16494646668434143, -0.03280095383524895, 0.008217453956604004, -0.12454477697610855, -0.0784962922334671, 0.21725952625274658, -0.1326785385608673, -0.0002162047167075798, 0.172426238656044, 0.04326115548610687, -0.1085958406329155, 0.06383012235164642, -0.13587895035743713, -0.03988705202937126, -0.02655864506959915, 0.16633489727973938, -0.08727847039699554, -0.15071406960487366, -0.248580202460289, 0.14675182104110718, 0.044374845921993256, -0.05683702602982521, -0.17943991720676422, -0.005340643227100372, -0.07840538024902344, -0.2553452253341675, 0.09131310880184174, -0.08382254838943481, -0.18480141460895538, 0.12084440141916275, 0.09161853045225143, 0.1665322482585907, -0.1150696873664856, 0.028301753103733063, -0.18641270697116852, -0.021118754521012306, 0.03899895027279854, 0.1592152714729309, 0.02495647966861725, 0.0865401178598404, -0.12219315767288208, 0.1395350694656372, 0.15170800685882568, 0.06889291852712631, 0.08248987048864365, -0.14500202238559723, -0.2260647565126419, 0.0323779359459877, 0.09638985991477966, -0.009657703340053558, -0.05258161202073097, 0.024388279765844345, -0.1057068258523941, -0.1653718501329422, 0.1355736255645752, -0.2983638346195221, -0.02026865817606449, 0.010911352001130581, -0.25339600443840027, -0.0030106825288385153, 0.15518003702163696, -0.015344218350946903, -0.03880521282553673, -0.016188284382224083, -0.14968152344226837, 0.07057405263185501, -0.0779961571097374, -0.07398644089698792, 0.04316897317767143, 0.00836898759007454, 0.05285530537366867, -0.018087957054376602, 0.13334940373897552, -0.07074528932571411, -0.16931068897247314, 0.1254858523607254, 0.10152342170476913, -0.08443953096866608, 0.022746063768863678, -0.057542651891708374, -0.02582273632287979, -0.06166418641805649, -0.053269270807504654, -0.18239597976207733, 0.26305755972862244, -0.07135538011789322, 0.11087612062692642, -0.04095205292105675, 0.01878528855741024, -0.17535986006259918, 0.003829209366813302, 0.12362062186002731, 0.12940213084220886, 0.019636662676930428, -0.05951636657118797, -0.06978143751621246, 0.06483985483646393, -0.00333317369222641, -0.16373635828495026, 0.12861289083957672, 0.02158293128013611, -0.13229303061962128, 0.04766431823372841, -0.11036717146635056, -0.027797218412160873, -0.02320554107427597, 0.040415819734334946, -0.17258335649967194, 0.01762028969824314, 0.07387645542621613, -0.10816139727830887, -0.028600476682186127, 0.03750887140631676, -0.08932177722454071, 0.1324789971113205, 0.02581481821835041, 0.03364173322916031, -0.11891014128923416, -0.07856454700231552, 0.003016574075445533, 0.15417471528053284, -0.01396095845848322, 0.0801580548286438, 0.19913026690483093, -0.03542555123567581, 0.02625761553645134, 0.1650714874267578, -0.03246916085481644, -0.02264622412621975, -0.08558626472949982, -0.0832938626408577, 0.04455343261361122, 0.1987958550453186, 0.08762649446725845, 0.05824486166238785, -0.08437781035900116, 0.11597592383623123, -0.03220275416970253, -0.009850256145000458, -0.15941618382930756, 0.11427756398916245, -0.014984076842665672, -0.059033364057540894, 0.08691919595003128, 0.21246284246444702, 0.16888803243637085, 0.14435583353042603, 0.21347449719905853, 0.006759841460734606, -0.025514183565974236, 0.2218177616596222, 0.12202818691730499, -0.06065744161605835, 0.23221026360988617, 0.11128491908311844, 0.10466470569372177, 0.01392819732427597, -0.0963553860783577, -0.2279871553182602, 0.019331660121679306, 0.05092350393533707, 0.049217138439416885, 0.016493381932377815, 0.13369332253932953, 0.07545053213834763, 0.1361262947320938, -0.17853976786136627, -0.0967046394944191, -0.16391894221305847, -0.21883836388587952, -0.2449677437543869, 0.048702314496040344, 0.006513302680104971, 0.010967535898089409, 0.05643438547849655, -0.06610278785228729, 0.016930190846323967, 0.02956547774374485, -0.09872011095285416, 0.0318739116191864, -0.1222795620560646, 0.007490050047636032, -0.01115754246711731, -0.01609458029270172, 0.08008300513029099, 0.033423732966184616, 0.07346981763839722, 0.16941756010055542, 0.23983989655971527, 0.009488169103860855, -0.0006689492147415876, 0.012919383123517036, -0.0010096118785440922, 0.12086813151836395, 0.0011337262112647295, 0.044636018574237823, -0.12886643409729004, -0.060650765895843506, -0.05102246254682541, -0.11114425212144852, -0.20964853465557098, -0.14598163962364197, -0.18539904057979584, -0.02854870818555355, 0.039350442588329315, 0.021136663854122162, -0.12015547603368759, 0.04362225532531738, 0.1393570601940155, 0.068739153444767, -0.05150896683335304, 0.1863330602645874, 0.17071902751922607, -0.11419279873371124, 0.082741379737854, -0.004530435428023338, -0.04608123004436493, 0.026498129591345787, -0.19538328051567078, -0.012960219755768776, 0.07426255941390991, -0.10138306766748428, -0.08542127907276154, -0.00407930975779891, 0.059443630278110504, -0.04956291615962982, -0.0022256055381149054, 0.07255055010318756, 0.07640716433525085, -0.034757137298583984, 0.12009754776954651, 0.06230364367365837, 0.052371591329574585, -0.20017167925834656, 0.023758556693792343, -0.06749791651964188, 0.028838708996772766, 0.014961332082748413, -0.14837028086185455, -0.04699558764696121, 0.14550158381462097, -0.02024221420288086, -0.1684333235025406, -0.01954149641096592, -0.02469673566520214, -0.22483709454536438, 0.07737015932798386, -0.1854112297296524, -0.25183412432670593, -0.13187527656555176, -0.07895663380622864, -0.011502853594720364, -0.12317681312561035, 0.1279091089963913, -0.02181929349899292, 0.004081795457750559, 0.03655248507857323, -0.0873776525259018, 0.13489443063735962, 0.17870216071605682, 0.1470879167318344, 0.035382311791181564, -0.20469698309898376, 0.11701645702123642, 0.04477410390973091, -0.04010066017508507, -0.12038958072662354, -0.0038246994372457266, -0.2495877891778946, -0.05847042798995972, 0.07078222930431366, -0.017031792551279068, 0.04263904690742493, 0.02928556688129902, -0.0030785156413912773, -0.0605938546359539, 0.0031799720600247383, 0.06657116115093231, 0.06604021042585373, 0.10664518922567368, 0.006319871172308922, 0.003816920332610607, 0.11860272288322449, -0.04860199987888336, -0.11795889586210251, 0.01886010728776455, -0.17911683022975922, 0.07431875914335251, -0.05140719935297966, -0.11563339084386826, -0.11200689524412155, 0.14554853737354279, -0.12522614002227783, 0.10600586980581284, 0.12436359375715256, -0.029383571818470955, 0.002459508366882801, -0.006117330398410559, -0.13999950885772705, 0.01741020195186138, 0.1094268411397934, 0.005895373411476612, 0.18597312271595, 0.07891949266195297, -0.19144666194915771, -0.022675713524222374, -0.032876525074243546, -0.061684224754571915, -0.07186751067638397, 0.20761385560035706, 0.26756325364112854, 0.01959431916475296, 0.018227212131023407, 0.12381572276353836, -0.01650230772793293, -0.043056800961494446, 0.1571037918329239, -0.015040946193039417, -0.14327599108219147, -0.09433071315288544, 0.024558084085583687, 0.047162409871816635, 0.15685996413230896, -0.016958950087428093, -0.22389088571071625, -0.18728601932525635, 0.14607232809066772, 0.08217885345220566, 0.21498262882232666, -0.10575620830059052, -0.06287585198879242, -0.2963450849056244, -0.029632264748215675, 0.028910290449857712, 0.3226515054702759, -0.10069800913333893, -0.10309336334466934, 0.07801052927970886, 0.08151157200336456, -0.0011166433105245233, 0.09087163954973221, -0.17872773110866547, -0.2076401561498642, 0.1997007131576538, -0.10005037486553192, -0.19431598484516144, 0.14624276757240295, -0.03672514110803604, -0.176503986120224, 0.2517133057117462, -5.2532115660142154e-05, -0.143523171544075, 0.07492244988679886, 0.12981535494327545, -0.07878996431827545, -0.00109937135130167, -0.20740875601768494, 0.11456525325775146, -0.13008028268814087, 0.018052885308861732, 0.16545161604881287, -0.08641353994607925, 0.1827220320701599, 0.007292911875993013, -0.03314919024705887, 0.11685261130332947, 0.10306422412395477, 0.01366654597222805, -0.2750696539878845, -0.09422183781862259, -0.0902896448969841, 0.15056352317333221, -0.1381206065416336, 0.13231340050697327, -0.1848972886800766, -0.04748088866472244, 0.07844576984643936, 0.17390653491020203, 0.10506297647953033, 0.09222869575023651, -0.17228029668331146, -0.08911854773759842, -0.016779813915491104, 0.25697198510169983, -0.04328607767820358, -0.13869619369506836, 0.16947342455387115, 0.15322814881801605, -0.0352010652422905, 0.03541778400540352, -0.10904122143983841, 0.038395754992961884, 0.14176562428474426, -0.05357186868786812, 0.02957957424223423, 0.20555204153060913, 0.13228437304496765, 0.09359718859195709, 0.07160346955060959, -0.03442355617880821, -0.08802562206983566, 0.15152575075626373, 0.19304633140563965, -0.014946128241717815, -0.3058973252773285, 0.15333569049835205, 0.2158273458480835, 0.31616681814193726, -0.14600029587745667, 0.024543816223740578, 0.08617636561393738, 0.11062519997358322, 0.010122600942850113, 0.11367368698120117, 0.04192184656858444, -0.13476042449474335, -0.2388315349817276, 0.02383570559322834, 0.013961316086351871, -0.014124149456620216, 0.04682242497801781, -0.14295151829719543, -0.1348838210105896, 0.14947187900543213, 0.11555710434913635, 0.15399591624736786, 0.06195664033293724, -0.0449579656124115, -0.2247881442308426, 0.1832612305879593, 0.10372670739889145, 0.02957790344953537, -0.08054693043231964, -0.05322781577706337, 0.23120594024658203, -0.05915038660168648, -0.05153854563832283, 0.1772405058145523, 0.06760463863611221, 0.11626490205526352, 0.2311062514781952, -0.01196269877254963, 0.12819252908229828, 0.1462855488061905, -0.08710455894470215, -0.1589374840259552, -0.17058898508548737, 0.03454800695180893, -0.14719069004058838, -0.05720191076397896, 0.12105044722557068, -0.036497123539447784, -0.20890885591506958, 0.18093232810497284, -0.0312441848218441, 0.2390691041946411, -0.15979988873004913, 0.016876952722668648, 0.19870120286941528, -0.10560522973537445, 0.1678861379623413, 0.015245799906551838, -0.17477962374687195, -0.1066368892788887, -0.08328711241483688, 0.19083678722381592, -0.06794261187314987, 0.1135186180472374, -0.119954913854599, -0.08424680680036545, -0.014042398892343044, -0.06612862646579742, 0.034976307302713394, 0.21294941008090973, -0.09973619878292084, 0.07746327668428421, -0.14269177615642548, 0.18182994425296783, -0.0958542674779892, 0.08724111318588257, -0.08460088074207306, 0.044430069625377655, 0.11586063355207443, 0.050117991864681244, 0.03193001449108124, 0.11559896916151047, 0.05526437610387802, 0.013925720937550068, 0.24723917245864868, -0.14227637648582458, 0.033106300979852676, 0.10841067880392075, 0.01375609077513218, 0.05915829911828041, -0.050432201474905014, -0.11953127384185791, 0.028037497773766518, 0.16119524836540222, -0.3570753037929535, -0.11214182525873184, 0.13624179363250732, 0.226557195186615, 0.024753961712121964, -0.190897598862648, 0.006923065986484289, -0.09019693732261658, -0.01845698617398739, -0.06909819692373276, -0.048960357904434204, 2.8465703508118168e-05, -0.218308225274086, 0.01574929989874363, -0.04565480351448059, 0.06688634306192398, 0.061440497636795044, 0.10819653421640396, -0.15553009510040283, 0.07984205335378647, 0.037032995373010635, 0.022985218092799187, -0.10493818670511246, -0.16903434693813324, 0.05544529855251312, -0.0637897178530693, 0.0387103296816349, 0.11713569611310959, 0.11129596084356308, 0.0753028616309166, 0.02861262485384941, -0.02654237300157547, 0.007768047042191029, -0.150625079870224, -0.06800580024719238, -0.019338831305503845, 0.04339107871055603, -0.10240982472896576, 0.032115861773490906, -0.16731564700603485, -0.01273617334663868, 0.06001868471503258, -0.12345335632562637, 0.08118322491645813, 0.04964999854564667, 0.06542732566595078, 0.07603789865970612, -0.02091384306550026, 0.15668103098869324, -0.18951524794101715, -0.2825572192668915, 0.038289498537778854, 0.20151546597480774, 0.128892183303833, 0.03065335750579834, 0.2102586328983307, 0.26479572057724, -0.11459125578403473, 0.06383208185434341, 0.11836288869380951, -0.16298779845237732, -0.07220872491598129, -0.040457796305418015, 0.16794243454933167, 0.04855342581868172, 0.12768705189228058, -0.13731881976127625, 0.022918373346328735, -0.22792299091815948, -0.06271352618932724, 0.06835902482271194, 0.2021065503358841, -0.2026175558567047, 0.06128232553601265, -0.09141232818365097, -0.04229474812746048, 0.04106719419360161, 0.27582231163978577, -0.16545040905475616, 0.0177783090621233, 0.1609531044960022, -0.15771053731441498, 0.1661180704832077, 0.24431779980659485, 0.052444107830524445, -0.007290385197848082, 0.3109361529350281, -0.12520405650138855, 0.22650408744812012, 0.026503348723053932, -0.1705206334590912, 0.059681665152311325, 0.03660786151885986, -0.015793656930327415, -0.07419608533382416, -0.05512559041380882, -0.06263388693332672, -0.115896075963974, 0.02626688778400421, 0.05089053139090538, 0.0003414032398723066, -0.013290246948599815, 0.03187983110547066, 0.1287308633327484, -0.026072707027196884, 0.009974142536520958, -0.024140117689967155, -0.0017372665461152792, -0.057974524796009064, -0.015504504553973675, 0.43185514211654663, -0.5891485810279846, 0.738615870475769, -0.6637213230133057, -0.02283484861254692, 0.8266764283180237, 0.8930168747901917, -0.5038474202156067, 0.18119250237941742, 0.08762913197278976, -0.3708846867084503, -0.3763573169708252, 0.2852999269962311, -0.6598629951477051, 0.2615007758140564, 0.4611102044582367, 0.0032751583494246006, 0.19136492908000946, 0.0011393546592444181, 0.08397035300731659, 0.20860208570957184, -0.009220307692885399, 0.016598539426922798, 0.0050091915763914585, -0.005631229840219021, -0.05524078384041786, 0.10179897397756577, -0.12165417522192001, 0.07571758329868317, -0.019428245723247528, 0.22800803184509277, -0.05077112093567848, -0.14588448405265808, -0.062238823622465134, -0.38985568284988403, 0.22086350619792938, -0.10476353764533997, -0.21466471254825592, 0.008602915331721306, -0.06268831342458725, -0.15386347472667694, 0.04936077818274498, 0.017345774918794632, 0.22228048741817474, 0.2231176346540451, 0.07557424902915955, 0.009373076260089874, 0.4625190198421478, -0.0864497721195221, 0.12636297941207886, -0.0743640661239624, 0.24879486858844757, -0.24380765855312347, -0.1714489907026291, 0.01784013956785202, -0.18884310126304626, -0.08086581528186798, -0.22702284157276154, 0.2534087598323822, -0.16292743384838104, 0.2392818182706833, 0.29064661264419556, 0.08703982830047607, 0.1480177342891693, 0.16459240019321442, -0.20307156443595886, -0.05554019659757614, -0.14328373968601227, 0.023653903976082802, 0.08078639954328537, -0.012646102346479893, -0.047083593904972076, -0.20500168204307556, 0.09366107732057571, -0.08478376269340515, 0.07304303348064423, 0.1692403107881546, 0.24123287200927734, -0.14820781350135803, -0.0182355884462595, -0.32744354009628296, -0.21306398510932922, -0.4125399589538574, 0.2961861789226532, -0.03705077990889549, -0.002255878644064069, -0.02179856225848198, -0.23347119987010956, -0.07173073291778564, 0.14603370428085327, -0.0523444339632988, 0.36341801285743713, 0.12612079083919525, 0.29226425290107727, -0.25779908895492554, 0.28587526082992554, -0.1819366067647934, 0.0036058947443962097, 0.12889157235622406, -0.011408500373363495, 0.23742778599262238, 0.25865277647972107, 0.011591553688049316, 0.1399860680103302, 0.2250235378742218, 0.03588380292057991, -0.08091211318969727, -0.17891180515289307, -0.08385993540287018, -0.18766872584819794, 0.061669301241636276, -0.018738102167844772, 0.01998036354780197, 0.06745433807373047, 0.1880791187286377, 0.21075551211833954, -0.2633655071258545, -0.3129121661186218, 0.024533670395612717, 0.14446298778057098, 0.015647385269403458, -0.3283117711544037, -0.11395130306482315, 0.23797832429409027, 0.18222667276859283, -0.11868137121200562, -0.019595418125391006, -0.18772651255130768, 0.20188084244728088, 0.11293844878673553, 0.24937912821769714, -0.21671900153160095, -0.23535659909248352, 0.16925349831581116, 0.019092809408903122, 0.05979710444808006, 0.13927845656871796, -0.21984153985977173, 0.25096502900123596, -0.2595673203468323, 0.1017671450972557, -0.14087578654289246, -0.0599990040063858, 0.08432207256555557, -0.13889287412166595, -0.030611345544457436, -0.21627509593963623, -0.2501353323459625, 0.05002399533987045, -0.09316713362932205, -0.029575608670711517, 0.04851822555065155, -0.17396189272403717, -0.21806089580059052, 0.08241723477840424, 0.07979685068130493, -0.02194848097860813, -0.17179003357887268, 0.03864329680800438, 0.00625707907602191, -0.24932241439819336, -0.0883169174194336, 0.2258378267288208, -0.33999311923980713, -0.34635064005851746, 0.09534919261932373, -0.008961671032011509, -0.27819129824638367, 0.11215963959693909, 0.17616869509220123, 0.19523359835147858, -0.014424528926610947, 0.22016994655132294, 0.08327782899141312, -0.1376539021730423, 0.11686281114816666, 0.049222882837057114, 0.24328412115573883, -0.32720863819122314, 0.19477954506874084, -0.20063263177871704, -0.25686296820640564, 0.0048158359713852406, -0.13572363555431366, -0.025854237377643585, -0.25082850456237793, -0.04538443312048912, 0.027704376727342606, 0.016582628712058067, 0.19566237926483154, 0.04944729059934616, 0.36447057127952576, 0.08351562172174454, -0.09037718176841736, 0.25700950622558594, -0.07788261771202087, 0.0960230827331543, -0.023845195770263672, -0.022078532725572586, -0.05576561391353607, 0.04855531081557274, -0.0787917897105217, 0.11501402407884598, -0.2667652666568756, -0.11759083718061447, 0.047436680644750595, -0.13976164162158966, -0.2991628348827362, 0.07866857945919037, -0.23621243238449097, 0.12247675657272339, 0.11189352720975876, 0.1701354682445526, -0.06673973053693771, 0.015728067606687546, 0.05771329626441002, 0.15021687746047974, -0.04456573352217674, -0.03333209455013275, 0.09337348490953445, 0.24877101182937622, -0.12681268155574799, 0.07697467505931854, 0.1889498382806778, -0.23338645696640015, -0.13218232989311218, -0.26621538400650024, 0.20512229204177856, -0.32075124979019165, 0.017877226695418358, 0.015439854934811592, -0.02113594487309456, -0.15207409858703613, -0.2753755450248718, 0.2737838923931122, 0.13641928136348724, -0.09434527158737183, 0.069102443754673, -0.28589192032814026, 0.28623121976852417, -0.3647351861000061, 0.4409053325653076, -0.30005189776420593, 0.04717351868748665, -0.11831475794315338, -0.1743410974740982, 0.005775684956461191, 0.00886700302362442, -0.42996591329574585, -0.00787311140447855, 0.025095108896493912, 0.13007892668247223, 0.3036840260028839, 0.3724081814289093, -0.2988392412662506, 0.20459617674350739, 0.1625051498413086, 0.11627382040023804, 0.17013464868068695, -0.09831423312425613, -0.08648494631052017, 0.186936616897583, 0.0002653587725944817, 0.24597741663455963, -0.08146204054355621, -0.0641583502292633, -0.07487519830465317, -0.21235884726047516, 0.07454099506139755, 0.15153469145298004, 0.02383188158273697, -0.034214988350868225, 0.04772287607192993, -0.04226409271359444, 0.17934250831604004, -0.07332179695367813, -0.11132530868053436, -0.00036449049366638064, 0.10709579288959503, 0.014683885499835014, -0.0051306323148310184, -0.08813855051994324, 0.07126707583665848, 0.019243091344833374, 0.021821685135364532, 0.10581323504447937, 0.09544787555932999, 0.030309787020087242, -0.10316994786262512, -0.13928428292274475, 0.03171481192111969, -0.006328921299427748, -0.18164606392383575, 0.21870014071464539, -0.2555299699306488, -0.08106165379285812, 0.27286767959594727, -0.29481440782546997, -0.0032975804060697556, 0.09736311435699463, -0.19837595522403717, -0.1396787464618683, 0.23838478326797485, 0.32888686656951904, -0.023071689531207085, -0.17556145787239075, -0.2788448631763458, -0.17141075432300568, 0.17141497135162354, 0.17425084114074707, -0.17388403415679932, -0.4185565412044525, -0.22322705388069153, 0.056234244257211685, 0.15590175986289978, -0.1154598817229271, -0.15670661628246307, -0.08893139660358429, -0.31541720032691956, -0.09091109782457352, 0.2550187110900879, 0.04589243233203888, -0.1263883113861084, -0.1725781410932541, -0.09547172486782074, 0.4289773106575012, 0.4217333495616913, -0.24297896027565002, 0.048907916992902756, 0.14607445895671844, -0.34135332703590393, 0.012479099445044994, 0.2872118651866913, 0.2480674535036087, -0.058070600032806396, -0.1975805163383484, -0.0655830129981041, 0.030214853584766388, 0.1968601644039154, -0.15818655490875244, 0.11157510429620743, 0.09991709887981415, -0.18602491915225983, -0.05324980989098549, 0.1514318287372589, -0.15624389052391052, 0.01228012889623642, -0.2638233006000519, 0.011297006160020828, -0.077031210064888, 0.05735448747873306, -0.056845247745513916, -0.15014255046844482, -0.06340426206588745, 0.07818859070539474, 0.009174681268632412, 0.07504090666770935, 0.1676037758588791, -0.05265265703201294, 0.047295015305280685, -0.21831929683685303, -0.023159706965088844, 0.04795015603303909, 0.010400200262665749, 0.05078095197677612, 0.026827506721019745, -0.03986678645014763, 0.07594723254442215, 0.04477683827280998, -0.005956759676337242, -0.18090488016605377, 0.012528827413916588, -0.08333653956651688, -0.05934832990169525, -0.0725274533033371, -0.10144156962633133, 0.057616256177425385, 0.01526846457272768, -0.13598127663135529, -0.0651930496096611, 0.04656487703323364, 0.09865426272153854, 0.15562443435192108, 0.010003074072301388, 0.06587822735309601, -0.07615495473146439, 0.015038583427667618, 0.2260594367980957, 0.06418731063604355, -0.08085698634386063, 0.01062115840613842, -0.02788335271179676, 0.022251291200518608, 0.16614381968975067, -0.05328097566962242, -0.03206499293446541, 0.17864958941936493, -0.11366680264472961, 0.15072061121463776, -0.07429452985525131, 0.17660054564476013, 0.13971219956874847, 0.12918196618556976, -0.25089576840400696, -0.10455908626317978, -0.10127648711204529, 0.03890254721045494, 0.02759707346558571, 0.0429825596511364, -0.16151374578475952, -0.11756239086389542, -0.023592324927449226, 0.16694238781929016, -0.2531290352344513, -0.07553630322217941, -0.22683210670948029, 0.09088633954524994, 0.013609806075692177, 0.09968242794275284, 0.07018761336803436, 0.04847756028175354, -0.06321118026971817, -0.10810568183660507, 0.015936296433210373, -0.12020745128393173, 0.044325776398181915, -0.044921524822711945, -0.013948021456599236, 0.13346852362155914, -0.12122973799705505, 0.2351248562335968, 0.1001749113202095, -0.09382803738117218, -0.1651643067598343, -0.14562629163265228, -0.0833076536655426, 0.0403001569211483, 0.0561499148607254, 0.265070378780365, -0.10342539846897125, -0.2215069681406021, 0.14838185906410217, 0.14672958850860596, -0.01468613464385271, 0.03948630765080452, -0.07268870621919632, -0.07883203774690628, -0.21142029762268066, 0.09214767068624496, 0.05588219314813614, 0.1207883432507515, 0.032548073679208755, -0.09225516021251678, -0.2503953278064728, 0.030403584241867065, 0.12747681140899658, 0.2718828320503235, -0.10344719886779785, -0.017305348068475723, 0.271457701921463, -0.07062465697526932, -0.014634791761636734, 0.25309741497039795, -0.11800522357225418, -0.06413767486810684, -0.03860964626073837, 0.129050150513649, 0.21247780323028564, 0.24985437095165253, 0.15260696411132812, -0.14599834382534027, 0.22094953060150146, -0.1598401963710785, -0.18621475994586945, 0.14093589782714844, -0.012526716105639935, 0.04108992964029312, -0.06542710959911346, 0.05204847455024719, 0.022330358624458313, 0.0015596926677972078, -0.07457422465085983, -0.08005285263061523, 0.09753011167049408, -0.011746161617338657, 0.054155997931957245, -0.08625585585832596, -0.009716559201478958, 0.023679953068494797, -0.08550605177879333, 0.1345108151435852, 0.13152284920215607, -0.02312971092760563, -0.0797906219959259, -0.01837456412613392, -0.1194281280040741, 0.15063652396202087, -0.18082833290100098, 0.08341111987829208, -0.2228299230337143, 0.029294995591044426, 0.013923607766628265, 0.077884241938591, 0.026024233549833298, 0.1338748037815094, 0.040094777941703796, 0.059225693345069885, -0.08841078728437424, -0.15487655997276306, 0.02569490112364292, 0.12340118736028671, -0.15188702940940857, 0.08773862570524216, -0.13415230810642242, 0.24601803719997406, 0.020151980221271515, -0.18239006400108337, 0.004087687470018864, -0.024496465921401978, 0.0023103656712919474, -0.09175430238246918, 0.0834699422121048, -0.03401203081011772, -0.17579995095729828, 0.005521090235561132, 0.0808756873011589, 0.0724484920501709, -0.10374157875776291, -0.1285662055015564, -0.04310135543346405, -0.06576410681009293, -0.12711207568645477, 0.2200295627117157, 0.08964050561189651, -0.08432875573635101, 0.041361257433891296, -0.016617432236671448, -0.004655950237065554, 0.09929534792900085, 0.10226792097091675, -0.07465793937444687, 0.14655034244060516, 0.02553166076540947, 0.14685648679733276, -0.13874144852161407, 0.050556596368551254, 0.09689178317785263, -0.07234400510787964, -0.1021391823887825, 0.10096021741628647, -0.12940995395183563, 0.22488386929035187, 0.10676581412553787, 0.16214878857135773, -0.11346446722745895, 0.15596595406532288, 0.029814504086971283, 0.05918899551033974, 0.06293331831693649, 0.165317565202713, 0.03081628866493702, 0.1534280776977539, -0.19867241382598877, 0.15703892707824707, 0.17260579764842987, -0.0034109652042388916, 0.13517069816589355, -0.08393460512161255, -0.06986596435308456, 0.04538033902645111, -0.07965084910392761, 0.19270753860473633, -0.2219294160604477, 0.024235902354121208, -0.0086719561368227, 0.11081798374652863, 0.09673179686069489, 0.12651708722114563, 0.03965994715690613, 0.06430792808532715, 0.06654141843318939, -0.0756913274526596, 0.00584836071357131, -0.03791998699307442, 0.05826905369758606, 0.18201188743114471, 0.1494303047657013, 0.06507759541273117, -0.04384080693125725, 0.1610405594110489, -0.00010084034147439525, 0.06670195609331131, -0.015771573409438133, 0.11379782110452652, 0.09419875591993332, -0.10903681814670563, -0.027508389204740524, -0.09654194116592407, -0.11110255867242813, 0.04234916344285011, 0.040655799210071564, -0.084320068359375, -0.18565213680267334, 0.09743963181972504, -0.08689263463020325, 0.008463777601718903, 0.1710694581270218, -0.0010097100166603923, 0.029821597039699554, -0.11776325851678848, 0.14128714799880981, -0.04279320687055588, 0.11142750829458237, 0.31044644117355347, 0.23644208908081055, 0.03677432984113693, 0.12296564131975174, -0.16320660710334778, -0.09686316549777985, 0.023923955857753754, -0.10740993916988373, -0.17873834073543549, -0.025587843731045723, -0.029360489919781685, -0.19432075321674347, 0.04191615805029869, 0.17377737164497375, -0.0036621270701289177, 0.053855009377002716, -0.08344623446464539, -0.2500971853733063, 0.018644871190190315, 0.10385309159755707, -0.040854137390851974, -0.0656454935669899, -0.2342347651720047, -0.07699712365865707, -0.07968024909496307, -0.20118284225463867, 0.22454114258289337, -0.13078975677490234, -0.03559447079896927, -0.07197030633687973, -0.006273758132010698, 0.028813175857067108, 0.013761008158326149, -0.12584634125232697, 0.0703556165099144, -0.06455469876527786, -0.06528498977422714, 0.24108724296092987, -0.004989490378648043, 0.0710427463054657, 0.1071845218539238, -0.022876577451825142, -0.04856235906481743, 0.014468169771134853, 0.11577976495027542, -0.2594655454158783, -0.050245922058820724, -0.023015640676021576, -0.026128949597477913, -0.20818890631198883, -0.23242725431919098, 0.009080658666789532, -0.16365651786327362, -0.027495156973600388, 0.12268774956464767, 0.13586585223674774, 0.043102968484163284, -0.08720432221889496, 0.049460042268037796, 0.15087783336639404, 0.15696987509727478, -0.10299814492464066, -0.1910601258277893, -0.17398430407047272, -0.22720536589622498, 0.22069326043128967, 0.18058854341506958, 0.17924314737319946, 0.07651253044605255, 0.017560476437211037, 0.03858080506324768, 0.12216870486736298, 0.12627054750919342, 0.05975740775465965, -0.11743715405464172, 0.018278952687978745, 0.008601369336247444, 0.10939951241016388, 0.06136142835021019, 0.0174255408346653, -0.12406155467033386, -0.11296337842941284, 0.008736250922083855, 0.015810968354344368, -0.06088029220700264, 0.10157123953104019, 0.010769818909466267, 0.07446425408124924, -0.3134990334510803, 0.07169397920370102, -0.005810857284814119, -0.11520563811063766, -0.031234046444296837, -0.051688648760318756, 0.2882118821144104, 0.014956090599298477, 0.08126967400312424, 0.3108949661254883, 0.07158565521240234, 0.012150131165981293, -0.05496663972735405, 0.018444159999489784, -0.044336073100566864, -0.025111360475420952, -0.08143646270036697, -0.10523147135972977, -0.13271848857402802, 0.07947507500648499, 0.07527565211057663, 0.0015020943246781826, -0.05077970772981644, -0.056690800935029984, 0.3519488573074341, -0.30030447244644165, -0.03534413129091263, 0.08676330000162125, -0.1475776880979538, 0.3096615970134735, 0.028753340244293213, 0.03003818355500698, 0.03906288370490074, 0.06965070217847824, 0.04063405841588974, -0.10502972453832626, -0.12224569171667099, -0.13268199563026428, -0.016437508165836334, 0.16705608367919922, 0.06953339278697968, -0.33116233348846436, 0.13496363162994385, -0.12343539297580719, 0.1528898924589157, 0.21496713161468506, -0.010885206051170826, -0.4568798243999481, 0.36803343892097473, -0.16160325706005096, 0.08756083250045776, 0.2992713153362274, 0.13006591796875, 0.09502722322940826, -0.2762141227722168, -0.26038846373558044, 0.5388067364692688, -0.06743988394737244, -0.26635661721229553, 0.05245642364025116, 0.11746764928102493, -0.23438315093517303, -0.07803332060575485, 0.18060913681983948, 0.02557859756052494, 0.012673021294176579, -0.14671754837036133, -0.08580062538385391, 0.06251177191734314, -0.08848432451486588, -0.14678584039211273, 0.13319239020347595, -0.1232665404677391, -0.0513799712061882, -0.05378825217485428, 0.1030741035938263, -0.09269306808710098, -0.0509791262447834, -0.03349485993385315, -0.04818649962544441, -0.009728186763823032, -0.15572071075439453, 0.07345469295978546, 0.09110721945762634, -0.024863068014383316, -0.04668446630239487, 0.15153053402900696, 0.23560741543769836, -0.026508411392569542, 0.20883245766162872, 0.06816738843917847, -0.0864759311079979, -0.07161985337734222, 0.15345124900341034, -0.06386401504278183, -0.06847038865089417, -0.013669081963598728, 0.047475628554821014, -0.08429794013500214, -0.07482963055372238, 0.1689263880252838, -0.013868434354662895, -0.06329096853733063, 0.12309224903583527, -0.044117167592048645, -0.03954935818910599, 0.0019002992194145918, -0.11065928637981415, 0.022660035640001297, 0.013884994201362133, -0.01891786977648735, -0.007689999882131815, 0.054438844323158264, -0.19201818108558655, -0.016231875866651535, 0.02185453101992607, -0.05403131991624832, -0.26940667629241943, -0.09459174424409866, -0.010260739363729954, -0.07033238559961319, -0.0969737246632576, 0.274973601102829, 0.12563730776309967, 0.0007068751729093492, 0.112493596971035, 0.0686478465795517, -0.008078552782535553, 0.1208096593618393, -0.040531665086746216, 0.0629025548696518, 0.030621493235230446, 0.015316006727516651, -0.10110737383365631, -0.004859718028455973, 0.07286390662193298, 0.2183331549167633, 0.0241457000374794, 0.13220001757144928, 0.12981443107128143, -0.014385181479156017, -0.04069424793124199, -0.1339109241962433, 0.056409310549497604, 0.023569148033857346, -0.11873850971460342, 0.13808323442935944, -0.08473078906536102, -0.009494571015238762, 0.03959629684686661, 0.038098011165857315, 0.04203532263636589, 0.10678991675376892, 0.16009387373924255, 0.12727691233158112, 0.1287054866552353, -0.037300847470760345, 0.018127238377928734, 0.11756588518619537, -0.18984107673168182, -0.06800465285778046, -0.025922946631908417, 0.0875423401594162, -0.11358614265918732, -0.010906805284321308, -0.17078401148319244, 0.10111794620752335, 0.0676104798913002, 0.00013082733494229615, 0.18530333042144775, 0.10356856882572174, -0.12146324664354324, 0.01587115041911602, -0.013628452084958553, -0.0458342619240284, 0.16947081685066223, -0.0720798596739769, -0.1456533670425415, -0.08662845939397812, -0.09496664255857468, 0.21386750042438507, 0.04252519831061363, -0.07393066585063934, 0.01251304056495428, -0.10317863523960114, 0.026824835687875748, 0.14136478304862976, -0.0730682760477066, 0.048872411251068115, -0.014601225033402443, -0.007379898335784674, 0.15690194070339203, -0.21715345978736877, 0.16181911528110504, 0.11647523194551468, -0.041020262986421585, 0.10177115350961685, -0.07481279224157333, -0.014487136155366898, 0.18653632700443268, -0.17416022717952728, -0.009583711624145508, 0.034860145300626755, -0.035614825785160065, -0.16253437101840973, 0.15703172981739044, -0.07540877908468246, -0.07068268954753876, 0.06751497834920883, 0.1616201102733612, 0.014045676216483116, -0.05101887509226799, -0.10114419460296631, -0.0018092351965606213, 0.025267748162150383, 0.04055056348443031, 0.06197584792971611, 0.19774478673934937, -0.13189350068569183, 0.016815543174743652, -0.042312491685152054, -0.028502315282821655, 0.15664999186992645, 0.0243602953851223, -0.007767897564917803, 0.1494453102350235, -0.131525918841362, 0.09109814465045929, -0.023938225582242012, 0.04565667733550072, 0.035988327115774155, -0.02720477804541588, 0.07129963487386703, 0.10949157923460007, 0.04632524028420448, 0.05770610645413399, -0.10109572857618332, -0.03204627335071564, 0.18742595613002777, -0.044635988771915436, 0.10792706161737442, 0.07777967303991318, -0.03217579796910286, -0.12603715062141418, -0.06790129095315933, 0.06893689185380936, -0.011262775398790836, -0.05230024456977844, -0.03922403231263161, 0.003472435288131237, 0.18378446996212006, 0.08594130724668503, -0.11491472274065018, 0.08827563375234604, -0.04253523424267769, -0.15583345293998718, -0.08615754544734955, -0.02968578226864338, 0.024880340322852135, -0.1335703432559967, 0.09328362345695496, -0.14741697907447815, -0.09359131753444672, 0.2759075462818146, 0.06591453403234482, -0.26473915576934814, 0.2806282937526703, 0.015519503504037857, -0.16862134635448456, 0.21221081912517548, -0.010341431945562363, -0.1541881412267685, 0.37917932868003845, -0.002791461069136858, 0.30923280119895935, -0.38876205682754517, -0.08774976432323456, -0.246604323387146, 0.23108573257923126, 0.06980816274881363, 0.20495136082172394, -0.5531914234161377, 0.02111230418086052, -0.07202116400003433, -0.02023525908589363, 0.031083565205335617, -0.03338029980659485, -0.47166621685028076, 0.3663874566555023, -0.14176489412784576, 0.4250791668891907, 0.14937162399291992, 0.34036198258399963, -0.008345850743353367, -0.14763814210891724, -0.09560706466436386, 0.4456048905849457, 0.0514112152159214, -0.2267632931470871, 0.14582858979701996, -0.03926791995763779, -0.3934665322303772, 0.24653424322605133, -0.16829818487167358, 0.3076629042625427, -0.1411609798669815, 0.11781418323516846, -0.041918907314538956, 0.17587366700172424, -0.09825100749731064, 0.0885133296251297, 0.03558896481990814, 0.08066166937351227, 0.011978281661868095, 0.09623656421899796, 0.04434014856815338, -0.003559812903404236, 0.057373013347387314, -0.04057277366518974, -0.043247561901807785, 0.027383826673030853, 0.011822442524135113, -0.02282668836414814, -0.15729720890522003, 0.021260980516672134, -0.011547508649528027, 0.07041449099779129, -0.22887906432151794, 0.1252344846725464, -0.1747710108757019, -0.07981029152870178, -0.16231712698936462, -0.11704796552658081, -0.11444780230522156, -0.03517692908644676, 0.12853197753429413, 0.13334162533283234, 0.017205161973834038, 0.16783399879932404, -0.11714573204517365, -0.08363626897335052, 0.04646976664662361, 0.07433885335922241, -0.20562364161014557, -0.1293727308511734, 0.15347698330879211, 0.02001113072037697, 0.14748558402061462, -0.08909738063812256, 0.019549669697880745, -0.03931359201669693, -0.018550200387835503, 0.027878744527697563, 0.23507151007652283, 0.20276904106140137, 0.16103671491146088, 0.06234724447131157, -0.0397670604288578, 0.055955126881599426, -0.11059068143367767, 0.0468139573931694, 0.10957201570272446, 0.13034753501415253, -0.0035137326922267675, -0.13899055123329163, 0.04453720524907112, 0.04048166051506996, 0.09959156066179276, -0.027174873277544975, 0.03372281789779663, -0.1177176684141159, -0.5936309695243835, 0.31090012192726135, 0.3123626410961151, -0.5435093641281128, 0.1449376940727234, -0.7185449600219727, -0.20203781127929688, -0.268432080745697, 0.6628480553627014, -0.8093076944351196, -0.632847785949707, -0.8669100999832153, 0.21851663291454315, -0.7765947580337524, 0.44642603397369385, -0.6681025624275208, -0.12937678396701813, -0.013523477129638195, 0.08863262087106705, 0.15239106118679047, 0.2945171594619751, -0.12251747399568558, -0.23701950907707214, 0.034173838794231415, -0.18372055888175964, -0.19245654344558716, 0.16811278462409973, -0.017872294411063194, -0.028490159660577774, -0.061861783266067505, -0.10356921702623367, -0.17324958741664886, 0.14632409811019897, -0.31967633962631226, -0.14074568450450897, 0.11624842137098312, -0.36404120922088623, 0.3489164412021637, 0.15822719037532806, -0.3348311185836792, 0.38753142952919006, -0.034034159034490585, -0.0717473030090332, 0.4074452817440033, 0.08666947484016418, 0.31770068407058716, 0.3311915993690491, 0.34278106689453125, -0.00029103390988893807, -0.16930897533893585, -0.03479993715882301, 0.12596261501312256, -0.022428130730986595, 0.13344214856624603, -0.0101520586758852, 0.033498190343379974, -0.06375453621149063, 0.12545524537563324, -0.1973547637462616, -0.21669773757457733, 0.028132854029536247, 0.08884627372026443, 0.23667311668395996, 0.052248407155275345, 0.12869441509246826, 0.1871032565832138, -0.059371866285800934, -0.3962228000164032, -0.06643817573785782, -0.011873842217028141, -0.27323654294013977, 0.14480167627334595, -0.2576528489589691, 0.030499935150146484, 0.21523568034172058, 0.06426320225000381, -0.11781802028417587, -0.3212025761604309, -0.0036004148423671722, -0.09585542976856232, 0.5105533599853516, 0.0023052594624459743, -0.24680930376052856, -0.22551503777503967, 0.02233702503144741, 0.1173149049282074, -0.044292427599430084, 0.30011847615242004, 0.1501995027065277, -9.616099123377353e-05, -0.02791990526020527, 0.298196405172348, -0.3009212017059326, -0.119078628718853, 0.10636376589536667, -0.10557582229375839, -0.11007452756166458, -0.09517809003591537, -0.2597162127494812, -0.12723690271377563, 0.04552038013935089, -0.021629439666867256, 0.021844029426574707, -0.02325151301920414, 0.10332783311605453, 0.2990547716617584, -0.07060849666595459, -0.0581936314702034, -0.2034362107515335, -0.16047868132591248, 0.12146568298339844, 0.09658967703580856, 0.5005196332931519, -0.29098498821258545, 0.22601057589054108, 0.05350852012634277, 0.20665836334228516, 0.12987497448921204, -0.15429632365703583, -0.29900529980659485, 0.06416857242584229, 0.13544581830501556, -0.1488424688577652, 0.0451049767434597, -0.1945047378540039, 0.18379029631614685, -0.22806105017662048, 0.24126097559928894, 0.19949401915073395, -0.05987526848912239, -0.07171376049518585, 0.1266375035047531, 0.05291134864091873, -0.057622481137514114, 0.03815789148211479, -0.03191057965159416, 0.023511726409196854, 0.3681653141975403, -0.3120521903038025, 0.06899388134479523, -0.13323231041431427, 0.12806178629398346, 0.21583141386508942, 0.10635538399219513, 0.022889919579029083, 0.10147927701473236, -0.09317843616008759, -0.09668558090925217, -0.15577319264411926, -0.16383163630962372, 0.0519845150411129, -0.12100204825401306, -0.020527444779872894, -0.029986612498760223, 0.2252614051103592, -0.04504841938614845, -0.0011960567208006978, 0.15416179597377777, -0.02007417567074299, 0.23115606606006622, 0.08452600985765457, 0.03694015368819237, 0.07243706285953522, 0.11849291622638702, 0.1695866882801056, -0.22292087972164154, 0.09322629868984222, -0.188154399394989, -0.05204343423247337, 0.029654553160071373, 0.13476724922657013, 0.07781041413545609, 0.08828726410865784, 0.07759515196084976, 0.11283743381500244, -0.11053101718425751, -0.09460266679525375, -0.13873076438903809, -0.10604733973741531, 0.1387871503829956, -0.0011039525270462036, -0.0892079547047615, 0.007208450231701136, -0.027494080364704132, 0.15660986304283142, 0.22499419748783112, -0.16856272518634796, 0.05585058778524399, 0.14078493416309357, 0.11557740718126297, 0.07442523539066315, 0.07898407429456711, 0.10963701456785202, 0.339388370513916, -0.16693925857543945, -0.23563909530639648, -0.04405380040407181, -0.11843298375606537, -0.055088549852371216, 0.30140674114227295, -0.2941932678222656, 0.18592466413974762, 0.29464176297187805, -0.20663850009441376, -0.1367078721523285, -0.2779308557510376, 0.0509183295071125, -0.2337396740913391, -0.5173078179359436, -0.1775122433900833, 0.023132776841521263, 0.3889003098011017, 0.10907631367444992, -0.1369379758834839, -0.0728689581155777, -0.010884529910981655, -0.0533195324242115, -0.17541839182376862, -0.2882869243621826, -0.23153987526893616, 0.3894294202327728, -0.07065688073635101, -0.1629859358072281, -0.07389353960752487, 0.012436747550964355, -0.0629986897110939, -0.1925712376832962, 0.4746496379375458, -0.2960427403450012, 0.04764162749052048, 0.13717053830623627, -0.19996066391468048, 0.33027082681655884, 0.12257516384124756, -0.03804031386971474, 0.0529947355389595, 0.33207759261131287, 0.3137291371822357, 0.042087968438863754, 0.04718213155865669, 0.18985053896903992, 0.0785980150103569, 0.005788132548332214, -0.019909637048840523, -0.2507186830043793, -0.03711821511387825, 0.2403116524219513, -0.08510439097881317, -0.02880890667438507, 0.25358739495277405, -0.16613167524337769, 0.03662816062569618, -0.02762722037732601, 0.20135082304477692, 0.357538104057312, 0.25113263726234436, 0.07124270498752594, -0.15661077201366425, -0.059814922511577606, 0.010387170128524303, -0.20615321397781372, 0.07300423830747604, -0.13778065145015717, 0.08989804983139038, 0.10504528135061264, -0.10981763154268265, 0.19911298155784607, 0.13087791204452515, -0.16915251314640045, 0.21189531683921814, -0.21046458184719086, -0.10024000704288483, -0.09526568651199341, 0.05424574762582779, -0.015236427076160908, -0.049592025578022, -0.1166994720697403, 0.03348701074719429, 0.08436617255210876, 0.12642298638820648, 0.0587722510099411, 0.024995874613523483, 0.056014109402894974, -0.1409667730331421, 0.05013059824705124, -0.22002466022968292, -0.11453565210103989, -0.07274646311998367, -0.3315047025680542, 0.23463720083236694, -0.0429895743727684, 0.31961125135421753, -0.18902993202209473, -0.258432537317276, 0.3044782876968384, -0.1620849370956421, -0.12869493663311005, -0.1550833284854889, -0.38136759400367737, 0.15012432634830475, 0.26218080520629883, -0.28105628490448, 0.05937715619802475, 0.016664693132042885, 0.2256253957748413, 0.1301765888929367, 0.19234618544578552, -0.24252955615520477, -0.011887979693710804, 0.3723970949649811, -0.15221397578716278, -0.09057781845331192, 0.11064565181732178, 0.03607744723558426, -0.01827291026711464, 0.1725211888551712, 0.18023061752319336, -0.2956400215625763, 0.19268524646759033, -0.09167655557394028, -0.1934395432472229, -0.29781046509742737, -0.036858249455690384, 0.39804843068122864, -0.26937100291252136, 0.49158385396003723, -0.07940999418497086, 0.17319902777671814, -0.0023145577870309353, -0.2567930817604065, 0.4264681041240692, -0.127278134226799, -0.1494600772857666, -0.023821095004677773, 0.05246119201183319, -0.10408436506986618, 0.13738708198070526, -0.10222476720809937, 0.07903990894556046, -0.09765912592411041, 0.04878348857164383, -0.1912039965391159, 0.15221552550792694, 0.08459703624248505, 0.034881554543972015, -0.03838590532541275, 0.034755490720272064, 0.039565954357385635, 0.1668558269739151, -0.0040746815502643585, 0.0753561407327652, -0.09156523644924164, 0.0018053739331662655, -0.06036979332566261, 0.08483032882213593, -0.15591134130954742, 0.05545434355735779, -0.2503023147583008, -0.22545859217643738, -0.11199527978897095, 0.02206290513277054, -0.06339593231678009, -0.2632344663143158, 0.227071613073349, 0.11751049757003784, 0.08258964866399765, 0.1800318956375122, 0.027101201936602592, -0.11488205939531326, -0.11876332759857178, 0.014614234678447247, 0.04445337876677513, 0.0969759002327919, 0.08518810570240021, -0.047596681863069534, 0.03585973009467125, -0.05042867735028267, -0.20052121579647064, 0.032764069736003876, 0.15624698996543884, 0.02372136525809765, 0.21143263578414917, 0.005205817054957151, 0.1342855989933014, 0.001963895745575428, -0.020218543708324432, -0.08370156586170197, 0.03080352395772934, -0.008132405579090118, -0.04709963873028755, 0.006675349082797766, 0.013902307488024235, 0.1893364042043686, -0.09578219801187515, 0.056501876562833786, -0.10871633142232895, -0.08960151672363281, -0.036291200667619705, 0.037557050585746765, 0.2286948561668396, 0.06115047633647919, -0.09522715210914612, -0.021578006446361542, 0.12556807696819305, 0.08503732085227966, 0.06686563789844513, 0.1669483184814453, 0.050270795822143555, -0.025493090972304344, -0.02711613103747368, 0.12833181023597717, -0.03682044520974159, 0.10407761484384537, -0.06678979843854904, -0.25037682056427, 0.05780878663063049, 0.04548678174614906, 0.09651889652013779, 0.03648117184638977, -0.14828984439373016, 0.008472573943436146, 0.006333240307867527, 0.0898706242442131, -0.13510307669639587, 0.008701981045305729, 0.168436661362648, -0.02264891378581524, -0.17437538504600525, 0.034069474786520004, -0.05811804533004761, -0.1401459127664566, 0.13570638000965118, 0.02310468815267086, -0.21397997438907623, 0.1320900321006775, -0.13638409972190857, 0.13808196783065796, -0.04392969608306885, 0.10053155571222305, 0.1762194186449051, -0.16257953643798828, 0.13054616749286652, 0.056899286806583405, 0.008830833248794079, 0.0325135663151741, 0.018034080043435097, 0.01187000423669815, -0.13378587365150452, -0.0303480327129364, 0.16922789812088013, 0.11625050008296967, 0.014675558544695377, -0.11553023010492325, -0.17990288138389587, 0.15472744405269623, 0.11277709156274796, 0.033202048391103745, 0.05408194661140442, -0.02182379923760891, -0.060815174132585526, -0.13798697292804718, -0.15822726488113403, 0.04707328975200653, 0.06195695698261261, -0.07022818922996521, 0.10789454728364944, -0.005123036447912455, -0.019419100135564804, 0.11913726478815079, -0.16884250938892365, -0.055290527641773224, 0.1532004177570343, -0.04549084231257439, 0.013168812729418278, 0.018857216462492943, -0.014476688578724861, 0.03344716876745224, 0.16308601200580597, -0.044016629457473755, 0.1349651962518692, 0.24248963594436646, -0.1628689169883728, 0.026941025629639626, 0.03785167634487152, 0.15981657803058624, -0.03383119776844978, 0.15403124690055847, 0.1431175321340561, -0.1594829112291336, -0.0014716943260282278, 0.09401655942201614, 0.04994462430477142, 0.03007642552256584, -0.02518323063850403, 0.01580854132771492, -0.14261558651924133, 0.08539262413978577, 0.030712775886058807, -0.11698615550994873, -0.08624044060707092, -0.00793136190623045, -0.17796295881271362, -0.14576639235019684, -0.07000616937875748, 0.06000705808401108, -0.08918575942516327, -0.03780987486243248, 0.061295244842767715, 0.12097635865211487, -0.030179237946867943, 0.05612657219171524, 0.002869212068617344, -0.07809921354055405, -0.10803563892841339, -0.01915353164076805, 0.04860938340425491, -0.09327242523431778, 0.014683673158288002, -0.04429247975349426, 0.039851997047662735, -0.057488031685352325, -0.04808324575424194, 0.08181589096784592, -0.046537380665540695, 0.03416518121957779, 0.11401912569999695, 0.018656602129340172, -0.0018625649390742183, -0.16941715776920319, -0.06302277743816376, -0.1127064898610115, 0.02284991927444935, 0.036887675523757935, 0.011241493746638298, -0.1417255848646164, -0.12440954148769379, -0.015078510157763958, 0.07149801403284073, -0.16033820807933807, -0.0604783371090889, 0.02141263708472252, -0.05683135241270065, -0.027666674926877022, -0.006613926496356726, -0.09383825957775116, -0.017686838284134865, -0.10546842217445374, 0.07493557780981064, 0.1377403438091278, 0.025659503415226936, -0.0544799268245697, 0.17498619854450226, 0.04815340042114258, -0.047733720391988754, -0.011660667136311531, -0.17052432894706726, 6.842568836873397e-05, 0.11372563242912292, -0.07069755345582962, 0.029933493584394455, 0.07320501655340195, 0.15456771850585938, 0.03967028856277466, -0.049042731523513794, -0.09436041861772537, -0.07778047025203705, -0.022556889802217484, -0.1240030825138092, 0.061669886112213135, 0.12982797622680664, -0.09240088611841202, -0.15976622700691223, -0.06414084881544113, 0.19378702342510223, -0.186271071434021, -0.06942078471183777, -0.2076328694820404, -0.014667204581201077, -0.017507223412394524, 0.04453160986304283, -0.1084042340517044, -0.03145923465490341, 0.07677443325519562, -0.12204818427562714, -0.07504917681217194, -0.025252200663089752, 0.1548236757516861, -0.04773815721273422, 0.045129891484975815, -0.07064787298440933, -0.002058190293610096, -0.03397912532091141, -0.05746856704354286, -0.03178282454609871, 0.07638508081436157, 0.02072831429541111, -0.11013375967741013, 0.26003023982048035, 0.032552238553762436, -0.008810829371213913, -0.12529176473617554, 0.04202762246131897, 0.1870870739221573, -0.09617941826581955, 0.17942176759243011, 0.069808728992939, -0.1792411208152771, 0.03839731961488724, -0.051269423216581345, 0.008769030682742596, -0.07787452638149261, -0.0782284215092659, -0.30059102177619934, -0.11094186455011368, 0.08801525831222534, -0.06435377895832062, -0.05957541987299919, 0.0522456020116806, -0.15473589301109314, -0.035510268062353134, 0.10573854297399521, 0.09218012541532516, 0.027064260095357895, -0.04626387357711792, -0.390155553817749, 0.09349535405635834, 0.1469397097826004, 0.30668172240257263, 0.135645791888237, -0.22619622945785522, 0.1514478474855423, 0.17502646148204803, -0.31099212169647217, -0.3984296917915344, -0.22127103805541992, 0.057032547891139984, -0.008814193308353424, 0.19065524637699127, -0.2390524297952652, -0.2291412651538849, 0.1094132736325264, 0.07171578705310822, 0.18202029168605804, 0.07653938233852386, -0.15845263004302979, 0.0730011835694313, 0.4218459725379944, -0.4934343695640564, 0.19157889485359192, 0.11148736625909805, -0.17713497579097748, 0.017393257468938828, 0.3779141306877136, -0.147415429353714, 0.331603080034256, -0.05649698153138161, -0.2670877277851105, -0.26561078429222107, -0.07102970033884048, 0.10056481510400772, 0.0932110995054245, -0.2107730656862259, 0.5476235747337341, 0.13425062596797943, -0.01121339201927185, -0.18032991886138916, 0.23276348412036896, -0.014088079333305359, -0.39090093970298767, 0.14678150415420532, -0.3741794526576996, 0.3961532413959503, -0.18074707686901093, -0.025615587830543518, -0.06877066195011139, 0.1962091475725174, -0.11162950843572617, -0.11326754838228226, 0.13021919131278992, 0.029669245705008507, -0.17635396122932434, -0.06940703094005585, 0.007645977661013603, 0.3127533197402954, -0.021660231053829193, -0.04869238659739494, 0.014273697510361671, -0.06443113833665848, -0.0040781861171126366, 0.02259965054690838, 0.21740011870861053, -0.07443482428789139, -0.08110722154378891, 0.050573986023664474, -0.1426878720521927, -0.08238070458173752, 0.13186600804328918, -0.12595094740390778, -0.028025826439261436, -0.12247034907341003, 0.1354508250951767, -0.02438254840672016, 0.14519311487674713, -0.054502084851264954, -0.2581915855407715, -0.06222975626587868, 0.12097999453544617, 0.1599072813987732, -0.282746285200119, 0.11438991129398346, -0.041333671659231186, 0.12154387682676315, -0.1084890142083168, -0.06695933640003204, 0.2848573625087738, 0.06309325248003006, -0.11958788335323334, 0.15929757058620453, 0.027268946170806885, 0.26440563797950745, 0.066521555185318, -0.047465961426496506, -0.07870437949895859, 0.1196737214922905, 0.09798544645309448, 0.03216712921857834, 0.09084412455558777, 0.007897738367319107, 0.011031502857804298, -0.05946764722466469, -0.030456041917204857, 0.009914083406329155, 0.1362851858139038, -0.0003776036319322884, 0.10453680902719498, -0.15202507376670837, 0.028455086052417755, -0.023323407396674156, -0.1319744884967804, -0.035490732640028, -0.27734822034835815, -0.10257323831319809, -0.2708478569984436, -0.18907006084918976, -0.024717219173908234, -0.1199415922164917, -0.00835148710757494, 0.21511992812156677, -0.032240286469459534, 0.04367930069565773, 0.1339084953069687, 0.02642390877008438, -0.14384430646896362, -0.13810406625270844, 0.19196897745132446, 0.040327493101358414, -0.043214090168476105, 0.02887704037129879, -0.06510448455810547, 0.010527964681386948, -0.1413353532552719, -0.10560321062803268, 0.05673062056303024, 0.15046952664852142, -0.15913158655166626, -0.1567041575908661, 0.07342744618654251, -0.13924849033355713, 0.010236196219921112, -0.02251872420310974, 0.006213076878339052, 0.04840337485074997, 0.019954117015004158, 0.08225630223751068, 0.12964747846126556, 0.06618458032608032, 0.05500693619251251, -0.06325934082269669, 0.18877054750919342, 0.23998893797397614, 0.1891753226518631, -0.03997744992375374, 0.1688147783279419, -0.05253208801150322, 0.018168674781918526, 0.011930832639336586, 0.09663571417331696, 0.10713694989681244, -0.15516996383666992, -0.028489749878644943, 0.01849929243326187, -0.05814231559634209, 0.07218741625547409, 0.10966845601797104, -0.03587251529097557, -0.014346041716635227, -0.11343065649271011, -0.10937608778476715, 0.12563052773475647, -0.009276262484490871, -0.001084165764041245, -0.011380675248801708, 0.007362239994108677, 0.16229775547981262, 0.16687601804733276, -0.020712358877062798, -0.043009836226701736, 0.19359152019023895, -0.16929833590984344, -0.12602269649505615, 0.04830844700336456, 0.16390135884284973, -0.1568818986415863, -0.01139095053076744, -0.25297364592552185, 0.014408253133296967, -0.07644965499639511, -0.04487922042608261, -0.14753250777721405, -0.10870635509490967, -0.1606513410806656, 0.19264701008796692, -0.04670875519514084, -0.08089850842952728, 0.2977446913719177, -0.13209255039691925, 0.012086029164493084, 0.0036091278307139874, 0.007880551740527153, -0.07651371508836746, 0.248697429895401, 0.024936264380812645, -0.11686517298221588, -0.19445377588272095, -0.07522419840097427, 0.057590827345848083, 0.31079551577568054, 0.2601240277290344, -0.19533851742744446, 0.006000743713229895, -0.24795837700366974, -0.03175539895892143, 0.012567208148539066, -0.004743511788547039, -0.06859226524829865, -0.17245376110076904, -0.1885170191526413, -0.16401807963848114, 0.09809992462396622, 0.2102547287940979, -0.05042705312371254, -0.02963262051343918, -0.023110954090952873, 0.2534366548061371, -0.4291706681251526, -0.21119554340839386, -0.15112154185771942, 0.2916441261768341, -0.19215570390224457, -0.2591578960418701, 0.33679696917533875, -0.054572831839323044, 0.09593400359153748, -0.2773395776748657, 0.03390195965766907, -0.08770320564508438, 0.23880696296691895, 0.15993817150592804, 0.019910747185349464, -0.19505181908607483, 0.06806094944477081, -0.09556200355291367, -0.05180083215236664, -0.03868013247847557, 0.06519582867622375, 0.09192904829978943, 0.13108956813812256, 0.156807541847229, 0.01181052252650261, -0.021682659164071083, 0.08504362404346466, 0.20322805643081665, -0.08790768682956696, 0.1667667031288147, -0.15709476172924042, -0.04483742639422417, -0.06539752334356308, -0.05253669619560242, 0.1140425056219101, -0.11262419074773788, -0.04051094502210617, -0.15928855538368225, 0.0016578399809077382, -0.07854785770177841, 0.1820274442434311, 0.16131271421909332, -0.08306867629289627, -0.03613252937793732, 0.006686357781291008, 0.17195194959640503, -0.029541030526161194, -0.09161138534545898, -0.020115235820412636, 0.1601148396730423, 0.0796104148030281, -0.05707047879695892, 0.12513720989227295, 0.12892504036426544, -0.23940806090831757, 0.0776924341917038, -0.1421368569135666, 0.10207749158143997, 0.09319105744361877, 0.003923820331692696, 0.0861823558807373, 0.16693280637264252, -0.06396008282899857, -0.1446673721075058, 0.21285784244537354, 0.06666082888841629, -0.22465994954109192, -0.11246489733457565, -0.029284629970788956, 0.28656646609306335, 0.0053350115194916725, 0.125728040933609, 0.07960754632949829, -0.1628706008195877, -0.057837143540382385, 0.06632362306118011, 0.07065927982330322, -0.025442959740757942, -0.12840521335601807, -0.10990823060274124, -0.01652773842215538, -0.1225007176399231, 0.0923483818769455, 0.06619122624397278, -0.11956024169921875, -0.027445996180176735, -0.07702310383319855, 0.13467134535312653, 0.12081915885210037, 0.029929878190159798, -0.24249207973480225, -0.16845184564590454, 0.049702879041433334, 0.13594582676887512, -0.0019188321894034743, 0.04970612749457359, 0.10814954340457916, 0.16650840640068054, 0.14023013412952423, -0.20529398322105408, 0.0850951075553894, 0.04620900750160217, -0.12004979699850082, 0.04819134250283241, -0.05275842919945717, 0.11118213087320328, 0.04729418829083443, 0.28382277488708496, 0.03213613107800484, -0.016550451517105103, 0.03335847333073616, 0.09749582409858704, -0.056092917919158936, -0.06458941847085953, 0.14829261600971222, 0.09294494986534119, -0.23113812506198883, -0.08530226349830627, -0.003887873375788331, -0.141233891248703, -0.12159759551286697, 0.1314525306224823, -0.0165275726467371, -0.2379474639892578, -0.07738383114337921, -0.0486830435693264, -0.010623871348798275, 0.009245423600077629, -0.05334661900997162, 0.03974628075957298, 0.0050227404572069645, -0.15693971514701843, 0.15105287730693817, -0.026782065629959106, 0.0732145830988884, 0.1344429850578308, -0.10336630046367645, 0.007553256116807461, 0.13145571947097778, -0.0032344753853976727, -0.04738027974963188, -0.2175387144088745, -0.10903376340866089, 0.08667843043804169, 0.0033631015103310347, -0.1190294697880745, -0.10401788353919983, 0.1472080647945404, -0.09467416256666183, -0.22774729132652283, 0.07251394540071487, 0.1140795648097992, 0.0924646332859993, 0.057613033801317215, 0.0328686460852623, 0.10166054964065552, 0.09982479363679886, 0.05553123354911804, -0.03212723135948181, 0.06622490286827087, 0.038218867033720016, 0.08564265817403793, -0.007706288248300552, -0.10117702186107635, 0.04989032819867134, 0.15447679162025452, 0.12123267352581024, 0.07989537715911865, 0.00940373633056879, 0.00675646448507905, -0.05887889862060547, 0.06657173484563828, 0.1211179718375206, 0.036963626742362976, -0.030942726880311966, -0.08433865755796432, -0.018422573804855347, 0.11441772431135178, 0.04872971028089523, -0.028241440653800964, -0.08991312980651855, -0.16401740908622742, -0.03898774832487106, 0.027323585003614426, 0.06656795740127563, -0.14479121565818787, -0.07158124446868896, -0.18036390841007233, 0.10333199054002762, 0.2379489541053772, -0.1297776699066162, 0.10939645767211914, -0.080915167927742, 0.007210109382867813, 0.014721309766173363, -0.20623627305030823, 0.24703294038772583, -0.030403615906834602, -0.1272396594285965, -0.2295614778995514, -0.06115484982728958, 0.11447951942682266, 0.012280349619686604, 0.02145003341138363, 0.010187303647398949, -0.008498995564877987, 0.08713176101446152, 0.0847926214337349, -0.08448135107755661, -0.0510077066719532, 0.07322101294994354, 0.05445240065455437, 0.07247910648584366, 0.010914511978626251, -0.19086186587810516, 0.009812531061470509, -0.04918188974261284, 0.03273686766624451, -0.3224083483219147, -0.43401476740837097, 0.6500519514083862, 0.41320177912712097, -0.3198660910129547, 0.0309455469250679, -0.3263651430606842, -0.06080906465649605, 0.5492320656776428, -0.6289997100830078, 0.8852241039276123, 0.4655942916870117, 0.20115047693252563, -0.30013906955718994, 0.11164622008800507, -0.48086684942245483, 0.2197241485118866, -0.07178498059511185, -0.06734132021665573, -0.02280912920832634, 0.0883127972483635, 0.19674256443977356, 0.1301548182964325, 0.002341313287615776, 0.2361033409833908, 0.13941897451877594, 0.15289391577243805, 0.07402347028255463, -0.1367214322090149, 0.14006741344928741, -0.04606039077043533, -0.0026790860574692488, 0.00227454979903996, 0.06251253187656403, 0.03409188240766525, 0.1586342751979828, 0.154058575630188, 0.10406158864498138, -0.09774240106344223, -0.3035910725593567, -0.2837887704372406, 0.04760456085205078, 0.1204572468996048, -0.14651547372341156, 0.1673852652311325, 0.29665407538414, 0.0393749363720417, 0.0032559623941779137, -0.15132302045822144, -0.3777318000793457, 0.1547960340976715, -0.16218020021915436, -0.0704192966222763, -0.032997358590364456, 0.08484558761119843, -0.37125587463378906, -0.37972888350486755, -0.17308355867862701, -0.2135651558637619, 0.31349653005599976, 0.08383145183324814, -0.4612862169742584, 0.024131406098604202, -0.1360081136226654, 0.3678883910179138, 0.03738345578312874, 0.1826246827840805, -0.01651861146092415, -0.0899638831615448, 0.17505547404289246, -0.14748159050941467, 0.19623763859272003, 0.12440130859613419, -0.1353139579296112, -0.05640260875225067, 0.3488007187843323, 0.07988187670707703, 0.06588858366012573, 0.2086375653743744, -0.09300439059734344, 0.046238988637924194, -0.23298877477645874, 0.2611767649650574, -0.32243648171424866, 0.00042046845192089677, -0.0030512362718582153, 0.23518629372119904, -0.19368553161621094, -0.05819227173924446, -0.19932568073272705, -0.4294408857822418, 0.3578628897666931, -0.43853914737701416, -0.46719232201576233, 0.2487238198518753, -0.18119655549526215, -0.09842237085103989, -0.015835460275411606, 0.02922183834016323, -0.05545775219798088, -0.09479860216379166, -0.025643523782491684, 0.15187320113182068, 0.057645395398139954, -0.2202787846326828, -0.18165795505046844, -0.15157867968082428, 0.15013395249843597, -0.027118375524878502, 0.08181298524141312, 0.28171423077583313, 0.06311344355344772, 0.12342695146799088, 0.27514851093292236, -0.16439275443553925, -0.01670408807694912, 0.15880368649959564, -0.16263040900230408, -0.0019045877270400524, -0.07194381207227707, -0.10205260664224625, 0.24330316483974457, 0.2185109704732895, -0.07309958338737488, 0.11933760344982147, 0.16515511274337769, 0.039290327578783035, 0.24424757063388824, 0.3634747564792633, 0.1822660267353058, -0.28432148694992065, -0.15851524472236633, 0.14715167880058289, -0.07949899882078171, -0.00447483966127038, -0.018904980272054672, 0.35467082262039185, 0.23122099041938782, 0.1404143124818802, 0.16609548032283783, 0.08300197124481201, 0.3147815763950348, 0.06997323781251907, 0.06335124373435974, -0.2379877269268036, 0.32735154032707214, -0.1333562284708023, 0.1794448345899582, 0.17818084359169006, -0.03641258552670479, -0.2761077582836151, -0.12970803678035736, -0.21997559070587158, 0.12452327460050583, -0.02672840654850006, 0.36878713965415955, -0.32856932282447815, -0.11272285133600235, 0.017484411597251892, 0.05004395544528961, 0.11469494551420212, 0.0023097333032637835, -0.19366005063056946, 0.24060910940170288, 0.22386029362678528, 0.1282329559326172, -0.26602327823638916, -0.5468012690544128, -0.3266443610191345, 0.03263579308986664, 0.08621059358119965, 0.16080603003501892, -0.1062886118888855, -0.260145366191864, 0.15294316411018372, -0.06837248802185059, 0.13312844932079315, -0.05654420703649521, -0.1262378841638565, -0.15974771976470947, 0.17298096418380737, -0.23484449088573456, -0.001586530706845224, -0.24778150022029877, 0.17768777906894684, 0.06439562886953354, -0.13881775736808777, 0.19526267051696777, -0.007440540008246899, -0.2818642258644104, 0.08923187106847763, 0.31663641333580017, 0.21407450735569, -0.05566161125898361, 0.005194050259888172, -0.0419652983546257, -0.11624246835708618, 0.2586989402770996, 0.3611098825931549, 0.11010771244764328, -0.14124128222465515, -0.3233901262283325, -0.3117368817329407, 0.28644534945487976, -0.28917598724365234, -0.3070749342441559, 0.17262697219848633, 0.08921230584383011, -0.878058135509491, -0.20550023019313812, 0.0367068387567997, 0.23649387061595917, 0.15701612830162048, -0.07608607411384583, -0.173747256398201, -0.5326240658760071, -0.481390118598938, -0.06773227453231812, 0.005711037665605545, 0.04068203270435333, 0.001313946209847927, -0.4472997188568115, -0.20791304111480713, -0.21086937189102173, -0.379617840051651, 0.36714839935302734, -0.2876969575881958, 0.11315152794122696, 0.1873670518398285, -0.298156201839447, -0.10293801128864288, -0.29216036200523376, 0.07560794800519943, 0.2417144924402237, 0.3488911986351013, -0.26474350690841675, 0.10459566861391068, 0.28140777349472046, -0.3880130648612976, 0.22608903050422668, -0.040429532527923584, 0.19011126458644867, -0.0301507655531168, -0.04906816408038139, -0.16230908036231995, -0.03106703795492649, 0.13582102954387665, -0.3040628135204315, -0.019345613196492195, 0.10679735988378525, 0.016772501170635223, 0.3742080628871918, -0.21168869733810425, -0.10277969390153885, 0.03387198969721794, -0.21259631216526031, -0.15698890388011932, -0.15081286430358887, -0.061244815587997437, -0.2774772644042969, -0.06424536556005478, -0.11782149225473404, -0.10822473466396332, -0.5229671597480774, -0.10363539308309555, 0.27262982726097107, 0.268515408039093, 0.4765535891056061, -0.1847866028547287, -0.18997113406658173, -0.02689777873456478, 0.17476512491703033, 0.011150747537612915, 0.07578058540821075, 0.05511204153299332, 0.06411978602409363, -0.05876816064119339, 0.10447287559509277, 0.061513904482126236, -0.029647015035152435, -0.16045114398002625, -0.038069553673267365, 0.031555287539958954, 0.0682234987616539, 0.07387112826108932, 0.1608181893825531, 0.035958319902420044, -0.05112602934241295, -0.03873473405838013, -0.022767404094338417, 0.10952191054821014, 0.06935092806816101, -0.09696809202432632, 0.07148777693510056, 0.09696264564990997, -0.4639468491077423, 0.10376006364822388, -0.24569129943847656, 0.08229972422122955, 0.04411345347762108, -0.1460799276828766, -0.5893157720565796, -0.16962911188602448, -0.08100604265928268, -0.05535435304045677, 0.060673799365758896, 0.2545219659805298, -0.06405721604824066, -0.0956772193312645, 0.02901790291070938, 0.06148206815123558, 0.01040932722389698, 0.1178111657500267, -0.35382378101348877, -0.032904040068387985, -0.1305687129497528, -0.39711102843284607, -0.1669546365737915, 0.02953098528087139, -0.30040231347084045, 0.16735781729221344, -0.14090600609779358, -0.161638081073761, -0.07664316147565842, -0.23195171356201172, -0.26921188831329346, -0.06802783906459808, 0.1653488278388977, -0.06710802018642426, -0.1292724460363388, -0.00503078568726778, -0.35955968499183655, -0.030164722353219986, -0.07637999206781387, -0.8453419208526611, 0.1716855764389038, 0.044819176197052, -0.016418684273958206, -0.23958012461662292, -0.01822700910270214, -0.020574303343892097, -0.0702660009264946, -0.09878376126289368, -0.07947287708520889, -0.020599598065018654, -0.02704716846346855, 0.07245323061943054, 0.05923030525445938, -0.03960831090807915, 0.14098526537418365, -0.05358922481536865, 0.1629675179719925, -0.19988039135932922, -0.06488310545682907, -0.19912010431289673, 0.140707865357399, 0.030128290876746178, -0.08742377161979675, -0.22679327428340912, 0.10030601918697357, -0.04707496240735054, 0.11249067634344101, -0.0379512719810009, -0.0992075577378273, -0.14923781156539917, 0.11711166799068451, -0.21825985610485077, 0.16341742873191833, 0.010958678089082241, 0.26221221685409546, -0.04793744534254074, -0.18176327645778656, -0.03147511184215546, -0.17368297278881073, -0.012995610944926739, -0.2606150805950165, 0.1549645960330963, -0.08063086122274399, -0.08725215494632721, 0.20387038588523865, 0.03342447802424431, -0.05940321087837219, -0.23930712044239044, -0.19275285303592682, -0.2620905041694641, -0.1059964969754219, 0.21602942049503326, 0.3016166388988495, -0.025143442675471306, -0.2844756543636322, 0.016898348927497864, -0.11186649650335312, -0.013020282611250877, -0.17813938856124878, 0.033029280602931976, 0.002893491880968213, 0.1475556343793869, -0.14909714460372925, 0.015621163882315159, -0.26918166875839233, -0.10466092079877853, 0.1542649269104004, 0.16932174563407898, 0.06338731199502945, -0.27256157994270325, 0.13562098145484924, -0.09115046262741089, -0.12245558947324753, 0.12172292917966843, 0.0380394347012043, -0.020380988717079163, -0.028852922841906548, -0.15358850359916687, 0.06807773560285568, 0.17156054079532623, -0.017700180411338806, -0.21373572945594788, -0.26547229290008545, -0.11643575131893158, 0.044193241745233536, -0.1370021551847458, 0.07602613419294357, 0.1345297396183014, 0.06832405924797058, -0.025131206959486008, -0.1887868046760559, 0.3107166588306427, -0.15424606204032898, -0.19068564474582672, -0.07181135565042496, -0.1121475026011467, 0.13682633638381958, -0.1864645779132843, 0.17586278915405273, 0.2128434032201767, 0.21985989809036255, 0.015070644207298756, -0.09638209640979767, 0.273097425699234, -0.0421682633459568, -0.10306091606616974, -0.07364284247159958, 0.1070103719830513, 0.24077019095420837, 0.033666763454675674, 0.032271962612867355, 0.19058538973331451, -0.22324104607105255, -0.08449788391590118, 0.2703709304332733, 0.2937189042568207, -0.05300240218639374, -0.11936388909816742, 0.1361730843782425, -0.05281538516283035, 0.0014151684008538723, 0.22089773416519165, -0.1418009102344513, -0.256212055683136, -0.3474600911140442, 0.14736433327198029, 0.1638174057006836, 0.2248951494693756, 0.08111302554607391, -0.13166534900665283, -0.18526169657707214, 0.1279502660036087, 0.2997741401195526, -0.15568895637989044, 0.23501354455947876, -0.23144963383674622, 0.26305222511291504, 0.0744328424334526, -0.30685779452323914, 0.1134873777627945, 0.015586390160024166, -0.16604894399642944, -0.25107380747795105, -0.005434380378574133, 0.1655879020690918, 0.1569969207048416, -0.12935484945774078, -0.05823015794157982, 0.13190582394599915, 0.16997429728507996, -0.014361466281116009, -0.03407588228583336, 0.4423779547214508, -0.20947979390621185, 0.17962434887886047, -0.15853935480117798, 0.1847969889640808, 0.21487785875797272, 0.006509278900921345, -0.048910364508628845, -0.12424921244382858, 0.07398643344640732, 0.22250518202781677, -0.03839199244976044, -0.004002241417765617, -0.010796780698001385, -0.006746388506144285, -0.02948053367435932, -0.11509805917739868, -0.13907036185264587, 0.31611475348472595, -0.2447388917207718, -0.24688328802585602, 0.18681785464286804, -0.058683961629867554, 0.1188383549451828, 0.20489400625228882, -0.15614968538284302, -0.025855207815766335, -0.1296664923429489, -0.030796663835644722, -0.17213420569896698, 0.4002303183078766, -0.12133094668388367, -0.14258264005184174, 0.03595346584916115, -0.1424402892589569, -0.0048141153529286385, 0.11978258192539215, -0.08712828159332275, 0.006889672018587589, 0.272113174200058, -0.32559412717819214, -0.19102711975574493, -0.17251156270503998, 0.06382270157337189, 0.11841326206922531, 0.0921972468495369, -0.2621980607509613, 0.16168037056922913, 0.17578867077827454, -0.21128550171852112, -0.1755795180797577, -0.04534472897648811, -0.020686861127614975, 0.03956788033246994, -0.2321036458015442, -0.20968550443649292, -0.2599170506000519, -0.1818249374628067, 0.17142705619335175, 0.12745948135852814, 0.11838605999946594, -0.12075142562389374, 0.11419840902090073, -0.0026619744021445513, -0.15224991738796234, 0.017850253731012344, 0.16671715676784515, -0.274471640586853, -0.2718479633331299, 0.037052758038043976, -0.17766916751861572, 0.15709960460662842, -0.04213101044297218, -0.3103208541870117, -0.08418326079845428, -0.11573488265275955, 0.19396935403347015, -0.07668069005012512, -0.03959192708134651, -0.210666686296463, 0.15448275208473206, 0.042428452521562576, -0.2271590381860733, 0.17202606797218323, 0.11594785749912262, -0.3082600235939026, -0.12986932694911957, -0.005427148193120956, -0.20481806993484497, 0.14302636682987213, -0.02223660610616207, -0.13767792284488678, -0.13756027817726135, 0.012717701494693756, 0.006002681329846382, 0.018676728010177612, 0.3078368306159973, -0.07199942320585251, -0.025899069383740425, -0.13270357251167297, -0.04078493267297745, 0.04048606753349304, 0.08223143965005875, 0.019583728164434433, -0.02307717502117157, -0.10718967765569687, 0.12234800308942795, -0.14241190254688263, -0.019786054268479347, -0.03621396794915199, 0.10010118782520294, 0.05364273115992546, 0.0849280059337616, -0.14721328020095825, 0.17538334429264069, -0.07242249697446823, 0.08936566114425659, 0.12479028105735779, 0.16303955018520355, 0.045010630041360855, 0.09712828695774078, -0.01226084679365158, 0.06263463944196701, -0.16151544451713562, -0.016528811305761337, 0.24402932822704315, 0.033125169575214386, -0.11512857675552368, -0.21191558241844177, 0.06988437473773956, -0.15710113942623138, -0.10836450755596161, 0.2695474326610565, 0.04386433959007263, 0.08547664433717728, 0.1585901826620102, -0.22891874611377716, -0.143344447016716, -0.011723137460649014, 0.032595403492450714, 0.2079809606075287, -0.14585691690444946, 0.06882140040397644, -0.05366437882184982, -0.3569701611995697, 0.15083688497543335, -0.22142721712589264, 0.2638418674468994, 0.04009837284684181, -0.25289711356163025, 0.10625243932008743, -0.1458672136068344, -0.22497889399528503, -0.04731851816177368, -0.09225057065486908, 0.17067891359329224, -0.21730366349220276, -0.012970474548637867, 0.12882566452026367, 0.016978774219751358, -0.1642749309539795, 0.2227560430765152, -0.12342724204063416, 0.02567128837108612, -0.14526943862438202, -0.1838294118642807, -0.18871107697486877, 0.0600205659866333, -0.2097681611776352, -0.16189853847026825, -0.21152903139591217, -0.0049415272660553455, 0.16391535103321075, -0.06223994120955467, -0.1675902009010315, 0.12337369471788406, 0.23684723675251007, -0.25049832463264465, -0.06684241443872452, 0.10729298740625381, -0.2669762074947357, -0.04511301964521408, -0.08597911894321442, -0.24852384626865387, 0.12381897121667862, -0.09251081943511963, 0.10967972874641418, 0.02980908565223217, 0.16700902581214905, -0.03734138607978821, 0.018274767324328423, -0.05838696286082268, -0.28152287006378174, 0.18785451352596283, -0.09429676830768585, -0.1435849368572235, -0.12049346417188644, -0.10950209200382233, -0.17367830872535706, 0.09429223835468292, -0.12062553316354752, 0.003133486257866025, 0.042674023658037186, 0.01111067458987236, -0.05746348574757576, -0.18373556435108185, 0.053051624447107315, -0.04487660154700279, -0.39788520336151123, -0.027516355738043785, 0.035874053835868835, -0.014348911121487617, -0.20178678631782532, 0.14642280340194702, -0.03488979861140251, 0.1218600645661354, -0.1575818508863449, -0.062138646841049194, 0.09575659781694412, -0.02849070355296135, -0.08258525282144547, -0.1838802546262741, 0.15885064005851746, 0.17343170940876007, -0.04940067231655121, 0.16188055276870728, -0.03578410670161247, 0.1393044888973236, 0.024005834013223648, -0.04898340627551079, -0.17913006246089935, 0.023932674899697304, 0.3606652617454529, 0.05494403839111328, 0.06937029212713242, 0.007418183609843254, -0.07746265828609467, -0.13450536131858826, -0.009455620311200619, -0.015818268060684204, 0.09572871029376984, -0.04936010390520096, 0.12463165819644928, -0.07244616746902466, -0.08735127002000809, 0.10990169644355774, 0.32450008392333984, 0.06891988962888718, 0.008056316524744034, 0.09505851566791534, -0.11878183484077454, -0.1089729592204094, -0.14681577682495117, 0.08404476195573807, -0.023837123066186905, -0.12733401358127594, 0.034220799803733826, -0.07363099604845047, -0.035315513610839844, 0.06913948059082031, -0.04707799106836319, -0.056170523166656494, 0.054531797766685486, -0.2742227613925934, 0.12161280959844589, -0.07373715937137604, 0.08367457985877991, -0.056091438978910446, -0.12522193789482117, 0.10137734562158585, -0.181168794631958, 0.08244341611862183, -0.22201766073703766, 0.04614677652716637, -0.035797856748104095, -0.04199990630149841, 0.15088626742362976, -0.15315406024456024, 0.12123405188322067, -0.11102183163166046, 0.06263081729412079, -0.06180739030241966, 0.04572344198822975, 0.24181079864501953, 0.21893680095672607, -0.19683222472667694, -0.05401674658060074, -0.11253257840871811, -0.12787529826164246, 0.17734654247760773, 0.025842983275651932, 0.19075581431388855, -0.012850821949541569, -0.26274585723876953, -0.07450845092535019, 0.07743123173713684, -0.0037417549174278975, 0.1738308072090149, 0.12751369178295135, 0.2115255445241928, 0.02705358900129795, -0.2073816955089569, 0.10779035091400146, 0.19202029705047607, -0.011921508237719536, 0.06095828115940094, -0.10475193709135056, -0.041768547147512436, -0.07449020445346832, 0.28805580735206604, 0.033514805138111115, 0.1353859305381775, -0.03151920065283775, -0.10351014137268066, -0.2873833179473877, 0.15678714215755463, 0.05681536719202995, -0.059554580599069595, -0.2046853005886078, 0.08713771402835846, 0.20338068902492523, -0.17996656894683838, -0.07612704485654831, 0.06521803140640259, -0.07281007617712021, -0.029955510050058365, -0.2098393589258194, 0.29321208596229553, 0.31335002183914185, -0.17230522632598877, 0.1390901356935501, 0.2121037244796753, 0.1562669277191162, -0.007764462381601334, -0.15336385369300842, 0.013769603334367275, -0.1267973780632019, 0.1617533266544342, -0.1813729703426361, -0.011279373429715633, 0.0351300872862339, -0.22959506511688232, -0.08893902599811554, 0.11040348559617996, -0.07633452117443085, -0.03403342515230179, 0.01606522500514984, 0.1117938682436943, -0.13505302369594574, -0.19297568500041962, 0.2665804922580719, -0.03904314711689949, 0.09805038571357727, 0.028332369402050972, -0.13668403029441833, -0.02437696047127247, -0.16269129514694214, 0.2503315508365631, 0.043891966342926025, 0.24014592170715332, -0.19923806190490723, 0.1258666068315506, -0.022964907810091972, 0.013820740394294262, 0.09637201577425003, -0.02176627144217491, 0.17477485537528992, -0.1602037400007248, 0.25698140263557434, -0.12547199428081512, -0.014967664144933224, 0.040623895823955536, -0.2302560657262802, -0.1284283548593521, 0.07543572783470154, -0.1849924772977829, 0.2539222240447998, -0.11149448156356812, 0.08486881107091904, 0.17685207724571228, 0.16649125516414642, -0.08138440549373627, -0.22322601079940796, 0.19268447160720825, -0.006923657841980457, -0.13540416955947876, -0.2344534993171692, 0.08358319848775864, 0.05865911394357681, -0.24019820988178253, 0.20450571179389954, 0.08687979727983475, -0.060880396515131, 0.009333966299891472, 0.04846298694610596, -0.02260020188987255, 0.029164722189307213, -0.24768656492233276, 0.17625288665294647, 0.007995450869202614, 0.002535897074267268, 0.028541233390569687, 0.16153375804424286, -0.23675419390201569, -0.36249688267707825, 0.33966949582099915, 0.05787361040711403, 0.10106652975082397, -0.039012372493743896, -0.20376630127429962, -0.33607280254364014, 0.010024847462773323, 0.287496954202652, -0.0920226201415062, 0.09789789468050003, -0.08752116560935974, 0.3124053478240967, -0.036821503192186356, -0.11606846749782562, 0.16833330690860748, 0.02791033685207367, -0.05869259312748909, -0.21527260541915894, 0.20554128289222717, 0.18783989548683167, 0.10942662507295609, 0.00708532752469182, -0.02876715362071991, -0.06218494474887848, 0.08282966166734695, 0.10492341965436935, -0.2636258602142334, -0.008621756918728352, 0.12966704368591309, 0.15697310864925385, 0.060978904366493225, -0.060237959027290344, 0.05678584426641464, -0.12733696401119232, 0.011907651089131832, 0.1572379469871521, 0.09522571414709091, -0.020077243447303772, -0.2431652694940567, 0.0500248447060585, 0.24608492851257324, -0.19904465973377228, -0.030706461519002914, 0.08586256951093674, -0.1816575974225998, -0.10095414519309998, 0.09097349643707275, 0.032587941735982895, -0.3433525264263153, 0.036610253155231476, -0.09869111329317093, -0.045732006430625916, 0.20781561732292175, 0.18909262120723724, -0.03897638991475105, -0.13042336702346802, 0.04587026312947273, -0.1452438086271286, -0.20990456640720367, -0.16443806886672974, -0.09978770464658737, 0.1870802938938141, -0.2305561751127243, -0.14414158463478088, 0.2153632938861847, -0.1757914125919342, -0.01837102696299553, -0.07700636982917786, 0.11864414811134338, -0.04174232855439186, -0.009279453195631504, -0.23887141048908234, 0.06696914881467819, 0.10295435786247253, -0.08256073296070099, 0.22179822623729706, -0.047041259706020355, 0.08537118136882782, -0.058837611228227615, 0.18138782680034637, 0.07279244810342789, -0.05206675082445145, -0.05753502994775772, 0.2241983413696289, -0.19444432854652405, -0.09942259639501572, -0.04164057970046997, -0.05567879602313042, 0.1748788207769394, -0.19848021864891052, -0.04570881649851799, 0.10547177493572235, -0.15715757012367249, 0.16530203819274902, 0.06501288712024689, 0.011546249501407146, 0.07802771776914597, 0.021867332980036736, -0.13564960658550262, 0.02079620398581028, 0.021744288504123688, 0.28925856947898865, -0.1703728437423706, -0.19316859543323517, -0.07766791433095932, 0.1964423954486847, -0.24229362607002258, -0.1927361786365509, 0.22313758730888367, 0.016249172389507294, -0.23945535719394684, 0.13811516761779785, -0.060618165880441666, 0.06196904182434082, 0.258551687002182, -0.290119469165802, 0.05403788760304451, 0.20824241638183594, -0.02448398992419243, -0.2545534074306488, 0.05863348767161369, 0.21081656217575073, -0.26214301586151123, -0.08654212951660156, -0.13284175097942352, 0.18239270150661469, 0.09970830380916595, -0.08536626398563385, -0.07942754775285721, 0.1320991814136505, -0.2349356859922409, -0.009333604946732521, -0.07312977313995361, -0.09649597853422165, -0.14820469915866852, -0.05481715872883797, 0.0012147327652201056, -0.254018634557724, 0.061767492443323135, 0.046123046427965164, -0.08005215227603912, -0.10093755275011063, 0.0740748718380928, -0.02291739545762539, -0.23903995752334595, 0.08325906842947006, -0.3392616808414459, 0.10260587930679321, -0.060357462614774704, 0.17865021526813507, -0.09317322820425034, -0.27736803889274597, -0.02771075628697872, -0.10096893459558487, 0.0243061613291502, -0.2622913122177124, 0.026925409212708473, 0.24290554225444794, -0.12545035779476166, 0.09680870175361633, 0.1279096156358719, -0.11181429773569107, 0.08289749920368195, -0.11123394221067429, 0.05422990024089813, 0.013987269252538681, 0.04080156609416008, -0.062018830329179764, 0.12400935590267181, 0.06393147259950638, -0.03460158035159111, -0.09674769639968872, 0.012145742774009705, 0.15426884591579437, -0.02268698439002037, -0.033785443753004074, 0.06266899406909943, 0.11332716792821884, -0.052858930081129074, 0.09435166418552399, 0.5428487062454224, 0.4168931841850281, 0.6048531532287598, -0.8872916102409363, -0.3514145314693451, 0.31595468521118164, 0.4386998116970062, -0.1598561853170395, 0.31310948729515076, 0.3939386010169983, -0.8794327974319458, 0.3005029559135437, 0.01261169370263815, -0.7371608018875122, 0.07429343461990356, -0.20708657801151276, -0.14851360023021698, 0.17815379798412323, 0.2492617666721344, -0.18577255308628082, 0.2111557275056839, 0.7211227416992188, 0.30308273434638977, -0.45057201385498047, -0.2695889174938202, 0.1649041622877121, -0.5557456612586975, -0.32858675718307495, -0.0487002432346344, -0.02809530682861805, 0.3068183958530426, 0.027172541245818138, -0.3777565062046051, -0.13032788038253784, -0.1439373791217804, -0.209278404712677, 0.01809113845229149, -0.2133612334728241, 0.3647539019584656, -0.14441905915737152, -0.17534072697162628, 0.07254033535718918, -0.13461901247501373, -0.034778058528900146, -0.1700860857963562, 0.1063457727432251, 0.29275792837142944, 0.14640721678733826, -0.11203847080469131, 0.1431414633989334, -0.4190289080142975, -0.6899532675743103, -0.23146139085292816, -0.526063084602356, -0.0686115249991417, 0.015416767448186874, 0.04886552318930626, -0.08631997555494308, -0.14662913978099823, -0.418211430311203, -0.28266391158103943, 0.2470436990261078, 0.05223362147808075, 0.3830678164958954, -0.10679644346237183, -0.13905468583106995, 0.15576176345348358, 0.87289959192276, 0.017175225540995598, 0.3536241352558136, 0.1073814183473587, 0.20902274549007416, -0.15159332752227783, -0.09598259627819061, 0.13155992329120636, -0.13492897152900696, 0.5072590112686157, -0.13632480800151825, -0.29724839329719543, -0.6034358739852905, 0.3626560568809509, -0.36698344349861145, 0.06911034137010574, 0.26038429141044617, -0.02610362134873867, -0.2477613091468811, -0.17808294296264648, 0.02170625515282154, 0.22103989124298096, 0.13887566328048706, 0.2826164960861206, 0.3711937367916107, -0.13939790427684784, -0.18565478920936584, -0.2893301546573639, -0.2307264804840088, -0.25978192687034607, 0.20490409433841705, 0.40828484296798706, 0.5133719444274902, -0.08321516960859299, 0.4278419017791748, -0.03508634492754936, 0.062322575598955154, 0.16602890193462372, 0.05415157228708267, -0.008991273120045662, 0.24730026721954346, 0.22691799700260162, -0.12306135147809982, -0.4041415750980377, -0.11765718460083008, -0.017616910859942436, -0.0051957531832158566, -0.04288061708211899, 0.2203902006149292, -0.03724019229412079, -0.30875730514526367, 0.1763720065355301, 0.06321149319410324, -0.285723477602005, 0.4231622815132141, -0.0013139841612428427, 0.02660505101084709, 0.08973024040460587, 0.13941071927547455, -0.20475608110427856, -0.3388304114341736, -0.10259266197681427, 0.14010725915431976, -0.2773074805736542, -0.07496777176856995, 0.24870665371418, -0.21494415402412415, -0.017444083467125893, 0.08252537995576859, -0.16731813549995422, 0.007629039231687784, -0.26555135846138, -0.03379635512828827, -0.2575679123401642, 0.07806992530822754, 0.24526463449001312, -0.0037702848203480244, -0.30314233899116516, 0.31846973299980164, -0.24155163764953613, 0.27269792556762695, 0.25569766759872437, 0.055258844047784805, -0.03486189246177673, -0.5560855269432068, 0.06671552360057831, 0.1583114117383957, 0.10890213400125504, -0.23859314620494843, 0.3245270848274231, 0.46214359998703003, 0.061422791332006454, 0.3379381000995636, 0.505901575088501, -0.14935411512851715, 0.6747426390647888, 0.4636695384979248, -0.20172271132469177, 0.2838752865791321, -0.3325238823890686, 0.4729304313659668, -0.24476705491542816, -0.09944266080856323, 0.05828487128019333, 0.11660382151603699, 0.4744609594345093, -0.5083998441696167, -0.30650633573532104, -0.4019785225391388, -0.21307702362537384, 0.44822993874549866, -0.41427066922187805, -0.43341514468193054, -0.40910571813583374, -0.11282718926668167, 0.20046761631965637, -0.23124969005584717, 0.23375989496707916, 0.1984877586364746, -0.09816693514585495, -0.29278236627578735, -0.3682836592197418, 0.22714519500732422, -0.044357962906360626, 0.10248908400535583, 0.2537834942340851, 0.3911430835723877, -0.25272607803344727, -0.5287621021270752, -0.18951770663261414, -0.3335387408733368, 0.16772353649139404, 0.09827017784118652, -0.6212912797927856, 0.062492627650499344, 0.20753224194049835, 0.09764957427978516, -0.3600711524486542, 0.3809951841831207, -0.03772234916687012, 0.11778836697340012, 0.6305408477783203, 0.5934797525405884, 0.45635637640953064, -0.31065255403518677, -0.45796385407447815, -0.005753953941166401, -0.24356406927108765, 0.38805556297302246, 0.08646324276924133, 0.30627745389938354, -0.40641850233078003, 0.015116658061742783, -0.5615153908729553, 0.18812693655490875, -0.2935672998428345, -0.08660024404525757, -0.14005999267101288, 0.17184139788150787, -0.1758597493171692, 0.03498571738600731, 0.11347565799951553, 0.10187248885631561, -0.015574125573039055, -0.11119496077299118, -0.05538032203912735, 0.47725433111190796, 0.016052452847361565, -0.4850511848926544, -0.4542497396469116, -0.019475961104035378, -0.09560589492321014, 0.19443799555301666, 0.3698635697364807, -0.03009900264441967, 0.04023829102516174, 0.13934175670146942, -0.19821980595588684, -0.3975008726119995, 0.03142285719513893, 0.258755624294281, -0.20828470587730408, 0.03968115895986557, -0.12752313911914825, 0.03316449373960495, 0.01751689799129963, 0.140072301030159, -0.15084490180015564, 0.07479961216449738, 0.07421039044857025, 0.1866585910320282, -0.44385120272636414, -0.694625973701477, -0.37326785922050476, -0.38713181018829346, 0.21124204993247986, -0.12425956130027771, -0.2256433069705963, 0.008129025809466839, -0.33811721205711365, -0.07943709939718246, -0.30760496854782104, 0.17465534806251526, 0.19398841261863708, 0.2631356418132782, -0.11765465140342712, -0.004554803483188152, 0.06330409646034241, 0.056214239448308945, 0.02453615516424179, -0.02384476363658905, -0.04726747050881386, 0.008711828850209713, -0.21969200670719147, 0.23283253610134125, 0.15708841383457184, -0.028774240985512733, -0.013561788946390152, -0.11370408535003662, -0.1388334333896637, -0.005647850688546896, -0.08024667948484421, -0.018200282007455826, -0.013847166672348976, 0.12194054573774338, 0.08966359496116638, -0.3080816864967346, -0.012145648710429668, -0.05354898422956467, -0.38480284810066223, -0.08325856924057007, 0.19615912437438965, 0.3753540515899658, -0.07750655710697174, 0.19618842005729675, 0.24183452129364014, -0.009734300896525383, 0.16753269731998444, 0.3446572721004486, 0.20823732018470764, -0.0006030627409927547, 0.06670082360506058, 0.1465090811252594, -0.04965754970908165, -0.2755681872367859, 0.13173283636569977, -0.06619326770305634, -0.13354438543319702, 0.21168456971645355, -0.022323977202177048, 0.32082581520080566, 0.1333301067352295, 0.09709187597036362, -0.2477675974369049, -0.08010511100292206, -0.15005366504192352, -0.039370063692331314, -0.02281404845416546, 0.07468130439519882, 0.2671586573123932, 0.13528068363666534, -0.07806207239627838, -0.2108190357685089, 0.24975024163722992, -0.10664579272270203, -0.01776830665767193, -0.16565389931201935, -0.012510144151747227, -0.07853624224662781, -0.17655229568481445, 0.22570613026618958, 0.2184067815542221, 0.10792900621891022, -0.2862381339073181, 0.0006951247924007475, -0.11937016993761063, -0.5550233125686646, -0.011088643223047256, -0.058223266154527664, 0.733736515045166, -0.03209367394447327, 0.2872503399848938, 0.15226979553699493, -0.06768350303173065, 0.07542245090007782, 0.23834531009197235, -0.02841886878013611, -0.08477451652288437, 0.13488300144672394, 0.08015256375074387, -0.16957412660121918, -0.0741741955280304, -0.040217045694589615, 0.21594826877117157, -0.2329910397529602, 0.07525812089443207, 0.038351815193891525, 0.35483449697494507, -0.16304248571395874, 0.10671048611402512, -0.3628011643886566, 0.07549653202295303, -0.22358007729053497, -0.04661565274000168, -0.06794212758541107, -0.0961083322763443, -0.4087987542152405, 0.21978802978992462, 0.07232748717069626, -0.24156297743320465, 0.0412910059094429, 0.11205612123012543, -0.10223285108804703, -0.12451625615358353, -0.1801801323890686, -0.3907051086425781, 0.030949486419558525, -0.3211430609226227, 0.37356823682785034, -0.5118728280067444, 0.13650736212730408, 0.12034079432487488, -0.1698695421218872, 0.03533858433365822, -0.2562849819660187, -0.1827520877122879, 0.040363021194934845, 0.20971757173538208, 0.35496020317077637, 0.08432416617870331, -0.30399954319000244, 0.5990819334983826, 0.011952370405197144, 0.20999617874622345, 0.44084662199020386, 0.12510225176811218, -0.13606998324394226, -0.19903071224689484, -0.08009488135576248, -0.12241942435503006, -0.5698256492614746, 0.2075226604938507, -0.0318160355091095, -0.36064577102661133, 0.09967906773090363, -0.12357147783041, 0.4432550072669983, 0.12502729892730713, 0.06509236246347427, -0.1992703378200531, -0.07584547996520996, -0.017165500670671463, 0.17112359404563904, -0.2002010941505432, -0.028238488361239433, 0.5031761527061462, 0.237129345536232, 0.13931135833263397, -0.1433001607656479, 0.28257742524147034, -0.13071735203266144, 0.1111709326505661, 0.003519966034218669, -0.22212518751621246, -0.17040501534938812, -0.12754996120929718, 0.406812846660614, -0.028726663440465927, -0.09649251401424408, 0.18830564618110657, -0.0863790288567543, 0.3083948493003845, 0.2306039035320282, 0.029188435524702072, 0.01604042388498783, -0.24112187325954437, 0.06606368720531464, 0.0676048994064331, -0.36874568462371826, 0.09343583881855011, -0.05852609872817993, -0.17958633601665497, 0.09602208435535431, -0.03564080968499184, -0.07898353040218353, 0.08302159607410431, 0.19407980144023895, 0.3336365520954132, -0.11338961869478226, -0.09819864481687546, 0.2514505386352539, 0.10097000002861023, -0.27860480546951294, -0.2363854944705963, 0.1057693362236023, -0.01732076145708561, 0.30174896121025085, -0.017411526292562485, 0.16483049094676971, -0.09545630216598511, -0.005794226657599211, -0.028031349182128906, -0.3232230544090271, -0.06541337817907333, -0.20849934220314026, 0.17005810141563416, -0.123162642121315, 0.07796219736337662, -0.10844605416059494, 0.12046772241592407, 0.38013848662376404, 0.20799188315868378, -0.021541813388466835, -0.10538951307535172, 0.21652385592460632, -0.0010486152023077011, 0.12333554029464722, 0.008775441907346249, -0.20089317858219147, 0.05517986789345741, -0.07215900719165802, -0.08861424773931503, -0.12968303263187408, 0.3405567407608032, 0.010934202931821346, 0.0723867118358612, 0.12437918037176132, 0.4919162690639496, 0.06452400982379913, 0.18174096941947937, 0.05667484924197197, 0.2851824164390564, -0.046749819070100784, -0.2521668076515198, 0.0610022246837616, -0.12546071410179138, -0.36590853333473206, 0.05622890219092369, 0.038093071430921555, -0.12420818954706192, 0.2275850623846054, 0.2090880125761032, 0.4216514825820923, -0.026519253849983215, 0.02716715820133686, -0.24098220467567444, -0.08104836195707321, -0.186374232172966, -0.021121812984347343, -0.19408947229385376, 0.0002585860202088952, 0.6421797871589661, 0.22477565705776215, 0.037431295961141586, -0.13840100169181824, 0.06420864909887314, -0.12326841801404953, -0.07938561588525772, -0.24034471809864044, -0.08806739747524261, 0.04252823069691658, -0.050658732652664185, -0.6857092380523682, -0.01955905742943287, -0.10137734562158585, -0.06294474750757217, 0.24739320576190948, -0.1847238689661026, -0.01031985692679882, 0.05039963498711586, 0.04032774642109871, 0.1626436710357666, -0.16915979981422424, -0.18233464658260345, 0.34272316098213196, -0.11875734478235245, 0.03546588122844696, -0.10706005990505219, -0.06734899431467056, 0.16509559750556946, -0.018656667321920395, -0.030789438635110855, -0.13327935338020325, -0.08545828610658646, 0.10235967487096786, -0.15568341314792633, -0.20510102808475494, 0.164236381649971, 0.010955721139907837, 0.16715052723884583, -0.35204312205314636, -0.00028088202816434205, -0.12280018627643585, 0.12461825460195541, -0.2067638635635376, 0.23293545842170715, -0.12317221611738205, 0.19116654992103577, -0.24548140168190002, -0.2511652708053589, -0.20685900747776031, -0.19543379545211792, 0.10025441646575928, -0.1918904036283493, 0.17496903240680695, -0.04569617286324501, -0.09498301148414612, -0.042391981929540634, 0.07635768502950668, 0.02811809815466404, -0.3163672089576721, -0.07691246271133423, 0.007012012414634228, -0.14521902799606323, -0.01339801773428917, -0.28814202547073364, -0.19659928977489471, 0.038787443190813065, 0.06087257340550423, -0.09861225634813309, 0.06269807368516922, 0.0823737308382988, 0.15856170654296875, -0.18321824073791504, 0.28886932134628296, 