{"config":{"head":null,"layers":[{"gated":false,"channels":16,"dilations":[1,2,4,8,16,32,64,128,256,512],"head_bias":false,"head_size":8,"activation":"Tanh","input_size":1,"kernel_size":3,"condition_size":1},{"gated":false,"channels":8,"dilations":[1,2,4,8,16,32,64,128,256,512],"head_bias":true,"head_size":1,"activation":"Tanh","input_size":16,"kernel_size":3,"condition_size":1}],"head_scale":0.02},"version":"0.5.4","weights":[0.0011722594499588013,0.3970337510108948,-0.572542130947113,-0.6193852424621582,-0.2999514937400818,0.14782783389091492,0.004173209425061941,0.7015752792358398,-0.04607934132218361,0.23593725264072418,-0.18043865263462067,-0.1296408325433731,-0.8244885802268982,-0.576144814491272,-0.34504422545433044,-0.0012263791868463159,0.1477915644645691,0.09283570945262909,0.04429600015282631,-0.1122078150510788,0.0420205295085907,0.06573519110679626,0.023413820192217827,0.11875492334365845,0.031450945883989334,0.0679406225681305,0.14124247431755066,-0.08186547458171844,-0.04155866801738739,-0.02913610450923443,-0.0020561094861477613,0.08658035844564438,-0.10030152648687363,-0.09774919599294662,-0.09871123731136322,-0.07984061539173126,-0.06355391442775726,0.0730731263756752,0.054248612374067307,0.016499115154147148,0.027936626225709915,-0.08630253374576569,0.03938489407300949,-0.17362001538276672,-0.106253981590271,-0.11589710414409637,0.13038437068462372,0.09237246215343475,-0.018121860921382904,0.03867863491177559,0.09728747606277466,0.18526862561702728,0.11022482812404633,0.030860433354973793,0.15342949330806732,-0.033113136887550354,0.036439016461372375,-0.05782982334494591,-0.054283756762742996,-0.06562580168247223,0.1184215247631073,0.06677021086215973,-0.1326255351305008,-0.015526055358350277,0.014844915829598904,0.0651869997382164,-0.15792959928512573,0.03945297375321388,0.05286187678575516,0.17993946373462677,-0.1143433079123497,-0.01834927871823311,0.020168054848909378,0.11654724180698395,0.15965750813484192,0.09273675084114075,0.023841362446546555,-0.09782350063323975,-0.02244698442518711,-0.10019401460886002,-0.17260906100273132,0.15096218883991241,0.0644666850566864,-0.19962602853775024,0.011185457929968834,-0.022668808698654175,-0.059712767601013184,-0.029190709814429283,0.06552346795797348,-0.053752608597278595,0.02841263636946678,0.07371343672275543,0.06516385078430176,0.09070350974798203,-0.14480113983154297,-0.05509505793452263,0.029078548774123192,0.02225787378847599,-0.07952426373958588,-0.115716852247715,0.13101835548877716,0.1322021186351776,-0.1015160009264946,-0.03937786445021629,-0.10286644101142883,-0.039189424365758896,-0.11316395550966263,-0.07585206627845764,-0.051277268677949905,0.016339071094989777,-0.10149301588535309,0.12683336436748505,-0.05022625997662544,0.07757789641618729,0.08119536191225052,-0.11408472806215286,0.09391356259584427,-0.11334433406591415,0.008028694428503513,-0.09520186483860016,0.1732853204011917,-0.002791514154523611,-0.20183253288269043,0.19079335033893585,-0.1444663256406784,-0.20704811811447144,0.08427658677101135,-0.06305915117263794,0.07242122292518616,-0.2516922652721405,-0.019339319318532944,-0.011053469963371754,-0.12346818298101425,0.0028519139159470797,0.23765607178211212,-0.1406705528497696,0.018519412726163864,-0.08183439821004868,0.1891488879919052,0.0926554724574089,0.2609376311302185,-0.04703415930271149,0.13674502074718475,-0.13353443145751953,-0.0031874438282102346,-0.06549444794654846,-0.01675397902727127,0.13083986937999725,-0.08123675733804703,-0.2442062944173813,-0.01369126234203577,-0.13076163828372955,-0.16033223271369934,0.20334570109844208,0.0745294988155365,-0.2698042392730713,0.21755608916282654,-0.13383711874485016,-0.021829186007380486,-0.033073265105485916,-0.0605885349214077,-0.07573255151510239,-0.08572427183389664,-0.15586140751838684,-0.026418784633278847,0.09458677470684052,-0.029659943655133247,0.058532439172267914,-0.22188709676265717,0.02515747956931591,0.13171035051345825,-0.1538051962852478,0.15763303637504578,0.050535812973976135,-0.2252362221479416,0.06284046918153763,-0.024169638752937317,0.034848276525735855,0.011995510198175907,-0.08597472310066223,-0.0721503272652626,-0.06484387069940567,0.09744517505168915,0.13745318353176117,0.06988212466239929,0.0313803069293499,-0.15375322103500366,-0.05430106818675995,-0.11662089824676514,0.18708932399749756,0.1360674500465393,0.09846517443656921,-0.2009463608264923,0.028693396598100662,-0.10280347615480423,-0.18359966576099396,-0.04971296712756157,0.05436249077320099,-0.18052315711975098,0.029692810028791428,0.009076956659555435,-0.003767674556002021,-0.07986416667699814,-0.09640872478485107,-0.18249355256557465,0.10708282887935638,-0.06781196594238281,0.12939758598804474,0.016183581203222275,0.06079719960689545,0.012985104694962502,-0.05014888197183609,-0.04571427032351494,-0.018802650272846222,0.02522548846900463,0.08221878856420517,-0.12139204144477844,-0.05050042271614075,0.18121618032455444,-0.12744462490081787,0.007568568456918001,0.19678594172000885,0.03998158872127533,-0.0194846261292696,-0.18096543848514557,0.095443494617939,-0.1348438262939453,-0.032536283135414124,-0.06085127592086792,-0.04686901718378067,-0.06517023593187332,0.1318238079547882,0.019290165975689888,0.13496080040931702,0.02824493683874607,-0.10973499715328217,0.00850637722760439,-0.07395070046186447,-0.04375883936882019,0.10015299916267395,0.024106573313474655,0.12028130143880844,0.00487083476036787,-0.02359399013221264,0.09797696769237518,-0.07299316674470901,0.09457869827747345,-0.09568466246128082,0.0662047415971756,-0.03625108674168587,-0.056095704436302185,0.08125768601894379,0.09994761645793915,-0.0060739596374332905,-0.08616650849580765,-0.005460740998387337,-0.14347383379936218,0.017440805211663246,-0.07949074357748032,-0.05139033496379852,-0.03908867388963699,-0.03697437047958374,0.027629414573311806,0.06906247138977051,0.1702815443277359,-0.09798324853181839,-0.08461283892393112,0.16346226632595062,0.07397592812776566,0.002313642529770732,0.051059357821941376,-0.01914852298796177,-0.08638577908277512,-0.0870169997215271,-0.047582678496837616,-0.14151351153850555,0.1463513970375061,-0.04441073536872864,0.02916189469397068,-0.0826486200094223,-0.030439140275120735,-0.1203790232539177,0.019619369879364967,0.1571088433265686,0.06486741453409195,-0.01428518258035183,-0.087163545191288,-0.0010065063834190369,0.08867210149765015,-0.04799026995897293,-0.12609446048736572,0.17080806195735931,-0.0020805837120860815,-0.04696735367178917,0.08941472321748734,-0.13721942901611328,0.05669183284044266,0.014737596735358238,0.01617009937763214,-0.0925317332148552,0.05655518174171448,-0.0174802727997303,-0.05736203119158745,-0.049436286091804504,0.03125269338488579,-0.14499951899051666,-0.018497072160243988,0.07954495400190353,0.17948278784751892,-0.12919902801513672,-0.14179904758930206,-0.144239142537117,0.1580810844898224,-0.0736604556441307,-0.06821978092193604,0.21093164384365082,-0.09384062141180038,-0.11594285815954208,0.1689930111169815,0.023516418412327766,0.1238655149936676,-0.111192487180233,-0.15911570191383362,-0.07862395793199539,0.013042721897363663,0.14898242056369781,0.20890358090400696,-0.09919790178537369,0.07224831730127335,-0.14019088447093964,0.025133736431598663,-0.11451981961727142,0.25937536358833313,-0.038836028426885605,-0.11118853092193604,-0.05932288244366646,0.22401973605155945,0.13596118986606598,0.018644778057932854,0.2357824146747589,-0.05276457220315933,-0.1754472851753235,0.2317773401737213,0.06179976090788841,-0.20928917825222015,0.2453344315290451,0.055498622357845306,-0.043534550815820694,0.027323227375745773,0.02869059517979622,0.04296351596713066,0.17250068485736847,-0.07987972348928452,0.00907763559371233,-0.07851970940828323,0.12453178316354752,-0.06386034190654755,0.14754103124141693,-0.16243666410446167,0.04825066775083542,-0.1720559448003769,-0.20857219398021698,-0.1042250543832779,0.03569492697715759,0.01810506545007229,0.1520412713289261,0.04172110557556152,-0.06178908050060272,-0.10347282886505127,0.03761610388755798,-0.0915900319814682,0.15003521740436554,-0.07661545276641846,-0.00443663727492094,-0.14987477660179138,-0.003957223147153854,0.05729837343096733,0.15581148862838745,0.0802050232887268,0.1747158020734787,0.11211040616035461,0.030050169676542282,0.006135455798357725,0.1456621140241623,-0.017746707424521446,0.08160687237977982,0.09073043614625931,0.021656977012753487,-0.11457762122154236,0.08130062371492386,-0.06358588486909866,-0.09895357489585876,-0.0683136135339737,-0.15949957072734833,-0.1718316376209259,0.11267281323671341,0.02946597896516323,-0.05733829364180565,-0.2128051370382309,-0.005923064891248941,0.075875423848629,-0.054322969168424606,-0.10010283440351486,0.1900683492422104,0.1417912244796753,-0.17723293602466583,0.07439980655908585,0.02598116360604763,0.010147269815206528,0.020191742107272148,-0.1643936038017273,0.048853714019060135,0.06586767733097076,-0.0683499202132225,-0.034304432570934296,0.0016848185332491994,0.03383892402052879,-0.1161900982260704,-0.03682292625308037,0.055694058537483215,-0.03332884982228279,-0.02912972867488861,0.09190615266561508,-0.0043377382680773735,0.04641520604491234,-0.1554177850484848,0.09314053505659103,-0.058062806725502014,0.012673710472881794,-0.03493805602192879,-0.15097497403621674,-0.02437555231153965,0.19704662263393402,-0.035058893263339996,-0.1647050827741623,0.030749119818210602,-0.02887953445315361,-0.19538253545761108,0.13987047970294952,-0.19005869328975677,-0.22072868049144745,-0.06820245087146759,-0.08210372179746628,0.01523831207305193,-0.06168138235807419,0.15936538577079773,0.07965470105409622,0.15989187359809875,0.06908247619867325,-0.11190494894981384,0.15850169956684113,0.09695505350828171,0.20288188755512238,0.010380754247307777,-0.11941231787204742,0.06099318712949753,0.06709800660610199,0.04271711781620979,-0.17828677594661713,0.019810277968645096,-0.16283740103244781,-0.10986713320016861,0.09187228232622147,-0.09184099733829498,0.10559406876564026,0.01106939185410738,0.08835537731647491,-0.11006037145853043,-0.01740770787000656,-0.01988327130675316,0.12692517042160034,0.07972799241542816,0.09622704237699509,-0.031995657831430435,0.1554589867591858,-0.12823361158370972,-0.06892181187868118,-0.008358306251466274,-0.09307299554347992,0.012811372056603432,-0.033138129860162735,-0.08461743593215942,-0.17144036293029785,0.14449618756771088,-0.03879598155617714,0.047523465007543564,0.14938056468963623,0.056140441447496414,-0.05699540302157402,0.01742594502866268,-0.04960600286722183,-0.0423811599612236,0.13631905615329742,-0.1610703319311142,0.13580256700515747,-0.022367186844348907,-0.05857657268643379,-0.11155188083648682,-0.0021947070490568876,0.07524827867746353,-0.1226489394903183,0.1618220955133438,0.12220553308725357,0.07342769205570221,0.05897694081068039,-0.022719640284776688,0.03688058257102966,-0.005092098377645016,0.016985422000288963,0.04513378441333771,-0.0985085666179657,0.04362567514181137,-0.03357863798737526,0.010667921043932438,0.1282041370868683,0.029520882293581963,0.01311629917472601,-0.039516888558864594,0.09233327955007553,0.050881821662187576,0.1040131226181984,-0.048243388533592224,0.006285174284130335,-0.15680661797523499,-0.07749326527118683,-0.0144954277202487,0.18657170236110687,-0.04956440627574921,-0.053019408136606216,-0.013216224499046803,0.13262873888015747,0.08133541792631149,-0.05494165048003197,-0.1265125274658203,-0.1745559573173523,0.05345818027853966,-0.04575338214635849,-0.1588345319032669,0.0016480038175359368,0.0193780604749918,-0.13354727625846863,0.023417793214321136,0.004342276137322187,-0.05588921904563904,0.03144426271319389,0.09486710280179977,-0.11563287675380707,0.11562928557395935,0.03317345678806305,0.09437644481658936,-0.25042083859443665,-0.22365136444568634,0.18489165604114532,-0.20699648559093475,-0.062059879302978516,0.03314809128642082,-0.1390228569507599,-0.11043377965688705,0.13400883972644806,0.111524797976017,-0.06556973606348038,-0.15396133065223694,-0.007731649558991194,0.09597864747047424,-0.030100040137767792,0.25208717584609985,0.059972647577524185,-0.07362343370914459,0.03480517491698265,0.058099932968616486,0.22239428758621216,0.18789322674274445,0.03407100960612297,-0.1615496575832367,-0.10871513932943344,0.042564503848552704,0.013348493725061417,-0.23065772652626038,-0.01373013574630022,0.20285183191299438,-0.15556855499744415,-0.21210886538028717,-0.08753179758787155,-0.07856514304876328,-0.10064129531383514,-0.02674616128206253,-0.0784544050693512,-0.03120165504515171,0.16909541189670563,0.011372205801308155,-0.10269966721534729,-0.24396257102489471,-0.13971880078315735,0.21379166841506958,0.08514634519815445,0.060770727694034576,-0.13332203030586243,0.09889066219329834,0.13535471260547638,0.13736166059970856,-0.09387754648923874,-0.051847878843545914,-0.0912068784236908,0.16766294836997986,-0.05825503543019295,-0.054239820688962936,0.10817946493625641,-0.07392029464244843,-0.0693686455488205,-0.04386650398373604,0.0006305515416897833,-0.1349037140607834,0.044308822602033615,-0.06742241233587265,0.0424315519630909,0.09355385601520538,0.078192800283432,0.02537398412823677,0.1506468802690506,0.010099954903125763,-0.07536176592111588,0.09616244584321976,0.036246344447135925,-0.1359335035085678,-0.010773986577987671,-0.08913254737854004,0.13030202686786652,0.009746159426867962,-0.12827131152153015,0.00004013415309600532,0.12208335846662521,0.04094936326146126,0.05509933456778526,0.04503221809864044,0.05638493224978447,-0.028314534574747086,-0.025927932932972908,-0.14556127786636353,-0.06139440834522247,0.05383901298046112,-0.052752189338207245,0.08806823939085007,0.07338909804821014,-0.03369330242276192,-0.14957593381404877,0.24608966708183289,-0.03632291406393051,0.1752922236919403,-0.2191678136587143,0.009723661467432976,0.1337040662765503,-0.17134951055049896,0.16253532469272614,-0.050959810614585876,-0.22873084247112274,-0.10231611132621765,-0.024772047996520996,0.2566254734992981,0.007753182202577591,0.151130810379982,-0.004593191668391228,-0.07510462403297424,0.0491776280105114,0.0029565179720520973,0.04524499550461769,0.14682748913764954,-0.16213616728782654,0.07405025511980057,-0.09355417639017105,0.2413669228553772,-0.10299348831176758,0.030627848580479622,-0.13928630948066711,0.07533753663301468,0.10006190836429596,-0.01352719683200121,0.022093230858445168,0.05209656432271004,-0.011350846849381924,0.003718507243320346,0.1813996136188507,-0.20934855937957764,0.023231033235788345,0.04610372334718704,-0.051640842109918594,0.008744634687900543,-0.13379812240600586,-0.20731401443481445,0.027032796293497086,-0.05779503285884857,-0.07344943284988403,-0.06955774128437042,0.2525985538959503,0.053423941135406494,-0.010944089852273464,-0.29584643244743347,0.1806952953338623,-0.12834098935127258,-0.129966601729393,0.10582219809293747,-0.08275371044874191,-0.1019100770354271,-0.04643980786204338,0.04941562935709953,0.05638384819030762,-0.11355824768543243,-0.0006575901061296463,0.03194545954465866,-0.06191972270607948,0.11344891786575317,0.1474277377128601,-0.15528367459774017,-0.12924563884735107,-0.22387509047985077,0.267615407705307,-0.022069048136472702,0.15996605157852173,-0.061847023665905,0.08574534207582474,-0.026683175936341286,0.20908790826797485,-0.11329441517591476,-0.16516532003879547,0.014082055538892746,-0.10187312215566635,-0.13108821213245392,0.21868430078029633,-0.13469679653644562,-0.07513609528541565,0.011149021796882153,-0.042011842131614685,-0.044015225023031235,0.059238702058792114,0.006601328961551189,-0.10524722188711166,0.06793662160634995,-0.06254810094833374,-0.11611318588256836,0.0993838906288147,-0.08455485105514526,-0.07262737303972244,-0.06674438714981079,0.09623680263757706,-0.0834309384226799,0.1381646990776062,0.10699687898159027,0.05218631029129028,-0.001807982218451798,-0.032288745045661926,-0.08856982737779617,-0.04271475970745087,0.013627784326672554,0.15712755918502808,0.05631770193576813,0.021601194515824318,0.007817691192030907,-0.023449726402759552,0.12671899795532227,-0.018328644335269928,-0.17328627407550812,0.010455484502017498,0.03464077413082123,-0.05928643420338631,0.14694790542125702,0.09712190926074982,-0.1752982884645462,-0.05143515020608902,0.08099377900362015,-0.046598728746175766,-0.057828210294246674,-0.0029482149984687567,-0.05489145964384079,0.06071295589208603,0.03277163952589035,0.1624031811952591,-0.11054665595293045,0.10051518678665161,-0.013616872020065784,0.12507010996341705,-0.18011344969272614,-0.05619347468018532,0.07304301112890244,0.05858428776264191,-0.049997635185718536,-0.08380483835935593,-0.09109152108430862,-0.17741163074970245,-0.08551132678985596,0.03401755541563034,-0.011642624624073505,-0.0910860225558281,-0.02630740776658058,0.07614371180534363,0.13389188051223755,-0.05668235197663307,-0.2058037966489792,-0.05315693840384483,-0.029743734747171402,-0.1202380433678627,-0.006296024192124605,0.38509711623191833,-0.3890315294265747,0.6761914491653442,-0.6080896854400635,0.008597316220402718,0.7755550146102905,0.8805654644966125,-0.4968399405479431,0.11137940734624863,0.05942503362894058,-0.39886268973350525,-0.3838389813899994,0.23987671732902527,-0.585704505443573,0.08444517105817795,0.3581121861934662,-0.18040107190608978,0.1983066201210022,0.036724817007780075,0.10829441994428635,0.11950265616178513,-0.11873452365398407,0.16858801245689392,-0.0035656308755278587,-0.03350367397069931,0.040558673441410065,0.08038270473480225,-0.08850769698619843,0.11157672107219696,0.028236061334609985,0.23046840727329254,0.019294356927275658,-0.10488913953304291,0.06937330216169357,-0.23844243586063385,0.07230386137962341,0.024294329807162285,-0.17762936651706696,-0.1269451081752777,-0.10202678292989731,0.017809400334954262,0.19070346653461456,0.09418325126171112,0.07089762389659882,-0.0033552655950188637,-0.09696325659751892,0.12089106440544128,0.09399648755788803,0.13226215541362762,-0.056016720831394196,0.067520372569561,0.11344711482524872,-0.06796523183584213,0.0417352132499218,0.1430308222770691,-0.34583792090415955,0.04274798557162285,-0.05398663505911827,0.09496360272169113,-0.4118511378765106,0.18329781293869019,0.1983204185962677,-0.061179324984550476,0.01647106744349003,0.18333712220191956,-0.10084030777215958,-0.026510728523135185,-0.1447632610797882,0.005362569820135832,0.1523715704679489,0.05035119131207466,-0.056694306433200836,-0.1603638380765915,0.008103770203888416,-0.0712086409330368,-0.17828238010406494,0.24410709738731384,0.15964144468307495,-0.19450803101062775,0.09022572636604309,-0.19476135075092316,-0.19331645965576172,-0.19480732083320618,0.13108792901039124,0.16903220117092133,0.10614479333162308,0.13663770258426666,-0.13054899871349335,0.10050440579652786,0.2629488706588745,-0.19833436608314514,0.2213904857635498,-0.06379608064889908,0.11808847635984421,-0.0794856920838356,-0.03815983608365059,-0.1588633507490158,-0.08164279907941818,0.10476861894130707,0.07570464164018631,0.24398726224899292,0.18708941340446472,0.23809121549129486,0.1106366217136383,0.14609086513519287,-0.0259722750633955,-0.13494937121868134,0.08233443647623062,-0.08548170328140259,-0.11959745734930038,0.181797593832016,0.04499845579266548,0.19694490730762482,0.1494109332561493,0.19027642905712128,0.18795143067836761,-0.042474761605262756,-0.2214766889810562,0.04295739158987999,0.10035964846611023,-0.03256473317742348,-0.3581201434135437,-0.19910787045955658,0.049997247755527496,0.18547740578651428,-0.09605792909860611,0.05984504893422127,-0.10178393870592117,0.233507439494133,0.07949106395244598,0.24669310450553894,-0.1998361200094223,-0.1865101456642151,0.08240696787834167,0.2059161216020584,0.0811193659901619,0.102375827729702,-0.2221519649028778,0.11712369322776794,-0.07448029518127441,0.018099766224622726,-0.10782214254140854,-0.059689365327358246,0.015244828537106514,-0.00627943268045783,0.04122759401798248,-0.264891654253006,-0.17700405418872833,0.08511187881231308,-0.0634014829993248,-0.1837410032749176,-0.015963604673743248,-0.22754596173763275,-0.22819125652313232,0.11411352455615997,-0.06114126369357109,0.048151612281799316,-0.08626138418912888,0.0026988841127604246,0.02285313978791237,-0.08703695982694626,-0.0004521781229414046,0.28378936648368835,-0.18971335887908936,-0.21415844559669495,0.007029547356069088,0.2297680675983429,-0.1834522783756256,0.018445374444127083,0.1674572080373764,0.07791373133659363,0.1972862035036087,0.20058979094028473,0.1600819081068039,-0.049135658890008926,0.008097789250314236,0.07434696704149246,0.176730677485466,-0.23827539384365082,0.0823979377746582,-0.13015398383140564,-0.15766143798828125,0.06810341775417328,-0.04711427912116051,0.08092738687992096,-0.12366053462028503,-0.05635495111346245,-0.102866992354393,-0.08417244255542755,0.09321331977844238,0.011871486902236938,0.14578554034233093,-0.04798015207052231,-0.03923876956105232,0.15003274381160736,-0.014893966726958752,-0.028374142944812775,-0.01858351193368435,0.000010406525689177215,-0.0044566490687429905,0.029630223289132118,-0.16057604551315308,0.04595491662621498,-0.29928070306777954,-0.0422578826546669,0.10855337977409363,-0.20767498016357422,-0.10130079835653305,0.14202949404716492,-0.1720697432756424,0.1032240092754364,0.05533773452043533,0.14576148986816406,0.03304152563214302,0.06151646375656128,0.15018269419670105,0.2061828076839447,-0.10003658384084702,-0.23445089161396027,-0.08615722507238388,0.25721627473831177,-0.1756220906972885,-0.17143532633781433,0.07629483938217163,0.05047164484858513,-0.155100017786026,-0.16192318499088287,0.16057266294956207,-0.05593221262097359,0.2076263129711151,0.1708773970603943,0.07026971131563187,-0.047314226627349854,-0.1572853922843933,0.014541523531079292,-0.16013456881046295,-0.14038604497909546,-0.031177274882793427,-0.2778768241405487,0.1444268524646759,-0.12205320596694946,0.19687215983867645,-0.1354789137840271,-0.15654371678829193,0.12460069358348846,0.04945356398820877,0.09808991849422455,0.1610216647386551,-0.24881435930728912,0.11838123202323914,0.018601655960083008,-0.17677763104438782,0.10499268770217896,0.19165746867656708,-0.2893444895744324,-0.12504160404205322,0.18182380497455597,0.20516572892665863,0.17645758390426636,-0.026554204523563385,-0.06740852445363998,0.15324680507183075,0.07802581787109375,0.18143531680107117,-0.13262860476970673,-0.25498226284980774,0.0464358925819397,-0.15548284351825714,0.08658315241336823,0.19865956902503967,0.03424005210399628,-0.05206140875816345,0.09365450590848923,-0.16980792582035065,0.25031429529190063,-0.2578020393848419,-0.1487031877040863,0.04720820486545563,0.11723514646291733,0.054013896733522415,0.008673988282680511,-0.1824277937412262,0.07687987387180328,-0.06312265247106552,0.03264462202787399,0.07832754403352737,0.10734415799379349,-0.09252160787582397,-0.0005725029623135924,-0.13693028688430786,0.10298534482717514,0.11693216115236282,-0.08646946400403976,0.07179009169340134,-0.07017046958208084,0.07210863381624222,-0.05202113464474678,-0.05015513300895691,0.08807026594877243,-0.10200360417366028,-0.02702498622238636,-0.05607322230935097,0.01853214018046856,0.01020215917378664,-0.27374759316444397,0.13252350687980652,0.012792062014341354,-0.20793898403644562,-0.025684703141450882,-0.13546285033226013,-0.23825278878211975,-0.06723157316446304,0.005511716939508915,0.19048146903514862,-0.18758830428123474,-0.2346450388431549,-0.17754106223583221,-0.06514673680067062,-0.06377501040697098,0.09682102501392365,-0.03311125561594963,-0.12896764278411865,0.061166852712631226,-0.0635845810174942,-0.06928384304046631,0.06304441392421722,-0.17295527458190918,-0.051973797380924225,0.12514685094356537,-0.20182499289512634,-0.06437617540359497,0.26576024293899536,0.0020812363363802433,0.15867926180362701,-0.060971155762672424,-0.08554445207118988,0.0035721517633646727,0.02990742400288582,0.1650143265724182,-0.11667253077030182,-0.029541993513703346,0.04343826696276665,-0.18589307367801666,-0.043289944529533386,0.0982799306511879,-0.15346725285053253,0.08404257893562317,-0.028751814737915993,0.09601469337940216,-0.11712536215782166,0.12286389619112015,-0.050651852041482925,-0.1512642353773117,-0.0769256204366684,0.2553408145904541,-0.11078307777643204,-0.08405081182718277,0.12887845933437347,-0.08741526305675507,-0.041243892163038254,-0.2119990736246109,-0.06052243709564209,-0.07052067667245865,0.14327889680862427,0.05741216614842415,-0.14927437901496887,-0.011528757400810719,0.03420420363545418,0.01275582890957594,-0.23525981605052948,-0.0518813356757164,0.18821938335895538,-0.10427720844745636,-0.04578143730759621,0.05424817278981209,-0.03352217376232147,0.05122993886470795,0.07963716238737106,-0.058196596801280975,-0.08358799666166306,-0.0054100751876831055,0.008665240369737148,0.12908291816711426,-0.07930997014045715,0.05429636687040329,-0.0012008817866444588,-0.005531624890863895,0.10943310707807541,0.10568301379680634,-0.16653916239738464,-0.08420274406671524,0.06514929234981537,0.15942734479904175,0.03349307179450989,-0.04006890952587128,-0.07233811914920807,0.039553456008434296,-0.07288651168346405,0.08220791071653366,0.08291212469339371,0.10979021340608597,0.054686423391103745,0.1808777153491974,-0.060766272246837616,-0.0896095260977745,-0.00015906660701148212,-0.09505206346511841,0.07242608815431595,-0.06342340260744095,-0.11964941024780273,0.013940570876002312,-0.016296980902552605,0.12916167080402374,-0.1692257970571518,-0.2043076753616333,-0.1756764054298401,0.11968912929296494,-0.04119886830449104,-0.2162444144487381,0.1628876030445099,0.035886649042367935,0.02095703035593033,0.016327491030097008,-0.055556222796440125,-0.022114573046565056,0.13742226362228394,-0.18754059076309204,-0.009558365680277348,0.14516456425189972,-0.11957637965679169,0.050586603581905365,0.12045561522245407,0.00978397112339735,-0.08727113157510757,-0.04824688658118248,-0.14724870026111603,0.21543049812316895,0.14932551980018616,0.1374843567609787,-0.24061131477355957,-0.2866823375225067,0.10413725674152374,-0.02059955894947052,-0.13908277451992035,-0.025223828852176666,-0.23799173533916473,-0.04054702818393707,-0.10229649394750595,0.2860884666442871,0.1110624298453331,-0.09164873510599136,0.10984238982200623,0.1634393334388733,-0.1612306833267212,0.39076852798461914,0.12983623147010803,0.10351620614528656,-0.23502789437770844,0.009514679200947285,0.14726531505584717,0.031059585511684418,0.11919072270393372,0.17178866267204285,-0.2976827025413513,-0.13133367896080017,0.19329117238521576,0.0785471722483635,-0.0031913286074995995,0.143679678440094,-0.15473227202892303,-0.05207546055316925,0.1304033249616623,-0.23528273403644562,-0.1318276822566986,-0.033628467470407486,-0.2301640510559082,0.0199842918664217,0.06807418167591095,0.2530319094657898,0.18674440681934357,-0.024558397009968758,0.038005899637937546,-0.050681017339229584,0.017675278708338737,0.12531845271587372,-0.03519855812191963,-0.04817318543791771,0.05960681289434433,0.008314283564686775,-0.16500981152057648,0.010549268685281277,0.12902383506298065,-0.027521658688783646,-0.06636625528335571,-0.07152064889669418,-0.06136061251163483,0.20557597279548645,-0.12482534348964691,0.10817113518714905,-0.04849689081311226,0.04046379774808884,0.029468489810824394,0.2573164403438568,0.05045725405216217,0.05680352821946144,-0.061020273715257645,-0.021819166839122772,-0.06446494162082672,0.03207576274871826,-0.022828221321105957,0.1313846856355667,-0.15843667089939117,0.030699431896209717,-0.15775097906589508,-0.04591869190335274,0.14751139283180237,-0.13369859755039215,-0.22650699317455292,0.15157583355903625,-0.011831553652882576,-0.0813852921128273,0.07203958928585052,-0.05435851588845253,-0.2818433940410614,-0.08951345831155777,0.024235179647803307,0.005610427353531122,-0.02348480001091957,-0.01984330825507641,-0.14365042746067047,0.10532127320766449,-0.07323578000068665,0.15088492631912231,0.11286371946334839,-0.025797761976718903,0.03574579581618309,-0.06691911816596985,0.03966157138347626,0.12160225957632065,-0.05563553050160408,-0.028720233589410782,0.042821917682886124,-0.0572691485285759,0.03668852895498276,-0.16603787243366241,0.10202804207801819,0.11865337193012238,-0.20021583139896393,-0.042179908603429794,0.06625151634216309,-0.16261938214302063,0.2777400314807892,0.17930789291858673,0.24583014845848083,-0.1358700692653656,0.07441849261522293,-0.21807080507278442,0.06638388335704803,0.10304510593414307,0.12869320809841156,-0.012705034576356411,0.2156338095664978,0.0445430688560009,-0.062016066163778305,0.04141920432448387,0.09002532809972763,-0.08621855080127716,-0.02089090831577778,-0.09163704514503479,-0.019725129008293152,-0.08431027829647064,0.22546924650669098,-0.23343928158283234,-0.0032665119506418705,0.04829869046807289,0.09257812052965164,-0.10916109383106232,0.04906965792179108,-0.1014973595738411,0.09346839785575867,0.1500491201877594,-0.029532035812735558,-0.09300049394369125,-0.09984421730041504,0.09740496426820755,0.12127363681793213,0.0659453272819519,0.07881679385900497,-0.10635092854499817,0.10206785053014755,0.049976881593465805,0.23588460683822632,0.1353946477174759,0.10035689175128937,0.0935826227068901,-0.09510199725627899,0.05538482218980789,0.06510287523269653,0.1034335270524025,-0.018274156376719475,-0.03366684168577194,-0.1501944214105606,-0.1543015092611313,0.11636058986186981,0.11166989803314209,0.032232511788606644,0.006020842585712671,-0.12389446794986725,0.012632294557988644,-0.08822521567344666,-0.0033567168284207582,0.043243858963251114,0.007010219618678093,0.12563686072826385,0.11296967417001724,-0.06336350739002228,0.07419653236865997,-0.09087633341550827,-0.11850060522556305,-0.05096246674656868,-0.08309769630432129,-0.0016793638933449984,0.017418162897229195,0.05875082314014435,-0.19228626787662506,0.048994533717632294,0.1221022754907608,0.063499815762043,-0.04415643960237503,-0.029102835804224014,-0.103074811398983,0.056189000606536865,0.029754454270005226,-0.04190806299448013,-0.07027272135019302,-0.03119930624961853,0.07101864367723465,-0.17317435145378113,-0.1538076102733612,0.09931343048810959,-0.08252210915088654,-0.017356032505631447,-0.018683314323425293,-0.15463148057460785,0.017478296533226967,-0.0263114795088768,-0.0265522263944149,0.033807408064603806,0.05470794439315796,-0.1519499123096466,0.07582524418830872,0.05791565775871277,0.1330304741859436,-0.00030087109189480543,0.1260031759738922,-0.13421158492565155,-0.09018506854772568,0.002688085427507758,0.03957956284284592,0.02161889709532261,-0.038337402045726776,-0.09243855625391006,-0.11944974213838577,-0.12472517788410187,-0.04843941330909729,-0.08459942042827606,0.16572901606559753,0.057236578315496445,0.05295008793473244,-0.028473876416683197,0.05117281526327133,0.16921894252300262,-0.015449566766619682,0.10727338492870331,-0.10410479456186295,-0.09644465893507004,-0.07592352479696274,-0.07107283920049667,0.1830674558877945,-0.0122043676674366,0.22257356345653534,0.16305938363075256,0.004510596394538879,-0.040255457162857056,0.1352487951517105,0.15636636316776276,0.06790853291749954,-0.18391147255897522,0.16271312534809113,-0.09013303369283676,0.0027970951050519943,0.09730125218629837,0.09646846354007721,-0.16556528210639954,-0.051740821450948715,-0.005597937852144241,0.05483666807413101,-0.1703416109085083,0.19801369309425354,-0.04146689549088478,0.18429593741893768,-0.14993931353092194,0.11565454304218292,-0.10144764930009842,0.018150651827454567,0.16950824856758118,-0.14133320748806,0.1736326664686203,0.04117085039615631,0.12024929374456406,0.17226099967956543,-0.005060986615717411,-0.13792511820793152,-0.14236478507518768,0.03690951690077782,-0.180410698056221,0.06193545460700989,-0.02209404483437538,-0.010860309936106205,-0.152678981423378,0.121501624584198,0.12741634249687195,-0.018738679587841034,-0.09519107639789581,0.052097804844379425,0.12557262182235718,-0.18705900013446808,-0.04066210985183716,-0.0347895585000515,-0.10679412633180618,0.07626712322235107,-0.0431811660528183,0.10635920614004135,-0.04874555766582489,-0.09549315273761749,0.005730854347348213,-0.034889768809080124,0.02695186622440815,0.09328237920999527,-0.07305057346820831,0.07225644588470459,-0.10034984350204468,0.0881265327334404,0.16233354806900024,-0.042940717190504074,0.1098756492137909,0.017451558262109756,-0.10083536803722382,-0.053636740893125534,0.021630289033055305,-0.12855857610702515,-0.019546812400221825,0.11259238421916962,-0.16030056774616241,-0.03449555113911629,0.1017579436302185,-0.09701906889677048,-0.16578537225723267,-0.20021557807922363,-0.14154210686683655,0.0267027635127306,0.039163026958703995,-0.0532471239566803,-0.16966314613819122,0.046567153185606,-0.09637026488780975,-0.04417269304394722,-0.05890151485800743,0.03802512213587761,0.12478455901145935,-0.09232791513204575,-0.3682749569416046,-0.1156744658946991,-0.20298048853874207,0.24520675837993622,0.2497866153717041,0.17238178849220276,-0.16081096231937408,-0.12703318893909454,-0.20845818519592285,-0.1531134694814682,-0.10441593080759048,-0.3198331594467163,-0.14570584893226624,-0.055557981133461,0.05613136664032936,-0.12367232143878937,0.07553572952747345,0.06078958511352539,-0.2275017648935318,-0.005371317267417908,0.21271151304244995,0.19411428272724152,0.15926958620548248,0.1921014040708542,-0.35766932368278503,-0.4221220314502716,-0.11720453202724457,0.2999769151210785,0.11757776886224747,-0.08787961304187775,0.1756311058998108,0.15248964726924896,-0.060146670788526535,0.22311002016067505,0.0668560341000557,-0.08914914727210999,0.30813390016555786,0.09888627380132675,0.015177806839346886,0.3541475236415863,0.2645515203475952,0.048430535942316055,-0.20544318854808807,-0.3386233150959015,-0.12188917398452759,0.10151834040880203,0.026848137378692627,-0.11898631602525711,-0.1157635971903801,-0.015510830096900463,-0.11738657206296921,-0.01660233549773693,0.19202308356761932,0.0951288640499115,0.12730161845684052,-0.0059766317717731,-0.11395183205604553,0.02546573430299759,0.005730635020881891,-0.1341589391231537,-0.15252266824245453,0.11693388968706131,0.11570467054843903,-0.06397214531898499,-0.1089131161570549,0.1591092199087143,-0.03809269517660141,0.18281596899032593,0.1468653678894043,0.27718880772590637,-0.0974826067686081,-0.10897515714168549,-0.3095112442970276,0.0924479216337204,0.03315068036317825,0.06140991300344467,0.04469802975654602,-0.12137014418840408,-0.10680510848760605,0.10505381971597672,-0.07061242312192917,0.09729593992233276,-0.1456267237663269,-0.029410570859909058,0.2557518482208252,0.002404922153800726,-0.16145843267440796,0.2597896158695221,0.019320126622915268,-0.154105544090271,-0.19808253645896912,-0.0672498419880867,-0.02214134857058525,0.036540448665618896,-0.0027900084387511015,-0.04846648499369621,0.053223542869091034,0.11752733588218689,0.02966737002134323,0.10514708608388901,0.12049999833106995,-0.12156254053115845,0.07210604101419449,0.030835429206490517,-0.1126086562871933,0.18969281017780304,-0.08027443289756775,-0.1290314793586731,-0.12918639183044434,-0.18203027546405792,0.19386544823646545,-0.06949251890182495,-0.16069769859313965,0.025966674089431763,-0.19705091416835785,-0.06091427057981491,0.11423210054636002,-0.032658278942108154,0.1725938618183136,0.09992663562297821,-0.057726580649614334,-0.03442813828587532,-0.06939893215894699,0.16497275233268738,0.19207105040550232,0.008810176514089108,0.10511010885238647,-0.00113574112765491,-0.13092084228992462,0.14329397678375244,-0.1587597131729126,0.0499165914952755,0.053871482610702515,-0.028415760025382042,-0.16937536001205444,0.1366395503282547,-0.023170877248048782,-0.03291497007012367,0.013041337952017784,0.0785798504948616,-0.048627082258462906,-0.1028347760438919,-0.0050911325961351395,-0.03231523558497429,0.04328647628426552,0.12622791528701782,0.10611032694578171,0.14286106824874878,-0.17265824973583221,0.12501047551631927,-0.06593949347734451,-0.043825481086969376,0.043235402554273605,-0.10130154341459274,0.03743678703904152,0.09311439841985703,-0.12252365052700043,0.09094734489917755,-0.1705111414194107,-0.04859643056988716,0.17733170092105865,0.07204864919185638,0.1251894235610962,0.09660208225250244,-0.0005873976042494178,0.0468190498650074,-0.1290043294429779,0.11455156654119492,0.07333812117576599,-0.01838459074497223,0.11916648596525192,0.03654102236032486,-0.045408155769109726,-0.035084206610918045,0.0637630820274353,-0.068942591547966,0.14109069108963013,-0.16358964145183563,-0.0864616185426712,-0.10837295651435852,0.0756608322262764,0.04969100281596184,-0.106803759932518,0.007889975793659687,-0.12207458168268204,-0.1105164960026741,-0.05218694731593132,-0.08325216919183731,0.13588941097259521,-0.10695802420377731,0.024890270084142685,-0.09496460109949112,0.08207505941390991,0.11602848023176193,-0.05369807779788971,-0.15227265655994415,0.054212525486946106,-0.06745678931474686,-0.16934557259082794,-0.0724862590432167,-0.024922924116253853,-0.07227250188589096,0.07746126502752304,-0.020709548145532608,0.36640626192092896,0.0016932657454162836,0.02209007926285267,0.0995599627494812,0.14069503545761108,0.08355016261339188,0.2878084182739258,0.013738011941313744,-0.008361711166799068,-0.13140752911567688,-0.18483379483222961,-0.14621205627918243,0.07695864140987396,-0.08506280183792114,0.1386534422636032,-0.23574566841125488,0.03270142525434494,0.012841281481087208,-0.03097349777817726,-0.045871444046497345,-0.09989918023347855,-0.20366790890693665,0.024057772010564804,-0.039940960705280304,-0.16404592990875244,-0.027794865891337395,0.007723963353782892,-0.3510977327823639,-0.047220248728990555,-0.23370780050754547,0.19826096296310425,-0.01833348162472248,0.06142142042517662,0.018468808382749557,0.17635652422904968,-0.06765595078468323,0.13722838461399078,-0.0009363217395730317,0.03529849275946617,-0.1335359811782837,0.09296413511037827,0.15090294182300568,-0.05859353765845299,0.08932320773601532,-0.08672041445970535,-0.004450335167348385,0.04131513833999634,-0.05009724199771881,0.1976335644721985,-0.14309945702552795,-0.06952967494726181,0.16788694262504578,0.06551286578178406,-0.3241671025753021,0.21247923374176025,-0.24696865677833557,-0.13086512684822083,-0.3349460959434509,-0.06625131517648697,-0.00026500370586290956,0.06210736557841301,0.09494497627019882,0.10607735812664032,-0.19356758892536163,0.12379572540521622,-0.040319956839084625,-0.3307790160179138,-0.11391463130712509,0.13207757472991943,-0.24347425997257233,0.02899860590696335,0.05100333318114281,-0.07182429730892181,0.1949707716703415,-0.007387482561171055,-0.19294282793998718,-0.035201434046030045,0.08564909547567368,0.06150541454553604,0.09898960590362549,0.17652074992656708,0.10698763281106949,0.07750542461872101,0.04274679720401764,0.09412214159965515,-0.06458954513072968,0.09122716635465622,0.10180452466011047,0.13721038401126862,-0.11370766162872314,-0.04003249481320381,0.23635037243366241,0.09585948288440704,0.07174801826477051,0.05315858870744705,0.11376261711120605,-0.01269494742155075,-0.23947130143642426,0.22465038299560547,0.24793770909309387,-0.53398197889328,0.053080637007951736,-0.6239113211631775,-0.3063082993030548,-0.3242604434490204,0.7116090059280396,-0.7858327031135559,-0.3345811665058136,-0.8165730834007263,0.27769091725349426,-0.6824346780776978,0.37768590450286865,-0.6614139080047607,-0.18186599016189575,-0.13689935207366943,0.08075039833784103,0.23697634041309357,0.1623385101556778,-0.0024860838893800974,-0.16407309472560883,-0.10861656814813614,-0.0881793349981308,-0.04946788027882576,0.10023625195026398,0.09398110955953598,0.09893056750297546,0.1177058070898056,-0.08382035046815872,0.000313435448333621,0.07426126301288605,-0.029709188267588615,0.06291504949331284,-0.12884140014648438,-0.3228021264076233,0.22476381063461304,-0.033744461834430695,-0.1856970340013504,0.07431985437870026,-0.042732201516628265,0.12319858372211456,0.024849528446793556,0.022184142842888832,0.029826832935214043,0.12603093683719635,0.302920937538147,-0.09106818586587906,-0.21897351741790771,-0.12657517194747925,0.25342050194740295,0.06560865789651871,0.2081596851348877,-0.07611797004938126,-0.017296992242336273,-0.04452881962060928,-0.21988317370414734,-0.27575016021728516,-0.19429239630699158,0.10287368297576904,0.0006798411486670375,0.25815585255622864,-0.10646875947713852,0.14029695093631744,0.003762807697057724,-0.2218487560749054,-0.22508101165294647,-0.1770281046628952,-0.002415908733382821,-0.12848539650440216,-0.05671760439872742,-0.05194981396198273,0.1300717443227768,0.12745288014411926,0.23815611004829407,0.24588167667388916,-0.20079372823238373,0.05694671720266342,-0.004012343008071184,0.303070068359375,0.11249805986881256,-0.07790213823318481,-0.14849236607551575,0.15138019621372223,-0.01959736831486225,-0.12956547737121582,0.23295828700065613,0.2433282732963562,-0.027450725436210632,-0.04404010251164436,0.08711333572864532,-0.074115090072155,-0.1042482778429985,-0.12664932012557983,-0.008857048116624355,-0.2392229437828064,0.007458384148776531,-0.16610871255397797,-0.0400051586329937,0.0642542839050293,-0.22045792639255524,0.04471389576792717,0.014787772670388222,0.14096808433532715,0.1629054695367813,-0.06922073662281036,-0.153964102268219,-0.2892700433731079,0.06415604054927826,-0.04251065105199814,0.08717221021652222,0.11931953579187393,-0.02495584636926651,0.15449170768260956,-0.3133600354194641,0.03997325897216797,0.2554488480091095,-0.2236277461051941,-0.12054469436407089,0.008424405939877033,0.004223930183798075,-0.24365687370300293,-0.056193459779024124,0.015636205673217773,-0.15599939227104187,-0.017230486497282982,0.3117067515850067,0.11298859119415283,0.1759253293275833,0.08663655817508698,0.05639847740530968,0.10489185899496078,-0.10662058740854263,-0.06632713973522186,0.05869794636964798,-0.07649573683738708,0.22594749927520752,-0.2112755924463272,-0.0108401570469141,-0.20393680036067963,0.10822051763534546,0.07128717005252838,0.150239035487175,-0.06970418989658356,0.05764881148934364,-0.10940994322299957,-0.17799018323421478,-0.13388855755329132,-0.11006540805101395,0.12525536119937897,-0.023504037410020828,-0.07276902347803116,0.04314041510224342,0.13167984783649445,-0.16280290484428406,-0.23166227340698242,0.10733092576265335,0.11078449338674545,0.32561081647872925,-0.08589331805706024,0.08266611397266388,-0.03701021894812584,0.11698699742555618,0.06517485529184341,-0.14189179241657257,0.07351823896169662,-0.08384575694799423,-0.019619682803750038,-0.03907861188054085,0.2593744099140167,0.15164580941200256,0.22778892517089844,-0.09252699464559555,0.029461640864610672,-0.21041856706142426,-0.09532827138900757,-0.12355514615774155,-0.27123624086380005,0.08947977423667908,0.0384121835231781,-0.04548672214150429,0.018754390999674797,0.03470918536186218,0.10271552205085754,0.15027791261672974,-0.2009330689907074,0.23829950392246246,0.08409546315670013,-0.04941674694418907,0.1160239577293396,-0.02939988300204277,0.10555223375558853,0.12085290253162384,-0.24118788540363312,-0.06170099601149559,-0.1518816202878952,-0.058579787611961365,0.11642753332853317,0.12285055965185165,-0.3249647319316864,0.19962523877620697,0.2345166802406311,-0.016840752214193344,0.006528776604682207,-0.15015415847301483,0.16379648447036743,-0.11311205476522446,-0.09223823994398117,-0.1933608055114746,-0.23152005672454834,0.18026351928710938,0.028694119304418564,-0.00914212130010128,-0.16916656494140625,0.09452778846025467,0.026885610073804855,-0.21504777669906616,-0.16763992607593536,-0.139577254652977,0.28420206904411316,-0.4234049916267395,0.06784575432538986,-0.12959745526313782,0.07693389058113098,-0.0813826397061348,-0.14858879148960114,0.233494833111763,-0.1989918351173401,0.0265058483928442,-0.08192460238933563,-0.10458137094974518,0.3075498640537262,0.15834279358386993,0.1564280092716217,0.029994258657097816,0.26161471009254456,0.028113694861531258,0.010788863524794579,-0.13102295994758606,0.04236801341176033,0.11914099752902985,-0.05807782709598541,-0.07243756204843521,-0.1732950210571289,-0.06449034810066223,0.15996922552585602,-0.04308266565203667,-0.026013212278485298,-0.03115168958902359,-0.21228358149528503,0.14294500648975372,-0.09743613749742508,0.09593148529529572,0.23835499584674835,0.059636082500219345,0.20646075904369354,-0.2934819459915161,-0.19744537770748138,0.09067461639642715,-0.19787771999835968,0.10547590255737305,-0.25199899077415466,0.0275465976446867,0.18628652393817902,-0.1620410978794098,0.3326877951622009,0.17548446357250214,-0.05935324355959892,0.1948518306016922,-0.253122478723526,-0.2142558991909027,-0.0870346650481224,-0.06894570589065552,0.09295569360256195,-0.15667176246643066,-0.1477312594652176,0.12975116074085236,0.12931177020072937,0.20059466361999512,0.06404086947441101,0.06887614727020264,0.06020428240299225,-0.2608540654182434,0.05250246077775955,-0.349771112203598,-0.09013719111680984,-0.21711261570453644,0.13810811936855316,0.09175294637680054,-0.1499718278646469,-0.02547491528093815,-0.19643403589725494,0.004550391808152199,0.0451730452477932,-0.05464806407690048,-0.010166880674660206,0.02008790336549282,-0.20518985390663147,0.0408460795879364,0.06855231523513794,-0.020775973796844482,-0.0606348030269146,0.08889579772949219,0.19478553533554077,-0.15294454991817474,-0.08340141177177429,-0.014778985641896725,0.09202849119901657,0.05168332904577255,0.14610110223293304,-0.17354175448417664,-0.06706294417381287,0.04282982647418976,0.07382457703351974,0.03405982255935669,0.0889950767159462,-0.16847559809684753,-0.013010717928409576,0.11598652601242065,-0.06295212358236313,-0.00549266068264842,-0.09103278070688248,0.14481712877750397,0.04525095224380493,0.011860773898661137,0.1889352947473526,-0.1317943036556244,-0.004141146317124367,0.0438460074365139,0.20436085760593414,0.10508827865123749,-0.012149430811405182,0.07462409138679504,-0.24613067507743835,0.004591797944158316,-0.10932427644729614,0.1383119821548462,0.04264294356107712,-0.005475575570017099,-0.034111786633729935,-0.1847047507762909,-0.0011941167758777738,0.06834296137094498,0.16867724061012268,0.07409121841192245,-0.2328188568353653,-0.08113601803779602,0.10330363363027573,-0.15983283519744873,-0.08665740489959717,-0.1602959781885147,0.14940245449543,-0.1949622929096222,0.14974619448184967,-0.24718405306339264,0.09853071719408035,-0.2188481092453003,0.028148522600531578,-0.05765523761510849,0.018200010061264038,-0.31926479935646057,-0.24249336123466492,0.07146952301263809,0.46441128849983215,0.027297144755721092,0.13800455629825592,0.1076640859246254,0.03152615949511528,0.11092560738325119,-0.23620884120464325,-0.06641704589128494,-0.03235693648457527,0.2718764841556549,-0.009527556598186493,0.09045908600091934,-0.006634325720369816,-0.080429308116436,-0.12357238680124283,-0.055528029799461365,0.0951630249619484,0.2585272490978241,-0.05098900943994522,0.03515288233757019,0.02413932979106903,-0.16690707206726074,-0.25060945749282837,0.08257206529378891,-0.012858998030424118,-0.08659148216247559,0.14788080751895905,-0.2380107045173645,0.3359997570514679,-0.15488409996032715,0.035271864384412766,0.13670729100704193,-0.06509682536125183,-0.08918049186468124,0.07528956979513168,0.013675546273589134,-0.0005727628595195711,-0.013806862756609917,0.046208351850509644,0.21642088890075684,0.08570000529289246,-0.07289937138557434,0.08714289963245392,-0.01194392703473568,0.1166570857167244,-0.0625954270362854,0.10344453901052475,-0.0755903571844101,-0.046874385327100754,-0.2523379325866699,-0.07998648285865784,-0.08026183396577835,0.0789361521601677,-0.08591116964817047,-0.03565399348735809,-0.04863295331597328,0.2035418450832367,0.14990021288394928,0.19716611504554749,-0.06612429767847061,-0.029678979888558388,0.04872884228825569,0.1629757583141327,-0.23304422199726105,0.15894591808319092,-0.23621536791324615,0.044172391295433044,-0.019564632326364517,-0.09068817645311356,-0.06047942489385605,-0.08007610589265823,-0.04060981422662735,0.04518551379442215,0.03765028715133667,-0.18377436697483063,-0.1262567639350891,-0.3400164842605591,0.12653106451034546,0.04958965256810188,-0.032752182334661484,-0.014207708649337292,-0.0846901386976242,0.0066163428127765656,-0.02626933343708515,-0.039750128984451294,0.052411798387765884,0.13049334287643433,-0.028787553310394287,-0.05288874730467796,-0.037070002406835556,0.03429396450519562,0.05864601209759712,-0.0436275377869606,-0.027148893103003502,0.010365644469857216,0.004519233945757151,0.04069029912352562,-0.19708356261253357,-0.08749978244304657,-0.05244520679116249,-0.0369715578854084,0.23598884046077728,-0.011329222470521927,-0.013543926179409027,-0.03760235756635666,0.0031210463494062424,-0.08057155460119247,0.07898925244808197,-0.05734154209494591,0.06723206490278244,-0.1389215737581253,-0.22964318096637726,0.02541307918727398,-0.03880312293767929,0.040335964411497116,0.14013931155204773,-0.021129874512553215,-0.25965869426727295,-0.14739833772182465,0.014177610166370869,0.1726147085428238,0.09138790518045425,0.2049456387758255,0.1365087777376175,0.002682833466678858,0.00017477013170719147,0.0871385931968689,-0.040811702609062195,-0.06769000738859177,-0.011571291834115982,-0.07388676702976227,0.011948086321353912,0.12452246993780136,0.016817420721054077,-0.16426172852516174,-0.09781824052333832,0.07243246585130692,0.0014541965210810304,0.0345001295208931,0.02224760502576828,-0.12122409045696259,-0.2701249122619629,0.07296174019575119,0.1700773984193802,0.2681276202201843,0.016330042853951454,-0.0427880696952343,-0.18970873951911926,0.044154856353998184,0.06784552335739136,0.09492439031600952,0.0008817436173558235,-0.08588089793920517,-0.04865117743611336,-0.08365056663751602,-0.12934379279613495,-0.10262684524059296,0.10854747146368027,0.04657498374581337,-0.24820809066295624,0.2609086334705353,0.08698370307683945,-0.049837108701467514,-0.10848773270845413,0.08238310366868973,-0.12650847434997559,-0.09829271584749222,-0.017823882400989532,0.09606368094682693,-0.012751003727316856,-0.023089900612831116,-0.1437189280986786,-0.12134765833616257,-0.07559099048376083,0.03310822322964668,0.029197154566645622,0.04086844623088837,-0.04656112566590309,0.05229954794049263,-0.1065877303481102,-0.26219481229782104,0.1931365430355072,-0.15370287001132965,0.2416553795337677,0.058976251631975174,-0.07198864966630936,-0.21059884130954742,0.1403113156557083,0.08575525879859924,0.10796000808477402,-0.1166958212852478,-0.11655460298061371,-0.19279713928699493,0.07938552647829056,0.130295529961586,-0.050867948681116104,0.007699134293943644,-0.05389905348420143,0.24007096886634827,-0.041829586029052734,0.05577343329787254,-0.08172035217285156,-0.20459747314453125,-0.09649289399385452,0.11030823737382889,-0.0940864160656929,0.08593633025884628,-0.07807016372680664,-0.12477505207061768,0.07831393927335739,0.05317479744553566,-0.14096564054489136,-0.0802009105682373,-0.13906623423099518,0.05756955221295357,0.12435876578092575,-0.11066963523626328,-0.06002890691161156,0.12126745283603668,0.14901357889175415,0.09578388929367065,0.017403949052095413,0.009985638782382011,0.04652804881334305,-0.02981901913881302,-0.06961209326982498,0.007966055534780025,-0.10423028469085693,0.179517462849617,-0.0454135462641716,0.08767665922641754,-0.009557693265378475,-0.09751798957586288,0.06134410202503204,0.17200663685798645,-0.13109640777111053,-0.1208789199590683,-0.07643263787031174,0.0981370285153389,-0.06696562469005585,0.24737298488616943,-0.1383770853281021,-0.16889525949954987,0.016252776607871056,-0.14185139536857605,-0.043079741299152374,-0.09767164289951324,-0.0569525770843029,-0.003577877301722765,-0.11695453524589539,0.20128494501113892,0.029372869059443474,-0.22719469666481018,0.01158924214541912,-0.23113597929477692,0.017326416447758675,0.028954191133379936,0.15342369675636292,-0.23551124334335327,0.022020630538463593,-0.006345042027533054,0.07669895142316818,-0.15149769186973572,-0.08839210122823715,0.1157965138554573,0.102506123483181,-0.12418638169765472,-0.13732989132404327,-0.02064584009349346,-0.21546544134616852,-0.009844942018389702,0.08743461966514587,-0.13366208970546722,0.05261606723070145,-0.058377329260110855,0.08568228036165237,0.06157522276043892,0.003049589693546295,-0.13826511800289154,0.03898938000202179,0.047935422509908676,-0.03202545642852783,0.0776776596903801,-0.030804390087723732,0.009900899603962898,0.01789003424346447,-0.06746061891317368,-0.0737776830792427,0.08665194362401962,-0.13841910660266876,0.17830201983451843,-0.26368558406829834,0.017298681661486626,-0.1506965607404709,-0.03330623731017113,-0.1661209762096405,-0.07464376091957092,0.08564251661300659,0.1500936895608902,-0.19016976654529572,-0.06924214214086533,0.1043420061469078,0.11083046346902847,-0.28187495470046997,-0.04433412849903107,-0.23429839313030243,0.024489499628543854,-0.009576582349836826,0.013885713182389736,-0.18163903057575226,0.0449589267373085,-0.002907859394326806,-0.004311827011406422,0.00695497402921319,0.04017319157719612,0.18635845184326172,-0.07436402142047882,-0.006130923982709646,0.23818020522594452,0.014436183497309685,-0.07244295626878738,-0.028955265879631042,-0.03227685019373894,-0.04660573974251747,-0.2503426969051361,0.00792409386485815,-0.012038450688123703,-0.0015103695914149284,-0.02824520692229271,0.048132337629795074,-0.18686549365520477,0.05642811208963394,0.01385335624217987,0.10447951406240463,0.10012592375278473,0.031805895268917084,-0.1585504561662674,0.13964980840682983,0.09128610789775848,0.06410901993513107,-0.11999311298131943,-0.02458137646317482,0.1329938918352127,-0.1062784492969513,-0.048183463513851166,0.11746064573526382,-0.1608542799949646,0.12867559492588043,0.07417687773704529,-0.008525258861482143,0.14880096912384033,0.2142108678817749,-0.00481473607942462,0.09090699255466461,0.08879903703927994,-0.14393137395381927,-0.0984182208776474,-0.16368231177330017,-0.14988261461257935,0.11076908558607101,0.2022870033979416,0.08345513790845871,0.13615727424621582,0.024886813014745712,0.1746797412633896,-0.032755207270383835,0.11114706099033356,-0.21348248422145844,-0.007493025157600641,0.036615271121263504,0.021485624834895134,-0.14839902520179749,-0.16666990518569946,-0.00035977509105578065,-0.09291534125804901,0.09896384924650192,-0.14615221321582794,0.009660067036747932,-0.29369983077049255,-0.004375887103378773,0.03668009117245674,0.03037041611969471,0.086857870221138,0.0461883470416069,-0.2968188524246216,0.1637866497039795,0.07474455237388611,0.048600561916828156,-0.2285452038049698,-0.06862170994281769,0.23832789063453674,-0.12257794290781021,0.007009726949036121,-0.03422487899661064,-0.1282481551170349,-0.035599157214164734,-0.06938565522432327,-0.1891903579235077,0.050460297614336014,0.23722410202026367,-0.19393470883369446,0.09798180311918259,0.014039968140423298,-0.1631268411874771,0.07270900160074234,-0.06565229594707489,-0.035520825535058975,0.018117375671863556,0.03545546159148216,0.17606844007968903,0.009683460928499699,0.05333837494254112,0.13632258772850037,-0.017287522554397583,0.05375588685274124,0.14068157970905304,0.13405394554138184,-0.11318527162075043,0.0787949189543724,0.07293404638767242,0.032263316214084625,-0.08716651052236557,0.09031844139099121,0.16778647899627686,-0.07448142021894455,0.13691256940364838,0.11459852010011673,-0.06767775118350983,-0.0006437599658966064,0.15401867032051086,0.16228289902210236,-0.012409220449626446,-0.030184093862771988,-0.12262950092554092,-0.0037605923134833574,-0.0697229877114296,0.11817457526922226,0.07019494473934174,-0.10481929779052734,0.13787804543972015,0.09067875891923904,0.007967854849994183,-0.015570479445159435,0.0663384199142456,-0.23404569923877716,-0.05433141067624092,-0.10290404409170151,0.2066137194633484,0.010372577235102654,-0.05836832523345947,-0.21513260900974274,-0.02723994478583336,-0.02176787331700325,0.029819199815392494,0.03821389004588127,-0.024136431515216827,-0.011314591392874718,0.06331034004688263,0.08918365836143494,-0.10578491538763046,0.019949227571487427,-0.050444528460502625,0.16611036658287048,0.060193005949258804,0.09073107689619064,0.0313238687813282,0.06380194425582886,-0.197115957736969,-0.251588374376297,0.0562172532081604,-0.00038081256207078695,0.122344970703125,0.140928253531456,0.04486656188964844,-0.14847388863563538,-0.12192030996084213,-0.11086422950029373,0.00414550956338644,-0.15391017496585846,-0.2431809902191162,-0.09753932058811188,-0.0789133831858635,0.005895043723285198,-0.06247563287615776,-0.10744363814592361,0.1670130342245102,-0.03953633829951286,0.06624257564544678,-0.00010037736501544714,0.017688067629933357,-0.11967555433511734,-0.057112038135528564,0.05477139726281166,0.017721153795719147,0.04871765896677971,-0.23223915696144104,0.115211620926857,-0.01347288303077221,0.03678739443421364,-0.20227837562561035,-0.09944085776805878,-0.08320159465074539,0.32647421956062317,0.3491266369819641,0.2254357635974884,-0.0991734117269516,-0.2006217986345291,-0.1989942193031311,0.12030525505542755,0.2088882327079773,0.1545301228761673,-0.004376858938485384,0.29404687881469727,0.27034422755241394,0.12302252650260925,-0.09556946903467178,0.04534238204360008,-0.03156986087560654,-0.01624801568686962,0.08773037791252136,-0.10590088367462158,-0.11076910048723221,-0.17304258048534393,0.00828831922262907,0.13826829195022583,-0.10931459069252014,-0.004420365672558546,-0.17912594974040985,0.03419823199510574,0.09757311642169952,0.10954727977514267,0.15524712204933167,0.09225159883499146,0.25529059767723083,0.23055040836334229,0.1345290094614029,-0.12480442225933075,0.1296311616897583,0.13649356365203857,0.3195422887802124,0.2909102439880371,0.3187282681465149,-0.058550309389829636,0.12858623266220093,-0.163025364279747,0.3265320658683777,0.004841129295527935,0.18155473470687866,0.05145539343357086,-0.019983310252428055,-0.040574900805950165,0.18193519115447998,-0.21105438470840454,-0.06405002623796463,-0.06912821531295776,-0.019449181854724884,-0.02694663405418396,-0.11493567377328873,-0.17303019762039185,0.15162335336208344,-0.07369311898946762,0.07301460206508636,0.10353626310825348,-0.05037529021501541,0.09117870032787323,-0.1293102353811264,0.08306942880153656,-0.0874062106013298,-0.006432126741856337,0.04660700261592865,0.13660137355327606,-0.08112455159425735,-0.104957215487957,-0.12209432572126389,-0.039510879665613174,0.10984644293785095,0.10855007916688919,0.06083468720316887,-0.08262447267770767,-0.03857852518558502,-0.04801872745156288,-0.07392478734254837,-0.10163970291614532,-0.025023197755217552,-0.05206242948770523,0.060184694826602936,0.0030150925740599632,0.07021705061197281,0.0018546282080933452,-0.07130585610866547,-0.27253100275993347,-0.1009017825126648,-0.000925718923099339,0.053994227200746536,-0.093264639377594,0.04564836621284485,0.0996166542172432,0.21674923598766327,0.0090950857847929,0.02975349687039852,-0.1370002031326294,0.10505713522434235,-0.09558184444904327,0.03308695927262306,-0.014773789793252945,-0.14477722346782684,-0.24971678853034973,0.14829833805561066,-0.08902217447757721,-0.05998861789703369,-0.09587966650724411,0.13748213648796082,0.18281126022338867,-0.21242868900299072,-0.11199026554822922,-0.10049577802419662,-0.10118009895086288,0.04364360123872757,0.10171572864055634,-0.03644659370183945,-0.05638442933559418,-0.31447574496269226,-0.024087801575660706,0.17653600871562958,0.2254800945520401,0.024996239691972733,-0.02067256160080433,0.14663894474506378,0.01622961275279522,-0.012042203918099403,-0.015094626694917679,-0.00214049662463367,0.02397206984460354,0.009989960119128227,0.07794366776943207,-0.06986015290021896,-0.1559315323829651,0.19772969186306,-0.07334449887275696,-0.12808574736118317,0.01098973210901022,-0.001213514944538474,-0.023042552173137665,0.02682182565331459,-0.19067832827568054,0.11197362840175629,0.11054030060768127,0.04139816761016846,0.0023360250052064657,0.0688386783003807,0.1504618227481842,-0.09450073540210724,0.1986595094203949,-0.13557524979114532,-0.0761382132768631,0.05384474992752075,-0.02842114306986332,0.06953484565019608,-0.059122391045093536,0.07650573551654816,0.044498130679130554,-0.11695200204849243,0.1291133463382721,-0.013320792466402054,-0.036298587918281555,0.05223695561289787,0.12498491257429123,0.14358747005462646,0.025270279496908188,-0.06365001201629639,-0.026626326143741608,-0.12906178832054138,0.002386353677138686,0.029100162908434868,-0.0803053006529808,-0.1793341189622879,-0.03621145337820053,-0.1474570333957672,-0.12276232242584229,0.06903982162475586,-0.011130964383482933,0.13132865726947784,0.06472763419151306,-0.07446222007274628,0.048308007419109344,0.04370022937655449,0.19652168452739716,-0.15005986392498016,0.026018455624580383,-0.1544836163520813,-0.086659274995327,0.13565082848072052,0.0717848390340805,0.057276178151369095,0.06335058063268661,-0.05410991236567497,0.07199686765670776,-0.00006736836803611368,-0.04361119866371155,-0.029096117243170738,0.07471421360969543,0.06577665358781815,0.024602388963103294,0.044295161962509155,-0.19037644565105438,0.025926096364855766,-0.011386027559638023,0.06165986508131027,-0.18951115012168884,-0.34491589665412903,0.6870673298835754,0.30079755187034607,-0.5102413892745972,0.017330991104245186,-0.15391410887241364,-0.01487206295132637,0.49507617950439453,-0.6195570826530457,0.7957862019538879,0.5708868503570557,0.05727154761552811,-0.29093852639198303,0.26158061623573303,-0.4486323595046997,-0.05741903930902481,-0.2091514617204666,0.21348050236701965,-0.09230989962816238,0.3069407343864441,0.22713738679885864,0.06948962062597275,0.21012863516807556,0.1967277079820633,0.18411138653755188,0.09308835864067078,0.1749468445777893,-0.1971498727798462,-0.020880522206425667,-0.2577231526374817,0.06628219783306122,0.19700832664966583,0.22340576350688934,-0.010628508403897285,0.05346748232841492,0.13965879380702972,0.15114650130271912,-0.010478147305548191,-0.2800753712654114,-0.1862683892250061,0.0033546790946274996,0.005830241832882166,-0.16222332417964935,0.05576660484075546,0.16840817034244537,0.16382218897342682,-0.09011399745941162,-0.1552659124135971,-0.08068319410085678,-0.07656997442245483,0.07329891622066498,0.2105296552181244,-0.059195030480623245,0.0774935930967331,-0.25242581963539124,-0.15883643925189972,-0.10620072484016418,-0.22295637428760529,0.12863430380821228,0.09703333675861359,-0.3541995882987976,-0.022107737138867378,-0.09333115816116333,0.19652700424194336,-0.01677071489393711,0.13708269596099854,0.025919387117028236,-0.09612302482128143,0.13349056243896484,-0.2402368187904358,0.13534440100193024,0.26792314648628235,-0.04397226497530937,0.022674601525068283,0.28266140818595886,0.0904952809214592,0.09749536961317062,0.10390938818454742,-0.12996257841587067,0.26532018184661865,0.07278931885957718,0.29687681794166565,-0.11699676513671875,0.10646273195743561,-0.11838643997907639,0.07093857228755951,-0.06303533911705017,0.24786600470542908,-0.011150427162647247,-0.13444972038269043,0.10043077170848846,-0.2503563165664673,-0.16419006884098053,0.12603314220905304,-0.02207760326564312,0.040859635919332504,0.05831064283847809,0.04435989260673523,-0.08583342283964157,-0.03519906848669052,-0.14745520055294037,0.3400479257106781,0.005277413874864578,-0.23705780506134033,-0.26766452193260193,0.04744517803192139,-0.06687799096107483,0.11819209158420563,0.22808420658111572,0.31116509437561035,0.055741339921951294,0.08284467458724976,0.07986267656087875,-0.049633897840976715,0.043838322162628174,-0.13484297692775726,-0.17973951995372772,0.11493650078773499,-0.08234171569347382,-0.2792932093143463,0.1409081667661667,0.3872584104537964,-0.14407503604888916,0.26113495230674744,0.07908502221107483,0.08283458650112152,0.09849553555250168,0.3684851825237274,0.27908051013946533,-0.20367668569087982,-0.1892230212688446,0.11853227764368057,-0.22302031517028809,0.15550513565540314,-0.036643050611019135,-0.018831675872206688,-0.03214507922530174,0.1497584879398346,0.08105108141899109,-0.09449756890535355,0.21700029075145721,0.16312795877456665,-0.032489027827978134,-0.22184564173221588,0.46018296480178833,-0.0730397030711174,0.2237023562192917,0.2952677607536316,-0.025611933320760727,-0.14158229529857635,-0.029206614941358566,-0.16310006380081177,-0.026529910042881966,-0.253076434135437,0.1619705855846405,-0.2720743417739868,-0.034126315265893936,0.07903698086738586,0.07541219890117645,0.23436866700649261,-0.2691081464290619,-0.08600207418203354,0.22156473994255066,0.05370325222611427,0.1623603105545044,-0.09191198647022247,-0.10409839451313019,-0.07566004991531372,0.01806715875864029,0.17406968772411346,-0.1303899586200714,-0.03954965993762016,0.036366056650877,0.1654893457889557,-0.09427924454212189,0.28297144174575806,-0.15565910935401917,-0.21084371209144592,-0.11291251331567764,0.15002143383026123,-0.16581378877162933,0.10102076083421707,-0.06937563419342041,0.24080060422420502,0.08266942948102951,-0.2139652520418167,0.008603525348007679,0.04532727226614952,-0.23881877958774567,0.05524621903896332,0.18719922006130219,0.0003605916863307357,0.00016212303307838738,-0.09027520567178726,0.08407357335090637,-0.19138623774051666,0.266461580991745,0.12023189663887024,0.13413295149803162,-0.05762190744280815,-0.23762737214565277,-0.16303898394107819,0.2495707869529724,-0.25424012541770935,-0.2494676411151886,-0.02942797914147377,0.03057594783604145,-0.3075930178165436,-0.23836079239845276,-0.23950240015983582,0.032751623541116714,0.15781480073928833,0.12481150031089783,-0.13258908689022064,-0.3362405002117157,0.13613304495811462,0.06278077512979507,-0.1759280413389206,0.040993865579366684,0.06793491542339325,0.09530585259199142,0.038490235805511475,-0.20718267560005188,-0.18474999070167542,0.11795970797538757,-0.2413221299648285,0.07388485223054886,-0.030044957995414734,-0.1064116433262825,0.1617710292339325,-0.2812013030052185,0.10698416829109192,0.09119783341884613,0.060329172760248184,-0.20028552412986755,-0.004267155658453703,0.12940546870231628,-0.11260766535997391,-0.05878323316574097,-0.029008854180574417,0.17642012238502502,-0.21914073824882507,-0.025323396548628807,-0.045099224895238876,-0.014616424217820168,0.1525297462940216,-0.3376644551753998,0.15895572304725647,0.11716698855161667,0.17480313777923584,0.12277863919734955,-0.12243558466434479,0.013223509304225445,0.08593451231718063,-0.38554078340530396,-0.10692484676837921,-0.058558765798807144,-0.09605240821838379,-0.20198793709278107,-0.10484697669744492,-0.029498310759663582,-0.06059826910495758,-0.22632203996181488,0.10011313110589981,0.18168695271015167,0.06479741632938385,0.23768006265163422,-0.10998756438493729,-0.10243020951747894,-0.0822412520647049,0.09477990120649338,0.030542464926838875,0.032980382442474365,0.07552556693553925,0.13822229206562042,-0.031249718740582466,0.13725104928016663,0.1630612015724182,-0.013607003726065159,-0.2012028843164444,-0.11459991335868835,0.02783428691327572,0.06048886477947235,0.08928411453962326,0.07703939825296402,0.018330484628677368,-0.026272211223840714,0.1626320332288742,-0.09565412998199463,0.10011576861143112,-0.18560394644737244,0.044155824929475784,0.171784907579422,0.06544766575098038,0.06955010443925858,0.0346553698182106,-0.13024181127548218,0.12063536792993546,0.1816996932029724,0.09639144688844681,-0.18885694444179535,-0.04107454791665077,0.15117201209068298,-0.055568087846040726,0.006144556682556868,0.0006593418656848371,-0.05395928770303726,-0.08100351691246033,-0.12355560809373856,-0.03925856575369835,-0.027175648137927055,-0.05211016163229942,0.1062249019742012,0.1248917281627655,0.06875099986791611,-0.005291141103953123,-0.08208688348531723,-0.16360943019390106,0.11004073172807693,0.23868504166603088,-0.033986542373895645,-0.15063261985778809,-0.06852982938289642,-0.24167568981647491,0.03466056287288666,-0.05236612260341644,-0.13384321331977844,0.11657305061817169,-0.04910091310739517,-0.3239947259426117,-0.0479649156332016,-0.22002309560775757,-0.024238016456365585,0.012532223016023636,0.09191633015871048,0.09287719428539276,0.13587217032909393,-0.08402571827173233,0.24294772744178772,0.005382421426475048,-0.10374602675437927,-0.026482654735445976,-0.08407426625490189,-0.18316683173179626,-0.06607236713171005,0.18149864673614502,0.1157548725605011,-0.07010744512081146,0.03167771175503731,0.23527130484580994,0.026985429227352142,-0.15501976013183594,0.03908558562397957,-0.18542049825191498,0.09464733302593231,-0.001332314102910459,-0.002756640547886491,-0.14852391183376312,-0.10018511861562729,-0.06045801565051079,0.18060724437236786,-0.03400995954871178,0.09316636621952057,0.13287203013896942,0.14967533946037292,-0.15917441248893738,-0.06926184147596359,0.11589803546667099,0.047041889280080795,0.011654548346996307,-0.1405399888753891,0.014364046975970268,-0.013849442824721336,-0.10453475266695023,-0.042372312396764755,0.07114846259355545,-0.2177792638540268,0.07325761765241623,0.034538209438323975,-0.15911374986171722,0.029255002737045288,0.1262342482805252,-0.09761495888233185,-0.1964634507894516,0.14560148119926453,0.05450683459639549,0.2761630415916443,-0.06643879413604736,-0.24885977804660797,-0.07886765152215958,-0.08022025227546692,0.11266188323497772,-0.06398437917232513,0.09673983603715897,-0.03584885597229004,0.07951926440000534,-0.0399760939180851,0.03497886657714844,-0.1083618700504303,-0.21924562752246857,-0.04773186519742012,0.05334038287401199,0.041452113538980484,-0.10621420294046402,0.010436639189720154,-0.06630557030439377,-0.0062506129033863544,-0.23816123604774475,0.07125574350357056,0.3356808125972748,0.1465943604707718,-0.06191970780491829,-0.08423538506031036,-0.10086382180452347,0.12644729018211365,0.03878355771303177,-0.07595089823007584,-0.017015822231769562,0.10571331530809402,-0.016915397718548775,0.03540007025003433,-0.11554183810949326,-0.029727887362241745,-0.0305218156427145,-0.12146428227424622,0.23608867824077606,-0.1452578455209732,-0.16223812103271484,-0.03223120793700218,0.143019437789917,-0.025926461443305016,0.12902453541755676,0.27873072028160095,0.05654076486825943,0.030685603618621826,0.010226566344499588,-0.0001094104882213287,-0.07153414189815521,-0.01714370958507061,0.011653670109808445,0.09819325804710388,0.18030883371829987,0.014319454319775105,0.037421438843011856,0.09873375296592712,-0.10720831900835037,-0.07410328835248947,-0.21084927022457123,0.01634361408650875,0.1429193615913391,0.02923893928527832,0.04879779368638992,0.07873710244894028,-0.09482457488775253,0.16345040500164032,-0.02929035574197769,-0.12882429361343384,-0.2394445538520813,-0.14397946000099182,-0.06112424284219742,0.06649649888277054,-0.08299805968999863,0.09970775991678238,-0.08450780808925629,0.049220770597457886,0.201427161693573,0.1657814085483551,0.032774388790130615,0.1556941121816635,-0.1292012333869934,0.07671844959259033,0.02773917466402054,-0.26370540261268616,-0.20233191549777985,-0.09907253086566925,-0.2914409041404724,0.04236951097846031,0.1730661541223526,-0.07476311922073364,0.07813502848148346,-0.07241939008235931,-0.06497356295585632,0.12172763049602509,-0.04362577944993973,-0.005036917980760336,-0.105190210044384,0.13271953165531158,0.11369284242391586,0.24623477458953857,0.010056944563984871,0.07602554559707642,0.20712746679782867,-0.026755118742585182,-0.11170925945043564,-0.2806031405925751,0.04789024591445923,0.110181525349617,-0.0017438095528632402,-0.09195335954427719,0.03055768460035324,-0.06650565564632416,-0.03109978884458542,0.0025398475117981434,0.025706905871629715,0.15420615673065186,-0.11656774580478668,-0.3311317265033722,-0.13531045615673065,-0.00648735836148262,0.2558101713657379,0.15720844268798828,-0.031873155385255814,0.06671752035617828,0.02175334468483925,-0.03561287745833397,-0.1025741919875145,0.03637022525072098,-0.020542213693261147,-0.08334041386842728,-0.07020331174135208,-0.1385716050863266,-0.030701756477355957,-0.014295941218733788,0.2154504358768463,0.17396776378154755,-0.06447187811136246,0.002172336680814624,-0.05122431367635727,-0.11119205504655838,-0.09146905690431595,-0.04653801769018173,-0.08364947140216827,-0.14200030267238617,-0.014129212126135826,-0.0840192437171936,0.2382996678352356,-0.0060914019122719765,-0.03354938328266144,-0.16460134088993073,0.06128813326358795,-0.07202737033367157,-0.13229511678218842,-0.1971779763698578,-0.0836869403719902,-0.0003394328523427248,-0.04110868647694588,-0.003971378318965435,-0.02065526321530342,-0.03804292529821396,-0.025780558586120605,-0.09105268120765686,0.04291020333766937,-0.028232300654053688,-0.031735192984342575,-0.11566677689552307,0.12887294590473175,-0.08919859677553177,0.058440353721380234,-0.06689560413360596,-0.035112813115119934,0.14272072911262512,-0.021220572292804718,0.14736124873161316,0.07154219597578049,-0.05363224074244499,-0.15155354142189026,0.014977052807807922,-0.11573118716478348,-0.19555774331092834,0.013714953325688839,-0.07918088883161545,0.1110714003443718,0.09031108021736145,0.03868330270051956,-0.02410142868757248,0.05225205421447754,0.032776664942502975,-0.06642185896635056,-0.08651680499315262,-0.13006557524204254,0.030447235330939293,-0.11965519189834595,0.31476593017578125,0.0632973238825798,-0.21667909622192383,-0.04133690893650055,-0.01868845522403717,0.031147170811891556,0.006993246264755726,-0.025466086342930794,0.09152469038963318,-0.17329713702201843,-0.08198703080415726,-0.1217067614197731,-0.1211698055267334,-0.052719928324222565,0.32950055599212646,-0.023127535358071327,-0.13095538318157196,-0.14600567519664764,0.04379953816533089,0.0892242044210434,0.16418291628360748,-0.011630238965153694,-0.07868851721286774,-0.09751567244529724,0.12299376726150513,0.01582576148211956,-0.08702577650547028,-0.08393791317939758,0.014930495992302895,-0.04565223306417465,0.004416241310536861,0.008482633158564568,-0.24811431765556335,0.08256504684686661,0.035504866391420364,-0.16120445728302002,0.22111156582832336,0.16577200591564178,-0.11613891273736954,-0.07847103476524353,-0.15383443236351013,0.12026698142290115,-0.21916264295578003,0.21764622628688812,0.03977815806865692,0.09518400579690933,0.12609241902828217,-0.14007772505283356,-0.04433920979499817,-0.14665833115577698,-0.06922309100627899,0.10236278921365738,-0.014311668463051319,-0.02501714788377285,0.03112008422613144,0.0520721971988678,-0.08038759231567383,-0.02764674462378025,-0.0818585604429245,-0.09804771840572357,-0.07838080823421478,-0.00836198590695858,-0.020102014765143394,0.0543939433991909,-0.01737845502793789,-0.014014914631843567,-0.14079691469669342,0.1479371190071106,0.02197721041738987,-0.047983210533857346,0.06805895268917084,-0.17546434700489044,0.00026978482492268085,-0.14079667627811432,-0.0021672514267265797,-0.33915266394615173,0.19946366548538208,0.07743696123361588,0.008917895145714283,0.08008073270320892,-0.009376105852425098,-0.040705736726522446,-0.0495617650449276,-0.30221131443977356,-0.1674066036939621,-0.20331397652626038,0.14714685082435608,0.015492101199924946,0.046699490398168564,0.03024173341691494,0.19067586958408356,-0.008327311836183071,-0.025895657017827034,-0.06183791533112526,0.042150598019361496,0.021187253296375275,-0.11595743894577026,0.13144055008888245,0.013894460164010525,-0.029218163341283798,-0.10357649624347687,-0.18625427782535553,0.00947520136833191,0.01400822214782238,-0.1344984620809555,0.10357419401407242,0.05434037744998932,-0.17232497036457062,-0.17983627319335938,-0.11632490158081055,-0.17078758776187897,-0.13844743371009827,-0.10456345975399017,0.10910069942474365,0.0010246946476399899,0.15153631567955017,0.016057776287198067,0.18722616136074066,-0.09891188889741898,0.14288897812366486,-0.1532689929008484,0.06499916315078735,0.14279718697071075,-0.02364618517458439,-0.0808115154504776,0.2624255418777466,-0.015355950221419334,-0.20447339117527008,-0.09003416448831558,0.05681378394365311,-0.04215221852064133,-0.060172926634550095,-0.06407498568296432,0.08217504620552063,0.021600868552923203,-0.049148935824632645,0.06322401762008667,-0.22020910680294037,0.34331557154655457,-0.08612794429063797,0.2809666395187378,-0.1524818390607834,0.008748115040361881,0.15268421173095703,-0.07835233956575394,0.05728115886449814,0.03750882297754288,0.014904417097568512,-0.031130444258451462,-0.0012988501694053411,0.11469749361276627,0.19033339619636536,-0.03210550919175148,-0.1067185327410698,-0.02972439117729664,0.012601085938513279,-0.13786108791828156,0.11993039399385452,-0.027716653421521187,-0.07771966606378555,0.05805088207125664,-0.051346927881240845,0.05855563282966614,-0.011960511095821857,-0.027740325778722763,0.006152421701699495,-0.014389144256711006,-0.16408516466617584,0.017373697832226753,0.02380344085395336,-0.13996855914592743,0.005269554443657398,-0.11956385523080826,0.07939337193965912,-0.047349728643894196,-0.18954555690288544,0.0029313548002392054,0.07326673716306686,-0.15930597484111786,0.21736131608486176,0.06138170510530472,-0.1577228307723999,0.07999008893966675,0.16403229534626007,0.08518293499946594,-0.10519152134656906,-0.12063389271497726,0.00694339070469141,0.12254743278026581,-0.0521383136510849,0.17380991578102112,-0.10970177501440048,-0.10473505407571793,0.16929952800273895,0.08017510920763016,-0.0773995965719223,-0.08694729954004288,-0.17540645599365234,-0.1596391797065735,-0.10630262643098831,0.1636522263288498,0.1380612999200821,-0.021140413358807564,0.16311843693256378,0.03753741458058357,-0.07392765581607819,-0.02717929519712925,0.09170859307050705,0.11528521776199341,0.05732954666018486,0.012014299631118774,-0.1477983444929123,-0.04246535897254944,0.15927046537399292,0.07893647998571396,0.03584040328860283,0.0704331025481224,-0.22574923932552338,-0.08371654152870178,0.1453055590391159,-0.16276228427886963,0.053378090262413025,-0.01576407440006733,0.2521861791610718,0.01851056143641472,-0.058301616460084915,0.10770859569311142,0.009026745334267616,0.022097192704677582,0.29499226808547974,-0.011550325900316238,-0.09230772405862808,0.06809788942337036,-0.07269525527954102,0.2911786437034607,0.06314121931791306,0.06286730617284775,0.02583957463502884,-0.14597560465335846,-0.035880543291568756,0.06472164392471313,0.11982301622629166,-0.10243551433086395,-0.029604269191622734,0.05043516308069229,-0.1478014886379242,-0.19564157724380493,0.1006101742386818,0.04148077592253685,-0.18541169166564941,-0.10503271967172623,-0.015009491704404354,-0.12864212691783905,-0.11445794254541397,0.10276923328638077,-0.019593607634305954,0.028202863410115242,-0.18606576323509216,0.1022157073020935,0.312378466129303,-0.034659117460250854,0.08326461166143417,-0.03955526277422905,0.005529576446861029,-0.12182507663965225,0.1424780786037445,0.057304129004478455,0.026753615587949753,0.1607895791530609,0.01730857416987419,0.13670714199543,-0.2011650800704956,0.06290014833211899,-0.08764159679412842,0.03966166451573372,-0.1978999823331833,-0.1228494718670845,-0.1375272572040558,0.06676582247018814,0.04681482911109924,0.11622500419616699,0.1472553312778473,-0.05397467315196991,0.09530659765005112,0.048028357326984406,0.01354215107858181,-0.13935185968875885,-0.21290075778961182,0.0030352615285664797,-0.07331372797489166,-0.16536492109298706,0.007869422435760498,-0.13000284135341644,0.08595111966133118,0.07101383060216904,-0.10707662254571915,0.22308222949504852,0.004430631175637245,-0.16111494600772858,-0.07484027743339539,0.1153506338596344,-0.16632936894893646,0.19610455632209778,0.04889235645532608,0.039885975420475006,-0.21053479611873627,0.08460500836372375,0.011700461618602276,-0.0008051312761381269,0.07367279380559921,-0.0914282575249672,-0.12370382994413376,0.054393067955970764,-0.10399709641933441,-0.18553172051906586,0.017024703323841095,0.23302625119686127,-0.08302132785320282,0.044374313205480576,0.08072086423635483,0.06299467384815216,0.057457633316516876,0.1609632968902588,-0.07598357647657394,0.018391864374279976,0.006972493603825569,0.14035239815711975,0.07562082260847092,0.008387426845729351,-0.12480102479457855,0.02105710655450821,0.15508688986301422,0.15138638019561768,0.083165243268013,-0.1713767945766449,0.10313224792480469,0.015342344529926777,0.13630038499832153,0.0005222761537879705,0.06791477650403976,-0.02955843135714531,0.03185838833451271,0.03800954297184944,0.10191574692726135,0.12466733157634735,0.06434138119220734,0.10972289741039276,-0.07416635751724243,0.07623197138309479,0.057587213814258575,-0.04224842041730881,-0.030232295393943787,0.005236099474132061,-0.07967697083950043,0.006091143935918808,0.02631690539419651,0.031930793076753616,-0.09306709468364716,0.1899724304676056,0.08759353309869766,0.25275927782058716,-0.06929336488246918,0.034415509551763535,-0.00748838996514678,-0.02916730009019375,0.039173197001218796,0.02548065595328808,-0.015309729613363743,0.01752588525414467,-0.1105533018708229,0.07498528808355331,0.4017638862133026,-0.1734297126531601,0.06929690390825272,-0.13403621315956116,0.042417146265506744,0.0342128686606884,-0.11413383483886719,-0.06995829939842224,0.08023502677679062,-0.16428758203983307,-0.10774019360542297,-0.01466493308544159,0.07449876517057419,0.10414515435695648,0.02182598039507866,-0.003954919520765543,-0.048170920461416245,0.1657676100730896,-0.06519750505685806,-0.1543964147567749,-0.12051421403884888,0.1218452900648117,-0.05974924564361572,-0.055990077555179596,0.12118568271398544,-0.08533542603254318,0.10825933516025543,-0.03239428997039795,0.07563141733407974,0.014570227824151516,-0.17947708070278168,-0.07450821250677109,0.15459826588630676,-0.16037777066230774,0.08297131955623627,0.008621007204055786,-0.2225533276796341,-0.12112584710121155,-0.10282603651285172,0.17527984082698822,-0.13038112223148346,-0.06106404960155487,-0.15178780257701874,0.02747831493616104,-0.04368188604712486,-0.06803599745035172,0.1332143396139145,-0.016733665019273758,-0.03974202275276184,0.155531644821167,-0.12624914944171906,-0.00123864714987576,-0.017971884459257126,0.01986106112599373,-0.031808845698833466,0.2962031960487366,0.14430227875709534,-0.1841251105070114,0.12036822736263275,-0.15311487019062042,-0.40539970993995667,-0.23953057825565338,-0.09516800940036774,-0.01284169964492321,0.2467382848262787,0.02040451392531395,-0.023546269163489342,0.23949944972991943,-0.028395412489771843,0.01856774464249611,-0.19085416197776794,0.08487994223833084,0.09322589635848999,0.07307901233434677,-0.10033227503299713,0.023709753528237343,-0.0001550368033349514,-0.1301141232252121,-0.16962671279907227,-0.19523566961288452,0.09767811745405197,-0.005417933221906424,-0.1535506397485733,0.04963560774922371,-0.18843096494674683,0.04473644495010376,-0.04607235640287399,-0.050290342420339584,-0.01701168902218342,-0.08237263560295105,-0.19300968945026398,-0.09213050454854965,-0.024865342304110527,-0.2111821472644806,0.060230646282434464,-0.008158979006111622,0.054759521037340164,-0.01817452162504196,-0.16564202308654785,-0.03301805630326271,0.3121340870857239,0.07769662886857986,-0.02786603383719921,-0.05082254111766815,0.1081639900803566,-0.05482399836182594,0.15248918533325195,0.09722574055194855,-0.13295745849609375,-0.0745166540145874,0.050241630524396896,0.12027060985565186,0.02702263928949833,-0.04749811813235283,0.08203285187482834,0.03647764027118683,-0.002019870327785611,0.17453134059906006,0.4522729814052582,0.11623726785182953,0.31010445952415466,-0.7278993129730225,-0.23482714593410492,0.12839509546756744,0.0197918638586998,-0.09521172940731049,0.28280144929885864,0.2707418203353882,-0.6060929894447327,0.15324433147907257,-0.15187625586986542,-0.2965930104255676,0.06188996136188507,-0.31381165981292725,-0.14300066232681274,-0.22406572103500366,0.16757668554782867,-0.16361652314662933,0.018325071781873703,0.11856552213430405,-0.10616729408502579,-0.11890280991792679,-0.27698370814323425,0.050923217087984085,-0.034917596727609634,-0.1167985126376152,-0.009176582098007202,0.03382118046283722,-0.017755474895238876,-0.039781950414180756,-0.10574138909578323,-0.1528872400522232,0.20916637778282166,-0.11589723825454712,-0.007040966302156448,0.008171907626092434,0.21866387128829956,-0.17120060324668884,-0.34219759702682495,-0.0013270386261865497,-0.14778469502925873,0.0869712233543396,0.012244491837918758,0.056420307606458664,0.2616552710533142,0.13670822978019714,-0.11729229241609573,0.17850132286548615,0.03890563175082207,-0.13928285241127014,-0.15264765918254852,-0.22893868386745453,-0.06640560179948807,0.03546185418963432,0.12313293665647507,-0.16092345118522644,0.021803557872772217,0.13939021527767181,0.1322896033525467,0.1496061086654663,-0.20372483134269714,0.25361868739128113,-0.20777514576911926,-0.014195307157933712,-0.1330432891845703,0.14118431508541107,0.24608765542507172,0.23097369074821472,0.08366958796977997,0.05813169851899147,-0.0942719355225563,-0.0955955758690834,0.07982877641916275,-0.11523089557886124,0.15925979614257812,0.10248701274394989,-0.06020864471793175,-0.1934053748846054,0.3236103653907776,0.09271487593650818,-0.047813642770051956,0.06322023272514343,0.04728107899427414,-0.05640948936343193,0.11568222939968109,-0.1839989870786667,0.02048441953957081,0.18238796293735504,0.053498800843954086,0.003101225709542632,-0.23981104791164398,-0.10183335095643997,-0.11768245697021484,-0.16389119625091553,-0.10412168502807617,0.198854461312294,0.1419026404619217,0.26953327655792236,-0.16137243807315826,0.1932165026664734,0.0751371756196022,0.040428727865219116,0.1388465017080307,0.1563231647014618,-0.2128061056137085,0.1816461831331253,0.04927685111761093,0.02947378344833851,-0.1858060508966446,0.07497462630271912,-0.1280648559331894,-0.04572220519185066,-0.16916917264461517,0.07094734907150269,-0.07265999913215637,-0.09360922873020172,0.21917712688446045,0.16486984491348267,-0.17294152081012726,-0.05071677640080452,-0.04710441455245018,-0.11563537269830704,0.07561831921339035,-0.08613739907741547,-0.14436256885528564,-0.20211994647979736,-0.1720770001411438,0.17939890921115875,-0.13405171036720276,0.14399132132530212,0.1702197790145874,-0.1530488282442093,-0.0815197080373764,0.15092958509922028,0.001933589344844222,0.08947644382715225,-0.0035085491836071014,0.0401688888669014,-0.16425931453704834,-0.030661165714263916,0.18591037392616272,-0.0880603939294815,-0.16854101419448853,0.05924564599990845,-0.0023106408771127462,0.0017227946082130075,0.19886384904384613,0.0939452201128006,-0.3333231806755066,-0.15903164446353912,-0.04830630123615265,0.05996568873524666,0.013746598735451698,-0.1305561512708664,0.1472630649805069,0.08205851167440414,-0.05011332780122757,0.10273519903421402,0.16497445106506348,0.21182602643966675,0.015394298359751701,0.031201038509607315,-0.21069884300231934,-0.06443057954311371,-0.10882772505283356,0.12625110149383545,-0.25984862446784973,-0.1270643174648285,0.1168750524520874,0.06304013729095459,0.3345857858657837,-0.07461138069629669,0.09644899517297745,0.074224092066288,-0.08351731300354004,0.17647546529769897,-0.18975739181041718,-0.054058145731687546,-0.21637991070747375,0.011575338430702686,0.04099464416503906,-0.16885215044021606,0.34627100825309753,-0.03691384568810463,-0.13867025077342987,0.17705152928829193,-0.09423625469207764,-0.05257643386721611,0.22743971645832062,-0.022785861045122147,0.040160395205020905,0.17706020176410675,-0.20565621554851532,-0.05198146775364876,0.015890033915638924,-0.18657881021499634,-0.05967189744114876,-0.03795385733246803,0.0035962515976279974,0.1281479448080063,0.1802191138267517,0.2543218731880188,-0.1694849133491516,0.16588202118873596,-0.1604384183883667,-0.06214035674929619,0.065699502825737,0.22636060416698456,0.26343509554862976,0.29454919695854187,-0.12120259553194046,0.05550571531057358,-0.22022998332977295,0.15887442231178284,0.240806445479393,0.06676048785448074,-0.28339654207229614,-0.017421232536435127,-0.09659290313720703,0.13093902170658112,-0.1265592724084854,-0.014471825212240219,-0.021513504907488823,0.15986932814121246,0.1063363254070282,0.3669493794441223,0.12776730954647064,0.1512891799211502,-0.24485595524311066,0.15100671350955963,0.09119494259357452,0.2920469343662262,0.023978885263204575,0.10299830883741379,-0.19054178893566132,-0.2663736641407013,0.06811334192752838,0.18121105432510376,0.19108004868030548,-0.03834523633122444,0.10063587129116058,0.1517113745212555,-0.14062653481960297,-0.15843817591667175,0.1116129606962204,0.0702221468091011,-0.1575574278831482,0.016962820664048195,-0.20694372057914734,-0.07884260267019272,0.11185922473669052,-0.043803226202726364,0.06183197721838951,0.09915903955698013,-0.09044209867715836,0.2241286039352417,-0.163270965218544,-0.12247317284345627,-0.2502211332321167,-0.3129473030567169,0.1326204538345337,-0.029542837291955948,-0.2398822158575058,0.018929721787571907,-0.1763853281736374,0.056279655545949936,0.1107485294342041,0.02247186191380024,0.11065234243869781,0.12427385151386261,-0.1780252605676651,0.04384635388851166,0.023642323911190033,-0.03562258183956146,0.04416355863213539,-0.0026433365419507027,0.06757227331399918,0.009160240180790424,-0.20149749517440796,0.15779481828212738,0.10346439480781555,0.017633818089962006,-0.05562982335686684,-0.20527130365371704,-0.0844852402806282,-0.0070623974315822124,0.06297139823436737,-0.02313084527850151,0.16568832099437714,0.12034597247838974,-0.13739922642707825,-0.23722657561302185,-0.011085160076618195,0.03695295751094818,-0.03125525265932083,-0.0501924529671669,0.028622211888432503,0.07705727964639664,0.10205238312482834,-0.021846119314432144,-0.21790748834609985,0.08513075113296509,0.0028995871543884277,0.08569197356700897,0.11022099107503891,-0.2191891223192215,-0.08365807682275772,0.0944078266620636,0.29581812024116516,-0.012635488994419575,-0.09380577504634857,0.03139297291636467,0.3214190602302551,0.1717376559972763,-0.09570130705833435,-0.09684672206640244,0.12781725823879242,0.06244596093893051,0.008979246951639652,-0.02582092024385929,-0.08772259950637817,-0.05763915181159973,-0.07084476202726364,0.04900401830673218,0.22886641323566437,-0.20778925716876984,-0.11384477466344833,0.10336458683013916,0.14716503024101257,-0.27312442660331726,-0.04019315913319588,0.0008212982211261988,-0.1503804326057434,0.026287995278835297,-0.003063454292714596,0.17974387109279633,0.04127224534749985,0.07203111797571182,-0.28133222460746765,0.15948133170604706,-0.17826367914676666,-0.09367091953754425,0.023745359852910042,-0.13479503989219666,0.13336758315563202,0.06483495235443115,0.22119899094104767,-0.024741917848587036,0.058618880808353424,0.05366702377796173,-0.10151366144418716,-0.10674978792667389,-0.07417016476392746,-0.05744941532611847,0.0902649387717247,-0.0894211158156395,0.01840696856379509,-0.10749473422765732,-0.12815526127815247,0.12128574401140213,0.21117527782917023,0.029438886791467667,0.024031640961766243,-0.04852205142378807,-0.002878444502130151,-0.1627655178308487,0.04053257033228874,-0.09802164137363434,-0.10781536251306534,-0.07431148737668991,-0.11380141973495483,-0.1905103623867035,0.09215046465396881,-0.09582257270812988,-0.06873831897974014,0.1639683097600937,0.14892488718032837,-0.2023714929819107,0.027836758643388748,-0.059395965188741684,-0.20711705088615417,0.10029800981283188,-0.204900324344635,-0.0850270688533783,0.14437775313854218,0.022238414734601974,0.08517750352621078,-0.02821856364607811,-0.02544790878891945,-0.07133976370096207,0.09710868448019028,-0.18522067368030548,-0.0015151568222790956,0.05327523499727249,-0.01988944038748741,-0.14143359661102295,-0.24651817977428436,0.07299409061670303,0.212164506316185,0.05513051152229309,-0.15109427273273468,-0.07389838248491287,-0.13208697736263275,0.07656852900981903,0.1787264198064804,-0.02942107431590557,-0.2690754532814026,-0.3097701370716095,0.19622516632080078,0.08165566623210907,0.008761702105402946,-0.08324360102415085,0.19088949263095856,0.08737821131944656,0.09657680243253708,-0.08975248783826828,0.014572647400200367,0.07705216109752655,-0.10602892935276031,0.026024049147963524,0.16622352600097656,-0.08829601109027863,0.07145773619413376,0.20516885817050934,-0.10040675103664398,0.07249467819929123,-0.03900201991200447,-0.02229284681379795,-0.19783559441566467,-0.07923239469528198,-0.04281981289386749,-0.17996634542942047,0.11037858575582504,-0.029689764603972435,0.14221332967281342,-0.28529927134513855,0.06390273571014404,0.048583488911390305,-0.047932788729667664,0.11360102891921997,-0.1776750683784485,0.14953085780143738,0.020045461133122444,0.05819830670952797,-0.010180500335991383,-0.05981385335326195,0.10941311717033386,0.1709020882844925,0.10914170742034912,-0.09376927465200424,0.16242659091949463,0.06721331924200058,0.09855013340711594,-0.09504436701536179,0.0861661434173584,-0.11645122617483139,0.0951569452881813,-0.1488952785730362,0.11335728317499161,-0.033011455088853836,0.12476999312639236,0.17182113230228424,0.030742304399609566,0.011624129489064217,-0.12400165945291519,0.14182740449905396,0.0673382431268692,0.07090656459331512,-0.01792340725660324,0.004237968474626541,0.06753243505954742,-0.1254449337720871,0.13480308651924133,0.0975431576371193,0.013838987797498703,0.10341233015060425,0.03929000347852707,-0.0034626612905412912,0.023986751213669777,0.20389986038208008,0.12211005389690399,0.07476083934307098,-0.0358240082859993,0.010541433468461037,0.13073542714118958,0.0279537383466959,0.07856318354606628,-0.14845667779445648,0.1871667355298996,0.06453723460435867,0.0964432954788208,0.04502694681286812,0.06956574320793152,0.06301756203174591,-0.10457006841897964,-0.16539007425308228,0.16737915575504303,-0.07762662321329117,-0.0397799089550972,0.044757209718227386,0.08061087876558304,0.04980873316526413,-0.0817117914557457,0.09357301890850067,0.2948823869228363,0.09386592358350754,0.02604706957936287,-0.008580489084124565,-0.1402277946472168,-0.0038767652586102486,0.007449317257851362,0.09473039954900742,-0.07181061804294586,-0.14478661119937897,-0.23407281935214996,0.08210372179746628,0.020819000899791718,-0.09851138293743134,0.023907558992505074,0.040140870958566666,0.018529532477259636,-0.2405977100133896,0.04536109045147896,0.02990049123764038,-0.014044690877199173,0.09782781451940536,-0.1029435396194458,0.05106094479560852,-0.20089741051197052,-0.04573015123605728,0.05908391252160072,0.15234924852848053,0.013160929083824158,0.017498435452580452,-0.07256214320659637,-0.08351197093725204,0.02548818290233612,-0.10095828026533127,-0.08704954385757446,-0.12052063643932343,-0.06773550063371658,-0.0915868803858757,-0.16001880168914795,-0.008788207545876503,0.1618576943874359,-0.02281823568046093,-0.011957835406064987,0.01141367293894291,-0.03250735625624657,-0.05754942074418068,-0.0851157009601593,-0.003920449409633875,-0.1299361288547516,-0.10433433204889297,0.0019033568678423762,-0.1311725229024887,0.01185798179358244,0.028474261984229088,0.03096133843064308,-0.27823346853256226,0.20763768255710602,0.04802323132753372,0.006953116040676832,-0.0569145493209362,-0.17843861877918243,-0.2303495705127716,-0.013078348711133003,-0.08543582260608673,0.035485267639160156,0.027984898537397385,0.04102836176753044,-0.07206116616725922,0.19961588084697723,0.037466809153556824,-0.13460876047611237,-0.20210368931293488,-0.08638618141412735,-0.030003495514392853,0.020564017817378044,-0.25602757930755615,-0.1940157115459442,-0.10782016068696976,-0.06832341104745865,-0.09878289699554443,-0.14014548063278198,0.14544712007045746,0.15446685254573822,0.0600256621837616,-0.026420950889587402,0.11586308479309082,0.23401470482349396,0.062453702092170715,0.08617022633552551,0.10189598798751831,0.17808160185813904,-0.061905987560749054,-0.08614552021026611,-0.08187085390090942,-0.16705536842346191,0.007938424125313759,0.03768507018685341,0.05304670333862305,0.08502998948097229,-0.10313531756401062,0.06219397112727165,0.07653471827507019,0.13877543807029724,0.008610373362898827,-0.03297773748636246,0.13921749591827393,-0.17681968212127686,0.18663589656352997,0.09696462750434875,-0.01024823822081089,0.29423990845680237,0.056587181985378265,-0.02416987530887127,0.14098739624023438,-0.10774990171194077,0.02614651806652546,-0.013671583496034145,-0.04163982346653938,0.054278288036584854,0.10062940418720245,0.03289303183555603,0.0936344712972641,-0.04049481824040413,0.2593758702278137,-0.03117312863469124,-0.0610918328166008,0.0834195539355278,0.06912117451429367,0.06970147788524628,-0.05126291513442993,-0.014850522391498089,-0.205214262008667,0.02553110010921955,-0.020308787003159523,-0.18290595710277557,-0.10209313780069351,-0.00888504646718502,0.11734633892774582,-0.0907025933265686,0.16274310648441315,-0.1326262205839157,-0.08924219757318497,-0.16777139902114868,0.044201381504535675,0.10923194885253906,-0.004300076048821211,0.015297507867217064,-0.06741389632225037,-0.1546633541584015,0.021181920543313026,0.03146105632185936,-0.07383323460817337,-0.16457949578762054,0.11432910710573196,0.06218736618757248,-0.0391412191092968,0.000018220456695416942,-0.0467006154358387,0.004413366783410311,-0.09899253398180008,-0.09275098145008087,-0.32193660736083984,0.08128738403320312,-0.0222316887229681,-0.08632180094718933,0.09495841711759567,0.10233050584793091,0.013648886233568192,0.1029987558722496,0.2168443202972412,0.10677587985992432,0.09518963098526001,-0.03993075713515282,-0.043698377907276154,-0.01725681684911251,-0.12062090635299683,0.07257382571697235,-0.11857490986585617,0.13271506130695343,-0.11213534325361252,0.11208078265190125,-0.021247990429401398,-0.2696007490158081,0.03131048381328583,0.13312466442584991,-0.11796540766954422,-0.024051470682024956,-0.006440229248255491,-0.3416180908679962,-0.06781032681465149,-0.08503344655036926,0.012342003174126148,0.06353650242090225,-0.024616586044430733,-0.14466246962547302,0.055393777787685394,-0.10477647930383682,0.01377036515623331,0.08123070746660233,-0.023795368149876595,0.2583586871623993,-0.12213719636201859,0.013481820933520794,0.06732147186994553,-0.06529540568590164,-0.23853883147239685,-0.0219840370118618,0.002746958052739501,-0.036097873002290726,-0.12586863338947296,-0.03503423556685448,0.007855215109884739,0.17405100166797638,0.14614653587341309,-0.00986330397427082,0.03364614397287369,-0.08330495655536652,-0.10016730427742004,0.08213457465171814,-0.06160854548215866,0.12735316157341003,0.18467026948928833,-0.07227746397256851,0.04863381013274193,-0.13295678794384003,-0.015498294495046139,0.032792411744594574,-0.01937895454466343,-0.02100035734474659,-0.030088158324360847,0.17858730256557465,-0.056094370782375336,-0.05073146894574165,0.030786387622356415,-0.013263395987451077,0.05386599153280258,0.12529611587524414,-0.06076551601290703,0.005938745569437742,0.06058361381292343,-0.006934099830687046,-0.09102064371109009,-0.007246243301779032,-0.04540453851222992,0.15372507274150848,0.18118207156658173,-0.17009831964969635,0.1979384422302246,0.00764439394697547,-0.29350218176841736,0.04787130281329155,0.11044538021087646,-0.05530631169676781,-0.03340676426887512,0.12316888570785522,0.019367501139640808,-0.06867504864931107,0.29837465286254883,-0.12375499308109283,0.036692578345537186,0.2242009937763214,-0.05618901550769806,-0.281534343957901,-0.23516885936260223,0.034125663340091705,0.15583840012550354,0.38666680455207825,0.1559472680091858,0.08011483401060104,0.20636531710624695,-0.031721629202365875,0.07512708008289337,0.023431502282619476,-0.05120326578617096,-0.03791293501853943,-0.07746047526597977,0.0972692146897316,-0.1871723234653473,0.21059349179267883,0.020879672840237617,0.16043153405189514,0.025962883606553078,-0.07821028679609299,-0.16227521002292633,-0.040735963732004166,-0.11308572441339493,0.02551327645778656,-0.09776381403207779,-0.14117135107517242,-0.10007927566766739,0.09725907444953918,0.010550519451498985,0.2655524015426636,0.13254301249980927,-0.0016299337148666382,0.1483738124370575,-0.049224596470594406,-0.17677122354507446,-0.020855005830526352,0.29609087109565735,0.018612636253237724,-0.05737729370594025,0.1432279646396637,-0.0575757697224617,0.03452835604548454,0.30581095814704895,-0.10269201546907425,-0.010957039892673492,0.08792458474636078,-0.08232469111680984,0.02113083004951477,-0.22800591588020325,-0.18261581659317017,0.17667922377586365,-0.006504890043288469,-0.16684068739414215,0.0576145313680172,0.11570978909730911,-0.14575983583927155,-0.18912480771541595,-0.10787578672170639,0.21977730095386505,-0.08105600625276566,0.0139949144795537,0.1961277276277542,-0.07903018593788147,0.04356607049703598,