{"version": "0.5.2", "metadata": {"date": {"year": 2024, "month": 4, "day": 8, "hour": 13, "minute": 11, "second": 49}, "loudness": -25.443557739257812, "gain": 0.8811424178829761}, "architecture": "WaveNet", "config": {"layers": [{"input_size": 1, "condition_size": 1, "head_size": 8, "channels": 16, "kernel_size": 3, "dilations": [1, 2, 4, 8, 16, 32, 64, 128, 256, 512], "activation": "Tanh", "gated": false, "head_bias": false}, {"input_size": 16, "condition_size": 1, "head_size": 1, "channels": 8, "kernel_size": 3, "dilations": [1, 2, 4, 8, 16, 32, 64, 128, 256, 512], "activation": "Tanh", "gated": false, "head_bias": true}], "head": null, "head_scale": 0.02}, "weights": [-0.25542184710502625, 0.7082809805870056, -0.9978933334350586, -0.8377621173858643, -0.3909730017185211, 0.3975467383861542, 0.012283103540539742, 0.9413520693778992, -0.07756736129522324, 0.3702351152896881, -0.4494750201702118, -0.27075785398483276, -0.9904630780220032, -0.6301694512367249, -0.5864601731300354, -0.019106939435005188, 0.17927414178848267, 0.024571482092142105, -0.09694037586450577, -0.18549048900604248, 0.1784002184867859, 0.10978509485721588, 0.08528553694486618, -0.02141074649989605, -0.024663293734192848, 0.1340099573135376, 0.005274861119687557, -0.12835420668125153, 0.04103945568203926, -0.14744390547275543, -0.03590250015258789, 3.5900062357541174e-05, 0.027541233226656914, -0.07721546292304993, -0.08506475389003754, -0.149749293923378, -0.04794410243630409, 0.006279557477682829, 0.19323031604290009, 0.06376305967569351, 0.15823474526405334, -0.12499218434095383, 0.090488001704216, -0.2629014551639557, 0.0048057143576443195, -0.09782484173774719, 0.21266689896583557, -0.03498603776097298, -0.04801309481263161, 0.13574707508087158, -0.014085622504353523, 0.17013025283813477, 0.17388489842414856, -0.10764514654874802, 0.1024751216173172, 0.03383659943938255, -0.09612689912319183, -0.10186490416526794, 0.02441810443997383, -0.19478364288806915, 0.07906617224216461, 0.0521552711725235, -0.1552095115184784, -0.020221345126628876, 0.04522906616330147, -0.07720887660980225, -0.005148913711309433, -0.0009528813534416258, 0.08165598660707474, 0.04986065253615379, -0.0711953341960907, -0.04846906289458275, 0.15551376342773438, 0.157343789935112, 0.13388504087924957, 0.22000500559806824, 0.05945392698049545, -0.1166793704032898, 0.09730896353721619, -0.1203303337097168, -0.13835585117340088, 0.04516865685582161, -0.002638051984831691, -0.15238304436206818, 0.020792368799448013, -0.06355832517147064, -0.034584350883960724, -0.16040346026420593, 0.08177432417869568, -0.09819585829973221, 0.10109368711709976, 0.036173589527606964, 0.09895622730255127, -0.028737766668200493, -0.10397029668092728, -0.08984978497028351, 0.15628449618816376, 0.0425453782081604, -0.11388883739709854, -0.013345187529921532, 0.17629054188728333, 0.11043629050254822, 0.029607629403471947, 0.0024812580086290836, -0.12495116144418716, 0.08690802752971649, -0.0749908909201622, -0.10951036959886551, 0.0789446160197258, 0.006089775823056698, -0.17456918954849243, 0.04038500040769577, 0.08142857998609543, 0.019655928015708923, 0.04909655079245567, -0.3364783525466919, 0.09700515121221542, 0.009181060828268528, 0.226924866437912, -0.1007217988371849, 0.04164887219667435, 0.21962490677833557, -0.20133207738399506, 0.06250186264514923, 0.08304782956838608, -0.20401442050933838, -0.03097006119787693, -0.2898731827735901, 0.0754907876253128, -0.1218983381986618, -0.06525563448667526, -0.041745711117982864, -0.0023252705577760935, -0.21783645451068878, 0.237439826130867, -0.009245431050658226, 0.24245977401733398, -0.07750606536865234, 0.09027896821498871, -0.1297307014465332, 0.2541434168815613, 0.0799739807844162, 0.35376864671707153, -0.13641418516635895, -0.12495771050453186, 0.16357208788394928, -0.015662098303437233, 0.013683677650988102, 0.1359259933233261, -0.24307572841644287, -0.14237171411514282, 0.08749144524335861, -0.15816780924797058, 0.07649688422679901, 0.29491764307022095, -0.26781436800956726, 0.09083180129528046, 0.028054894879460335, -0.0256384015083313, -0.03674071282148361, -0.00644562765955925, 0.05471673235297203, -0.27080002427101135, -0.18718105554580688, -0.17495447397232056, 0.13887161016464233, 0.007075774483382702, 0.20780985057353973, -0.2524775266647339, 0.05765177682042122, 0.27920788526535034, -0.18928474187850952, 0.1820501983165741, 0.1916896104812622, -0.27191558480262756, 0.035474613308906555, -0.16309453547000885, 0.07763971388339996, 0.021071534603834152, -0.07253747433423996, -0.045061588287353516, -0.09737494587898254, -0.05052941292524338, 0.17282021045684814, 0.0759330466389656, 0.12389294058084488, -0.23642371594905853, -0.08516152203083038, -0.25426408648490906, 0.22949713468551636, 0.17298410832881927, 0.23891323804855347, -0.2502601742744446, 0.045206598937511444, 0.03421386331319809, -0.2314767837524414, -0.01597907952964306, 0.20250104367733002, -0.21563123166561127, 0.06114716827869415, 0.15551578998565674, -0.0409308485686779, -0.0456562265753746, 0.04942900314927101, -0.2224256843328476, 0.14338232576847076, -0.05012866109609604, 0.03832174837589264, 0.05801810324192047, 0.10149094462394714, -0.05684072524309158, -0.05330151319503784, -0.13905736804008484, 0.029434869065880775, 0.03278724476695061, 0.17819133400917053, -0.16217511892318726, -0.0471758097410202, 0.2729044556617737, -0.17481814324855804, 0.0034575650934129953, 0.28620630502700806, -0.016814153641462326, -0.017280371859669685, -0.27565285563468933, 0.13837982714176178, -0.08950337767601013, 0.022247130051255226, -0.08545521646738052, -0.04907694831490517, -0.15667709708213806, 0.17891427874565125, -0.003240947611629963, 0.20683911442756653, -0.039951879531145096, -0.10553117841482162, -0.07502421736717224, -0.02333504520356655, -0.04090767726302147, 0.18960179388523102, -0.025480255484580994, 0.11147412657737732, 0.09192477911710739, -0.0784178376197815, 0.10364572703838348, 0.017496787011623383, 0.04697349667549133, -0.09316487610340118, 0.15521296858787537, -0.08643552660942078, -0.05390780419111252, 0.17215856909751892, 0.053413741290569305, -0.018008537590503693, -0.0638575404882431, -0.08320628106594086, -0.16226361691951752, 0.015051033347845078, 0.007029474247246981, -0.046109892427921295, -0.01175546832382679, 0.007377510890364647, 0.016481688246130943, 0.03908214718103409, 0.11440383642911911, -0.10290452092885971, -0.11198306083679199, 0.11166713386774063, 0.07669035345315933, -0.0241604745388031, 0.010340303182601929, -0.02900839038193226, -0.07361076027154922, -0.05462997406721115, 0.04211271181702614, -0.18543651700019836, 0.17036078870296478, -0.03684455528855324, 0.05718671903014183, -0.02816908247768879, 0.0002012594777625054, -0.11178267002105713, 0.01600494608283043, 0.16169089078903198, 0.08349328488111496, 0.03460012003779411, -0.10031931102275848, -0.02132660150527954, 0.04974079877138138, -0.02923670969903469, -0.14191071689128876, 0.14335720241069794, -0.011450543068349361, -0.07716383039951324, 0.035070400685071945, -0.1427801251411438, 0.02792210318148136, -0.03629655763506889, 0.0067933425307273865, -0.11583219468593597, 0.006385480985045433, -0.0688500702381134, -0.10063084214925766, 0.0728122740983963, -0.0325327143073082, -0.15322044491767883, 0.15686576068401337, 0.13209904730319977, 0.12362956255674362, -0.17621181905269623, -0.20026347041130066, -0.09198570996522903, 0.19376863539218903, -0.12821751832962036, -0.013692473992705345, 0.24711114168167114, -0.13591749966144562, -0.05774914100766182, 0.21927645802497864, 0.07290708273649216, 0.0675092563033104, -0.14880676567554474, -0.09013647586107254, -0.02660583145916462, 0.1662452667951584, 0.20529337227344513, 0.15365467965602875, -0.13383741676807404, 0.05521584302186966, -0.0657198578119278, 0.10455750674009323, -0.062069106847047806, 0.19856271147727966, -0.07962823659181595, -0.1676124781370163, -0.001122419722378254, 0.27641457319259644, 0.09829160571098328, 0.07652323693037033, 0.2840770483016968, -0.10856398195028305, -0.1205923929810524, 0.26827695965766907, 0.00878720823675394, -0.15391044318675995, 0.2833462655544281, -0.002232344588264823, 0.013464096933603287, 0.06799273937940598, -0.04974023625254631, -0.07071591168642044, 0.1499803215265274, 0.2050555944442749, -0.19053304195404053, -0.054962676018476486, -0.23036901652812958, 0.11615962535142899, 0.15279877185821533, 0.19091665744781494, -0.12883970141410828, -0.17320050299167633, 0.14918960630893707, -0.27684372663497925, 0.036214761435985565, 0.3602483868598938, -0.024529796093702316, 0.037809230387210846, -0.4267526865005493, 0.06963948905467987, 0.05906100198626518, 0.012761609628796577, -0.07182206958532333, -0.10282974690198898, -0.3588787317276001, 0.020118562504649162, 0.00018735516641754657, 0.3901309669017792, -0.07289577275514603, 0.008252794854342937, -0.17111776769161224, 0.29367104172706604, 0.0512828566133976, 0.3501231372356415, -0.037043359130620956, -0.04072801023721695, 0.4217865765094757, -0.09489012509584427, 0.005095975939184427, 0.23741868138313293, -0.08849087357521057, -0.06311646103858948, 0.25126415491104126, -0.2398359328508377, -0.16247937083244324, 0.1740962266921997, -0.06646772474050522, 0.017503801733255386, 0.09604310989379883, -0.11693954467773438, 0.03389304503798485, 0.10653857886791229, -0.011984034441411495, -0.07834549993276596, 0.11745946854352951, 0.11998912692070007, -0.08479741215705872, 0.14617903530597687, 0.04785068333148956, -0.08944835513830185, 0.09304840862751007, -0.14240260422229767, -0.05046742781996727, 0.14506694674491882, -0.04588384926319122, -0.1187710389494896, -0.06955761462450027, 0.01448721531778574, -0.01014502253383398, -0.0009494141559116542, 0.05043012276291847, 0.01027002278715372, -0.10061177611351013, 0.07115046679973602, 0.09774700552225113, 0.11274299770593643, -0.13807590305805206, 0.013316727243363857, -0.12669050693511963, -0.012120777741074562, 0.06226542592048645, -0.08887790888547897, -0.0028609957080334425, 0.10458371788263321, 0.0463641919195652, -0.13982711732387543, -0.054863933473825455, 0.040759194642305374, -0.1737954467535019, 0.04241307079792023, -0.1195947676897049, -0.2000371217727661, -0.16499154269695282, -0.011794387362897396, 0.04052885249257088, -0.15748251974582672, 0.12680383026599884, -0.05016495659947395, 0.03538953885436058, -0.1275579184293747, -0.01793312095105648, 0.3256593644618988, 0.3589693605899811, 0.12807224690914154, -0.07143521308898926, -0.38396844267845154, 0.13590632379055023, 0.14365361630916595, -0.21691009402275085, -0.10468858480453491, 0.09589595347642899, -0.41741514205932617, -0.04645852372050285, 0.16955819725990295, 0.16136550903320312, 0.02602788433432579, -0.07030162960290909, 0.1486205905675888, -0.06867717951536179, -0.07654791325330734, 0.24009107053279877, 0.050734154880046844, 0.0014242770848795772, -0.1503192037343979, 0.026468969881534576, 0.22357438504695892, 0.13737790286540985, -0.1396927535533905, -0.08237994462251663, -0.35788312554359436, 0.09402813762426376, 0.05262886360287666, -0.3339533805847168, -0.09981255233287811, 0.22283662855625153, -0.2976963222026825, 0.11961112171411514, 0.2270490825176239, -0.19956257939338684, 0.014054054394364357, 0.09510134160518646, -0.3170432448387146, 0.03417254611849785, 0.21493566036224365, -0.15852659940719604, 0.2560318112373352, 0.17441287636756897, -0.2137061506509781, -0.19012770056724548, 0.2622082233428955, 0.2787260413169861, 0.07203046977519989, -0.04247746989130974, -0.08631031960248947, -0.1225975900888443, 0.25257429480552673, -0.22912028431892395, -0.16022011637687683, 0.19750598073005676, -0.17693224549293518, -0.14495857059955597, 0.1067388579249382, 0.23324507474899292, 0.15944668650627136, -0.20151792466640472, 0.07243059575557709, 0.07493972778320312, 0.001651642145588994, 0.16234518587589264, 0.289747029542923, -0.1570119559764862, -0.0423487164080143, -0.1576613485813141, 0.2587892711162567, 0.02962096966803074, 0.1035521999001503, -0.23391442000865936, -0.004482158925384283, -0.2293674349784851, 0.1592559814453125, -0.19479861855506897, -0.04566125199198723, 0.29685840010643005, -0.2589578628540039, -0.3228659927845001, 0.029758449643850327, -0.14642558991909027, -0.23855003714561462, 0.04889155924320221, -0.19743135571479797, -0.1750156134366989, 0.07191959768533707, 0.0015773158520460129, -0.014500944875180721, 0.07178083807229996, 0.03993327170610428, 0.3344816267490387, -0.23140402138233185, 0.026986686512827873, -0.1790328025817871, 0.35791507363319397, -0.1560261845588684, -0.009627292864024639, -0.07742427289485931, -0.11254086345434189, 0.15339796245098114, -0.22870539128780365, -0.04770716279745102, 0.09102208912372589, -0.11919312179088593, 0.027591150254011154, -0.26807087659835815, 0.13066598773002625, -0.03339938446879387, 0.13135074079036713, -0.2550584673881531, 0.158375084400177, -0.15501029789447784, 0.19002413749694824, 0.08240997791290283, 0.21050730347633362, -0.0709938183426857, 0.10553953051567078, -0.17166438698768616, 0.11186503618955612, -0.037144098430871964, 0.24579542875289917, -0.261650025844574, -0.13777601718902588, 0.19618728756904602, -0.057375699281692505, -0.06397777050733566, 0.0013585442211478949, -0.34504684805870056, 0.013733763247728348, 0.11033603549003601, -0.2841094434261322, 0.010805214755237103, 0.18527622520923615, -0.09632228314876556, 0.1455393135547638, 0.026329405605793, -0.13264207541942596, -0.20713719725608826, 0.11553748697042465, 0.11199815571308136, 0.19314095377922058, -0.053879134356975555, 0.09313506633043289, -0.004796403925865889, 0.054913364350795746, -0.09507476538419724, -0.18962658941745758, -0.17299114167690277, 0.17127390205860138, -0.1818114072084427, -0.13096699118614197, 0.11919362843036652, 0.059207942336797714, -0.005117487628012896, -0.057206545025110245, 0.018785560503602028, -0.0942603200674057, 0.21604487299919128, 0.07051990181207657, 0.12526798248291016, 0.08864877372980118, -0.0003017627459485084, 0.012773045338690281, 0.22448551654815674, 0.13905516266822815, -0.008785517886281013, 0.08198193460702896, -0.09031684696674347, -0.20205146074295044, 0.0100563270971179, -0.20595116913318634, 0.06856309622526169, 0.028783505782485008, -0.2662103772163391, -0.08463648706674576, 0.1251099556684494, -0.09292171895503998, -0.02652863599359989, 0.052417248487472534, -0.07642748206853867, -0.10448909550905228, -0.015691164880990982, -0.19257435202598572, -0.07532701641321182, 0.05850023031234741, -0.2826201021671295, 0.10587955266237259, 0.1795244663953781, 0.25072556734085083, -0.1760474443435669, -0.004241911694407463, -0.3174423277378082, 0.20028549432754517, 0.03918498009443283, -0.2714250981807709, 0.15968945622444153, 0.08565960824489594, -0.12334334850311279, -0.026140399277210236, 0.008292374201118946, 0.18259060382843018, -0.053297825157642365, -0.0038867052644491196, -0.04023133963346481, 0.17930419743061066, 0.019881591200828552, 0.2030414640903473, 0.021183796226978302, -0.2590029537677765, -0.23235897719860077, 0.1724693477153778, 0.0639733150601387, 0.35213324427604675, -0.11585520952939987, -0.013880675658583641, -0.37504422664642334, 0.05911308526992798, 0.11429190635681152, -0.21208946406841278, 0.12273257970809937, 0.22684848308563232, -0.2533959150314331, 0.07906301319599152, 0.2444322258234024, -0.2714386284351349, 0.20949742197990417, 0.04524391517043114, -0.2567393183708191, 0.06817083805799484, 0.2027691900730133, -0.006095717661082745, -0.050843946635723114, -0.03615979850292206, 0.07598115503787994, -0.01338363066315651, 0.018962660804390907, -0.09912370890378952, 0.15214979648590088, 0.16042956709861755, 0.01421488355845213, -0.19571761786937714, 0.06342993676662445, -0.10104034841060638, -0.027112914249300957, -0.00819818302989006, -0.04932490363717079, -0.0007249910268001258, -0.14472337067127228, 0.013472821563482285, -0.03989620879292488, 0.0013929724227637053, 0.056252621114254, 0.043932341039180756, -0.08665649592876434, 0.08790165185928345, 0.04463169723749161, -0.0395941361784935, -0.08158116787672043, -0.13464032113552094, 0.17722204327583313, -0.04837094992399216, 0.05494961887598038, 0.05025598779320717, 0.10438740253448486, 0.06734362244606018, 0.09867590665817261, -0.07255576550960541, -0.06482267379760742, -0.08648388087749481, -0.07850517332553864, -0.029014237225055695, 0.10584454983472824, -0.109349824488163, 0.026506932452321053, -0.10015799105167389, -0.018334081396460533, 0.06003549322485924, -0.05319983884692192, -0.02952941507101059, -0.08458872884511948, 0.0778493732213974, -0.08947629481554031, 0.007374639622867107, 0.05145582556724548, 0.011606198735535145, -0.20592163503170013, 0.06163741275668144, -0.00566711463034153, 0.04924283176660538, 0.004353969823569059, 0.006836579646915197, 0.18250051140785217, -0.13447989523410797, -0.12452086806297302, 0.039871737360954285, -0.1668764352798462, 0.10634017735719681, 0.0064392355270683765, 0.16567842662334442, 0.022499999031424522, 0.05964519456028938, -0.07405638694763184, 0.22684770822525024, -0.14662016928195953, -0.04138178750872612, -0.06979860365390778, 0.1999387890100479, -0.14541158080101013, 0.24273112416267395, -0.04016709700226784, -0.05320267006754875, -0.14913849532604218, 0.21634456515312195, -0.16282157599925995, -0.12983134388923645, 0.1520904004573822, -0.15858526527881622, -0.039622820913791656, 0.15686224400997162, 0.030955148860812187, -0.20838378369808197, 0.22617287933826447, -0.14118026196956635, 0.031611114740371704, -0.043834567070007324, -0.1811860203742981, -0.03245628625154495, 0.08647869527339935, -0.03850490227341652, -0.010218555107712746, -0.1294279545545578, -0.07859080284833908, -0.09871344268321991, 0.0025563323870301247, 0.08058416098356247, 0.01064890343695879, 0.022818272933363914, 0.11766920238733292, 0.10820785909891129, -0.07480703294277191, 0.06349435448646545, -0.05873049050569534, 0.07066266983747482, 0.022601332515478134, 0.023196928203105927, 0.4496616721153259, -0.528398871421814, 0.8153273463249207, -0.5826707482337952, 0.05018308013677597, 0.8421280980110168, 0.8547202348709106, -0.5013022422790527, 0.2183428853750229, -0.01625191792845726, -0.5990323424339294, -0.12767374515533447, 0.24508339166641235, -0.8528695106506348, 0.20596882700920105, 0.4987482726573944, -0.38516709208488464, 0.2833137512207031, -0.22947083413600922, 0.10343141853809357, 0.2709904909133911, -0.22842198610305786, 0.08990845829248428, -0.07063979655504227, -0.21344810724258423, -0.05341947078704834, 0.0908212810754776, -0.11829565465450287, -0.021527590230107307, 0.24498508870601654, -0.0320483073592186, -0.025790710002183914, 0.20593193173408508, -0.24593837559223175, -0.0479939766228199, 0.055389679968357086, 0.08095747977495193, 0.19062432646751404, 0.05208500474691391, -0.22048792243003845, 0.10142084211111069, 0.2902725338935852, -0.12736235558986664, 0.20030565559864044, 0.2583915889263153, -0.18026043474674225, 0.19531093537807465, 0.3886772692203522, 0.04933299496769905, 0.32683491706848145, 0.03232908993959427, 0.4426021873950958, 0.09100895375013351, -0.3830247223377228, -0.08957623690366745, 0.02180495485663414, -0.20302028954029083, -0.3830103576183319, 0.006751635577529669, -0.4252202808856964, 0.04038502648472786, 0.3872678279876709, -0.07463835179805756, -0.2462168037891388, 0.11718443781137466, -0.04686911404132843, -0.1444759964942932, -0.22853213548660278, -0.09754005074501038, 0.00925114843994379, 0.09555952996015549, 0.012642763555049896, -0.19658777117729187, 0.14421117305755615, 0.10589070618152618, -0.08187897503376007, 0.15957556664943695, 0.451252818107605, -0.13979282975196838, -0.12214084714651108, -0.2524942457675934, -0.23299585282802582, -0.48451486229896545, 0.11937131732702255, 0.09709759801626205, 0.13034112751483917, 0.23778513073921204, -0.3997136652469635, 0.0316743366420269, 0.45751050114631653, 0.009828081354498863, 0.2322610765695572, 0.08858192712068558, 0.6205389499664307, -0.040427181869745255, 0.19130203127861023, -0.09511460363864899, -0.22079065442085266, 0.23130318522453308, -0.02938220463693142, 0.0920606255531311, 0.38894951343536377, 0.30822405219078064, -0.08561179786920547, 0.29321181774139404, 0.09879244118928909, -0.13014350831508636, 0.1363903433084488, 0.09508220106363297, -0.3376079797744751, 0.22756895422935486, 0.30287304520606995, 0.13559934496879578, -0.026904737576842308, 0.40875044465065, 0.2698233425617218, 0.011303161270916462, -0.11750738322734833, -0.1260799765586853, 0.24243700504302979, 0.10444886237382889, -0.4927695095539093, -0.6100876331329346, 0.216205433011055, 0.031014852225780487, -0.6561833024024963, -0.040156833827495575, -0.14589360356330872, 0.2686706781387329, -0.014017969369888306, 0.40043285489082336, -0.3260534405708313, -0.35614269971847534, 0.23865783214569092, 0.3091012239456177, 0.039191193878650665, 0.24322286248207092, -0.1924753487110138, 0.30012714862823486, -0.14093594253063202, 0.1549960821866989, -0.3353613317012787, 0.008571655489504337, 0.11844056844711304, -0.20699377357959747, 0.062104448676109314, -0.48954930901527405, 0.02665361575782299, 0.5074867010116577, -0.15187326073646545, -0.3032015860080719, -0.21678245067596436, -0.38984739780426025, -0.24258695542812347, -0.2148839831352234, 0.04871324822306633, 0.0033442899584770203, 0.1675862967967987, -0.12638473510742188, 0.041884686797857285, 0.0910898819565773, -0.20613496005535126, 0.48110517859458923, -0.32365962862968445, -0.43615061044692993, 0.2291460931301117, 0.3280591666698456, -0.32047948241233826, 0.23797129094600677, 0.31939244270324707, 0.27811771631240845, 0.4267653524875641, 0.46595481038093567, -0.14649562537670135, 0.17380361258983612, 0.30721697211265564, 0.014557057060301304, 0.2667175531387329, -0.38490673899650574, 0.21771037578582764, 0.14698980748653412, -0.306365042924881, -0.07964785397052765, -0.05923333764076233, -0.05351167172193527, -0.17257313430309296, -0.3451034426689148, -0.06622698903083801, -0.22718092799186707, 0.25922346115112305, -0.14394646883010864, 0.08845299482345581, 0.014815298840403557, -0.10302724689245224, 0.11340361833572388, 0.16402369737625122, 0.2781298756599426, -0.07506000250577927, -0.20549385249614716, 0.1914915293455124, -0.053036462515592575, -0.3393237292766571, -0.36384713649749756, -0.17140531539916992, -0.20527511835098267, 0.029011307284235954, -0.29835233092308044, -0.12220737338066101, -0.08479644358158112, 0.04185188561677933, -0.055691737681627274, 0.19986695051193237, 0.3365376889705658, -0.21777154505252838, -0.20463760197162628, 0.40537920594215393, 0.11552100628614426, -0.24427378177642822, -0.4080389142036438, -0.0500435009598732, -0.01297791488468647, -0.11197425425052643, -0.2918480932712555, -0.02638876996934414, -0.03534070774912834, -0.07971705496311188, -0.1284811794757843, 0.31425851583480835, 0.14536061882972717, 0.08609061688184738, -0.047724634408950806, 0.40569111704826355, -0.15561793744564056, -0.38457462191581726, -0.3647831678390503, -0.208980992436409, -0.34771421551704407, -0.05170426145195961, -0.422102153301239, -0.05567944794893265, -0.2585378885269165, 0.3316994607448578, -0.28845110535621643, -0.1394275426864624, 0.0959092229604721, -0.09312445670366287, 0.18025298416614532, 0.02845575474202633, -0.32900235056877136, 0.2628284692764282, 0.05491688847541809, -0.15347285568714142, 0.16609396040439606, 0.5374440550804138, -0.23675809800624847, -0.06967185437679291, -0.13828909397125244, 0.4694580137729645, -0.03643602505326271, 0.10758623480796814, 0.02039521187543869, -0.22070586681365967, -0.16832557320594788, 0.41913285851478577, -0.3924884498119354, -0.4223029613494873, -0.09468966722488403, -0.5275259613990784, -0.1568872481584549, 0.492462694644928, -0.2740786373615265, -0.4852316677570343, 0.1820836067199707, -0.15060654282569885, 0.11583660542964935, -0.1122700497508049, -0.12221088260412216, -0.03483846038579941, 0.07402774691581726, 0.03962775319814682, -0.03607698902487755, -0.21190312504768372, 0.04292064905166626, -0.04114846885204315, 0.047545816749334335, 0.04402932524681091, 0.09254632890224457, -0.017005736008286476, -0.1290169656276703, 0.10776028037071228, 0.17789442837238312, 0.3886493444442749, -0.09632831811904907, -0.17495982348918915, -0.2966414988040924, 0.1406475454568863, 0.2507878243923187, -0.3366023302078247, 0.24837470054626465, 0.004484517499804497, 0.34696367383003235, 0.5504355430603027, -0.20237891376018524, 0.3733527660369873, -0.2260931432247162, -0.10816935449838638, -0.2735816538333893, -0.4538053572177887, 0.28969311714172363, 0.1214793473482132, -0.25326764583587646, -0.341976523399353, -0.193524569272995, 0.1346604973077774, 0.0033007224556058645, 0.04225301742553711, 0.019265271723270416, -0.283735454082489, -0.26599323749542236, 0.08774517476558685, 0.1953418105840683, -0.4172036349773407, -0.13629032671451569, 0.210595041513443, -0.3394537568092346, 0.048025745898485184, 0.14398080110549927, -0.24490118026733398, 0.08745572715997696, 0.11042951047420502, -0.35320234298706055, 0.27521035075187683, 0.2043611854314804, -0.2408231943845749, -0.10203113406896591, 0.09052932262420654, 0.06959254294633865, 0.005334977060556412, 0.291925311088562, -0.08188921958208084, -0.016042469069361687, -0.07317129522562027, -0.14295651018619537, -0.07666898518800735, 0.19341212511062622, -0.17398487031459808, -0.10517928004264832, -0.00446334108710289, 0.1160113662481308, -0.16741585731506348, -0.06843747198581696, -0.06504819542169571, -0.09425217658281326, -0.16305792331695557, -0.02720765210688114, 0.03457918390631676, -0.07652497291564941, 0.20174665749073029, -0.015109516680240631, -0.04612579941749573, -0.16635829210281372, -0.024427227675914764, 0.06902050971984863, 0.15049883723258972, 0.09375932812690735, -0.26428067684173584, -0.019782228395342827, -0.018408343195915222, 0.07150496542453766, -0.1307329386472702, -0.08007573336362839, 0.24560986459255219, -0.1949211061000824, -0.05169539526104927, 0.11488492786884308, -0.06559555977582932, 0.05356345325708389, 0.1065039411187172, -0.06278771162033081, -0.17307579517364502, 0.13241928815841675, -0.13314493000507355, -0.06153320521116257, -0.07492625713348389, 0.03663437068462372, -0.13347548246383667, 0.04185640811920166, 0.20444104075431824, 0.20450402796268463, -0.15210393071174622, -0.09465751051902771, -0.014198342338204384, 0.05181076005101204, -0.027248792350292206, -0.1300085186958313, -0.07759945094585419, 0.26906394958496094, 0.04124540463089943, -0.04527665674686432, 0.02162320725619793, 0.1906551867723465, 0.08727170526981354, 0.19859245419502258, -0.12058442831039429, -0.07837135344743729, -0.10365109890699387, 0.0035793655551970005, 0.14950473606586456, 0.15949763357639313, -0.10850226134061813, 0.011819797568023205, -0.14016588032245636, 0.1756843775510788, -0.17014180123806, -0.043148238211870193, -0.21624304354190826, 0.09206031262874603, 0.16357651352882385, -0.1592564582824707, 0.09448263794183731, 0.12318478524684906, -0.07716402411460876, -0.00818131398409605, 0.019412053748965263, -0.10634128004312515, 0.0734311044216156, -0.1106700673699379, -0.025732913985848427, 0.15248256921768188, -0.0037632277235388756, 0.042601969093084335, 0.2660979926586151, -0.06124391406774521, 0.0062865279614925385, -0.13638833165168762, -0.22606687247753143, 0.12113559991121292, 0.201473668217659, 0.16202709078788757, -0.17239853739738464, -0.3349555730819702, 0.08844850957393646, 0.1259167492389679, -0.1431354135274887, -0.06478694081306458, 0.2317039668560028, 0.26474571228027344, -0.18182918429374695, 0.09021834284067154, 0.23118843138217926, 0.34811508655548096, -0.014782652258872986, -0.16805574297904968, -0.3535473644733429, -0.07752449810504913, 0.2176484316587448, 0.2214844971895218, -0.09621212631464005, -0.18940329551696777, -0.027265872806310654, -0.24327626824378967, 0.24660518765449524, 0.31073999404907227, 0.033805157989263535, -0.15566854178905487, 0.18948331475257874, 0.10513296723365784, -0.11112061142921448, 0.31796902418136597, 0.1273142546415329, -0.30325132608413696, 0.2824937105178833, -0.12333465367555618, -0.2860453724861145, 0.05963407829403877, 0.06343253701925278, -0.04618587717413902, 0.11860504746437073, 0.16041481494903564, -0.13711971044540405, -0.09355002641677856, -0.10797801613807678, 0.07150079309940338, 0.09226930141448975, 0.22521808743476868, -0.10717732459306717, -0.18412068486213684, -0.042729586362838745, 0.02227051928639412, -0.4266592264175415, -0.08181038498878479, 0.1369755119085312, -0.2112284153699875, 0.07379885762929916, -0.2177346795797348, -0.08366695046424866, 0.20853349566459656, -0.16052952408790588, 0.391549289226532, -0.1752358376979828, -0.04837850481271744, 0.006355050019919872, 0.20012147724628448, 0.0947742909193039, 0.2565290033817291, 0.040080904960632324, 0.03941642493009567, -0.21945704519748688, 0.0025687413290143013, -0.0361747108399868, 0.19148841500282288, -0.15543971955776215, 0.0355275496840477, 0.031207768246531487, -0.07937850058078766, 0.12316028028726578, -0.0622696727514267, -0.2721236050128937, 0.14266471564769745, 0.1133803203701973, -0.1364215910434723, 0.06657550483942032, -0.1251700073480606, -0.22563061118125916, -0.03635488823056221, 0.22210580110549927, -0.11872483789920807, 0.06247608736157417, -0.07255920767784119, 0.157376229763031, -0.05696571618318558, -0.004855947103351355, 0.02464412711560726, 0.11437671631574631, -0.12004127353429794, 0.1387261003255844, -0.08001210540533066, -0.047805268317461014, 0.27444130182266235, -0.01991385966539383, 0.25044411420822144, 0.5426350831985474, -0.076893150806427, 0.1999860405921936, -0.22570687532424927, 0.07218880206346512, 0.03798329085111618, -0.45058363676071167, 0.040362127125263214, 0.08349777013063431, -0.30907461047172546, 0.217660054564476, 0.11167604476213455, 0.2541731894016266, -0.1555652916431427, 0.21353715658187866, -0.15853187441825867, -0.008299562148749828, 0.10062167793512344, 0.2639898657798767, 0.04841873049736023, 0.06044957786798477, 0.011026140302419662, 0.0647391751408577, -0.006245462689548731, 0.17916491627693176, -0.005903118755668402, -0.08046106994152069, -0.03892053663730621, 0.05005910247564316, -0.1479436755180359, 0.353123277425766, -0.21538172662258148, -0.20360922813415527, 0.07207731902599335, -0.004282420966774225, 0.12877275049686432, -0.04435829073190689, 0.12816563248634338, -0.00419572414830327, 0.20641309022903442, -0.1682761162519455, -0.01647108793258667, -0.22563903033733368, 0.25331494212150574, 0.01570642553269863, -0.27967628836631775, 0.011947094462811947, -0.02401101402938366, -0.07012505829334259, 0.17656059563159943, 0.16312038898468018, 0.2928551733493805, 0.034580256789922714, 0.20284584164619446, 0.16636356711387634, 0.04010279104113579, -0.0048966133035719395, 0.2869662940502167, -0.09511540830135345, 0.07287579029798508, -0.1631581336259842, 0.030775176361203194, 0.004588074050843716, 0.1296491026878357, -0.05855906009674072, 0.08171495795249939, -0.2275678962469101, 0.13068826496601105, -0.04821467399597168, -0.12207673490047455, -0.021270615980029106, 0.12751594185829163, 0.03679180517792702, 0.2090488076210022, 0.0250504482537508, 0.034580618143081665, -0.06274585425853729, -0.09399554133415222, -0.20724210143089294, 0.09398958086967468, -0.01542824599891901, -0.171102374792099, 0.000986203202046454, -0.1777966469526291, -0.13619810342788696, 0.2877067029476166, 0.3401971459388733, 0.02537979744374752, -0.33894622325897217, -0.28306862711906433, -0.02060096710920334, 0.4176057279109955, -0.005507234018296003, -0.014089240692555904, 0.20048534870147705, 0.5646629929542542, -0.1531645953655243, -0.11919556558132172, 0.3037680387496948, -0.029043374583125114, -0.2692560851573944, -0.3176327645778656, -0.16215550899505615, 0.0184633806347847, 0.06931888312101364, -0.02477390319108963, -0.28323638439178467, -0.038656581193208694, -0.2598470449447632, 0.2857259213924408, 0.20464986562728882, 0.25913986563682556, -0.20612367987632751, 0.009491554461419582, -0.2224467247724533, 0.19385279715061188, -0.1861477643251419, -0.15885481238365173, 0.28226280212402344, -0.2039506882429123, -0.039146699011325836, 0.20945081114768982, -0.2066747099161148, -0.07314545661211014, 0.08868252485990524, -0.07283712923526764, -0.07425016164779663, 0.34961333870887756, -0.23640574514865875, -0.1838238537311554, 0.231264129281044, 0.05215763673186302, 0.17876794934272766, -0.12459579855203629, -0.21950800716876984, -0.13813306391239166, -0.1050523892045021, 0.2504712641239166, 0.033754799515008926, 0.16154761612415314, 0.19155661761760712, 0.07707622647285461, -0.05819369852542877, 0.13470125198364258, 0.08924544602632523, 0.04735034331679344, -0.16496850550174713, 0.07654023915529251, 0.04981238767504692, 0.06725810468196869, 0.045520488172769547, -0.052053194493055344, -0.18304073810577393, -0.11303544044494629, 0.16551533341407776, -0.06740500032901764, -0.10928994417190552, -0.029106300324201584, 0.05748738721013069, 0.004921244457364082, 0.01158524863421917, 0.041214823722839355, -0.025566915050148964, -0.167876735329628, -0.012073900550603867, 0.01533785741776228, 0.01157389022409916, 0.025392433628439903, 0.15353864431381226, -0.05440947785973549, -0.003884494537487626, -0.049701280891895294, -0.2242276519536972, -0.028046630322933197, -0.0815010592341423, -0.06072905287146568, -0.04901468753814697, 0.10021575540304184, -0.11482248455286026, 0.11432857811450958, 0.16126121580600739, 0.013412329368293285, -0.23783361911773682, 0.08323545008897781, 0.17965321242809296, -0.035524576902389526, -0.031842321157455444, -0.01859135553240776, -0.049228735268116, -0.0006250861915759742, 0.003485872410237789, -0.07827156037092209, -0.04742893576622009, 0.6245004534721375, -0.15034249424934387, -0.054287780076265335, 0.13672631978988647, 0.21847908198833466, 0.06816940754652023, -0.20966270565986633, -0.16588346660137177, -0.014230744913220406, 0.09913292527198792, -0.0156650859862566, 0.18759779632091522, -0.051631275564432144, -0.2053924947977066, -0.25727567076683044, 0.1248183399438858, -0.020115170627832413, 0.1283731609582901, 0.12203192710876465, 0.0514221265912056, 0.03902091830968857, -0.1469554901123047, 0.06576871871948242, -0.04827482998371124, -0.2233724296092987, 0.010299786925315857, 0.11663888394832611, -0.0294259712100029, 0.043347250670194626, -0.06885462999343872, 0.10508009046316147, -0.0778803750872612, 0.030616406351327896, -0.3086927831172943, 0.15177679061889648, 0.21759355068206787, -0.09201595932245255, -0.38621726632118225, -0.009979159571230412, -0.09483815729618073, 0.08392009884119034, -0.04069581627845764, -0.0017075020587071776, -0.4046710431575775, -0.19571633636951447, -0.19674749672412872, -0.46254149079322815, -0.11200083792209625, -0.036995891481637955, -0.000470043218228966, 0.11440764367580414, 0.13753853738307953, 0.6621517539024353, 0.2241854965686798, 0.2683164179325104, -0.10678989440202713, 0.1871889978647232, 0.18444013595581055, 0.16458851099014282, -0.057635094970464706, 0.05390782281756401, -0.3707420229911804, -0.19121843576431274, 0.011826259084045887, 0.389928936958313, -0.027790242806077003, -0.07314269244670868, 0.1696539968252182, -0.05191799998283386, -0.22241142392158508, 0.27731040120124817, -0.047543007880449295, -0.06622897833585739, 0.3792992830276489, -0.05755193904042244, 0.016527295112609863, 0.09477747976779938, 0.12460368126630783, -0.05241246894001961, 0.014073679223656654, -0.25808480381965637, -0.19736473262310028, 0.04942446947097778, -0.2913206219673157, 0.0753067210316658, 0.22515612840652466, 0.049956854432821274, -0.3638947904109955, -0.25199535489082336, 0.06729500740766525, 0.40317055583000183, 0.11233086884021759, 0.07062461972236633, 0.29500654339790344, 0.5203662514686584, -0.15142841637134552, -0.0818396806716919, 0.10583636909723282, 0.21458640694618225, -0.338532418012619, -0.4301212430000305, 1.5260997315635905e-05, 0.137239471077919, 0.21303197741508484, 0.2956838607788086, -0.23362959921360016, 0.0377376526594162, -0.3401136100292206, 0.18247731029987335, -0.0019259628606960177, 0.4354918897151947, -0.20340049266815186, -0.20561669766902924, -0.22686415910720825, 0.14345683157444, -0.16159933805465698, -0.09887748956680298, 0.3552938997745514, -0.2674470841884613, -0.21099011600017548, 0.39895200729370117, -0.07796546071767807, -0.15876907110214233, 0.11615084111690521, -0.0778842642903328, -0.2533080577850342, 0.12232948839664459, -0.10315681248903275, -0.16168366372585297, 0.43943893909454346, -0.066497303545475, 0.1055360659956932, -0.11985921114683151, 0.04533620551228523, -8.603816968388855e-05, 0.041361212730407715, 0.17634984850883484, 0.15711085498332977, -0.10295774042606354, 0.23082204163074493, 0.2021481692790985, 0.04652652516961098, 0.2319948524236679, -0.10981176793575287, 0.13632915914058685, -0.08885310590267181, -0.20636941492557526, 0.2157823145389557, -0.2682775855064392, -0.1922360509634018, -0.17985190451145172, -0.12330734729766846, -0.1501670926809311, 0.08966280519962311, -0.22736160457134247, 0.042933057993650436, -0.0031937425956130028, 0.03519625961780548, -0.01351194642484188, -0.0316489115357399, 0.09399718046188354, 0.20612850785255432, -0.008970632217824459, 0.07152441143989563, -0.07968435436487198, -0.08994801342487335, 0.012750465422868729, -0.054359789937734604, 0.0038741622120141983, -0.0594140961766243, 0.027028441429138184, -0.1506459265947342, 0.15617313981056213, 0.015716342255473137, -0.03954349458217621, -0.0093221515417099, 0.13042326271533966, -0.08622323721647263, -0.05255578085780144, -0.2182525396347046, -0.01506953313946724, -0.12081455439329147, 0.28006184101104736, 0.1181841716170311, 0.29194194078445435, -0.3043905198574066, 0.13423898816108704, 0.14937187731266022, -0.038862887769937515, 0.1645805686712265, -0.2629353106021881, -0.06128562241792679, 0.35514479875564575, -0.3225536048412323, 0.07492244243621826, -0.15746194124221802, 0.05485249310731888, 0.2460479438304901, -0.1502084732055664, -0.11138175427913666, 0.018837470561265945, -0.11364196240901947, 0.14036323130130768, -0.03831539675593376, 0.045218292623758316, -0.06414610147476196, -0.16183269023895264, 0.21553416550159454, 0.14206920564174652, -0.012460782192647457, -0.06662902981042862, 0.22123593091964722, 0.14555302262306213, -0.023849891498684883, 0.10157385468482971, 0.015776367858052254, -0.03884647414088249, 0.24068479239940643, 0.10854709148406982, -0.17099663615226746, 0.130568727850914, -0.16777586936950684, -0.06996211409568787, 0.08297194540500641, -0.10899369418621063, -0.02784891054034233, -0.18674306571483612, 0.052650824189186096, -0.13944406807422638, -0.1901302933692932, 0.024323666468262672, 0.12443769723176956, -0.026356901973485947, 0.13520577549934387, -0.17432069778442383, 0.03152060508728027, -0.10806583613157272, -0.18213114142417908, -0.42652925848960876, -0.15919922292232513, 0.15552698075771332, 0.10950241982936859, -0.12401796877384186, 0.0211800504475832, -0.06763133406639099, 0.2382175624370575, 0.24143052101135254, 0.2987494170665741, 0.000897415797226131, -0.0735684335231781, -0.24191859364509583, -0.008662641979753971, 0.0735207051038742, 0.049393460154533386, -0.22030451893806458, 0.06755562871694565, -0.24420496821403503, 0.14130030572414398, 0.11472062021493912, 0.0020102804992347956, 0.14385700225830078, -0.0692332461476326, -0.09804679453372955, 0.06395240128040314, -0.0020502957049757242, -0.2121012955904007, 0.06079956889152527, -0.051893237978219986, -0.1123330220580101, 0.042706627398729324, -0.2676738500595093, 0.25487154722213745, 0.18237823247909546, 0.002869106363505125, -0.21572604775428772, 0.216395303606987, -0.18336234986782074, 0.06872943043708801, -0.014582269825041294, 0.26090097427368164, 0.10751967877149582, 0.2324858456850052, -0.062176838517189026, 0.3175329566001892, 0.3031030297279358, -0.04461120814085007, 0.02598937600851059, 0.08104193955659866, 0.1875462830066681, -0.0650285929441452, -0.32662975788116455, 0.10801362246274948, -0.18383923172950745, 0.015954917296767235, -0.32611382007598877, 0.10546968877315521, -0.3077877461910248, -0.03226472809910774, -0.24657665193080902, 0.07239685952663422, -0.12075544893741608, 0.05775829777121544, -0.01168688852339983, 0.23033614456653595, -0.09345386177301407, 0.2573610842227936, -0.1949339359998703, -0.13474299013614655, 0.1857929229736328, -0.04637082293629646, -0.19699911773204803, 0.006805652752518654, -0.11485577374696732, -0.05522334575653076, 0.23269228637218475, -0.20325657725334167, 0.029049715027213097, 0.0905182734131813, -0.06735462695360184, -0.04540794715285301, 0.362752228975296, 0.09009354561567307, 0.1549871861934662, 0.1085319072008133, 0.05459413304924965, 0.16152359545230865, -0.04136178642511368, 0.09545829892158508, 0.24510298669338226, 0.050808314234018326, -0.06846565753221512, 0.06661880016326904, 0.3219251334667206, -0.0901562049984932, 0.02846432663500309, -0.0585758313536644, 0.07653859257698059, -0.22801083326339722, -0.7890859842300415, 0.15550093352794647, 0.28166481852531433, -0.35429099202156067, 0.0913146436214447, -0.643030047416687, -0.4768281877040863, -1.0148619413375854, 0.900948703289032, -0.84878009557724, -0.4521847069263458, -1.403759241104126, 0.21785935759544373, -0.8228297233581543, 0.6450950503349304, -0.4276442527770996, -0.4831662178039551, -0.266198068857193, 0.25151851773262024, 0.3260739743709564, 0.7154508233070374, -0.3531637191772461, 0.04090273007750511, -0.38591471314430237, -0.22839611768722534, 0.03021618351340294, 0.004183536861091852, 0.32932886481285095, -0.16479212045669556, 0.1959584653377533, 0.15280430018901825, -0.6804845333099365, 0.20633655786514282, -0.0678744837641716, -0.19678455591201782, 0.09832172095775604, -0.40314024686813354, 0.17016422748565674, -0.2332724630832672, -0.20009392499923706, 0.2354276180267334, -0.07501430064439774, 0.20760878920555115, -0.19159750640392303, 0.14013248682022095, 0.14361263811588287, 0.1359604448080063, 0.32150521874427795, 0.06536460667848587, -0.3549366891384125, -0.4242885112762451, 0.465351939201355, -0.39252859354019165, 0.26263460516929626, -0.361926794052124, -0.07961071282625198, 0.4583415389060974, 0.3126763701438904, -0.21555420756340027, -0.43646955490112305, 0.41217032074928284, 0.2492465078830719, 0.17787674069404602, 0.23561681807041168, 0.38129904866218567, 0.1050662100315094, -0.2810063064098358, -0.23835529386997223, -0.15884284675121307, 0.08409091085195541, -0.005559696815907955, 0.157444566488266, 0.08315376937389374, 0.17033818364143372, 0.054329562932252884, 0.42522063851356506, 0.13633595407009125, -0.2162676602602005, 0.025844629853963852, 0.03423449397087097, 0.130435973405838, 0.11872684955596924, 0.18227632343769073, -0.29890725016593933, 0.46271660923957825, -0.14626596868038177, 0.04428199306130409, 0.18591122329235077, -0.14716459810733795, -0.16586028039455414, -0.10660786181688309, 0.2371845245361328, -0.4667874872684479, 0.084586001932621, 0.07731886953115463, -0.29307907819747925, 0.010879122652113438, -0.023920411244034767, -0.23677240312099457, -0.014724889770150185, -0.09798300266265869, 0.06424257904291153, -0.14330768585205078, -0.20232261717319489, 0.14311286807060242, 0.18906700611114502, -0.16795481741428375, -0.42569130659103394, 0.008269486017525196, -0.05529605969786644, -0.004740565083920956, 0.09525187313556671, 0.11123906075954437, -0.012712554074823856, 0.35779255628585815, -0.19226936995983124, -0.0009012391092255712, 0.1975598931312561, -0.21206948161125183, -0.3382623493671417, -0.009112779051065445, -0.09309688210487366, -0.05642995983362198, 0.008438066579401493, 0.23312072455883026, -0.2822522521018982, 0.05098092928528786, 0.15291395783424377, 0.04174526408314705, 0.07808958739042282, -0.14495794475078583, 0.08778877556324005, -0.07672574371099472, -0.041028812527656555, -0.3094634413719177, 0.036552056670188904, -0.018618380650877953, 0.17738012969493866, -0.16949835419654846, -0.0907789096236229, 0.01226663775742054, 0.2633865773677826, 0.1844123899936676, 0.1241813376545906, 0.05126786604523659, -0.16022689640522003, -0.4527055621147156, 0.38955584168434143, -0.4113914668560028, -0.05246235802769661, -0.24132974445819855, -0.28435906767845154, 0.3973034918308258, 0.40953096747398376, 0.3109930157661438, -0.5204174518585205, 0.1016969159245491, 0.39809706807136536, -0.11565109342336655, 0.5685250163078308, -0.18195195496082306, 0.026410626247525215, -0.131813645362854, 0.14641693234443665, -0.08191093057394028, -0.1438586711883545, 0.06150255352258682, -0.10148277878761292, 0.03755870833992958, -0.019944604486227036, 0.05857621505856514, 0.02630387246608734, 0.0751037523150444, -0.029855819419026375, 0.1288663148880005, 0.0061382874846458435, 0.07387516647577286, -0.19952529668807983, -0.033824432641267776, 0.07742530107498169, 0.25279152393341064, -0.15908415615558624, 0.11513812094926834, 0.10582585632801056, 0.1045631617307663, 0.274242103099823, -0.2733328342437744, 0.319437712430954, 0.08399715274572372, 0.08716367930173874, 0.05857818201184273, -0.1420014351606369, 0.05692218244075775, 0.11563119292259216, -0.18900977075099945, -0.09039356559515, -0.14288786053657532, -0.20214225351810455, 0.10468076169490814, 0.1895720362663269, -0.1604681760072708, 0.16843970119953156, 0.17783649265766144, 0.01621771790087223, -0.041664689779281616, -0.21013735234737396, 0.38568106293678284, -0.04952260106801987, 0.05024464428424835, -0.1377502679824829, -0.20359763503074646, 0.22406768798828125, -0.12356605380773544, 0.12916477024555206, -0.10534220933914185, 0.12345286458730698, -0.15361502766609192, -0.02160950005054474, -0.19023609161376953, -0.17017900943756104, 0.07766062766313553, -0.35515427589416504, 0.20431596040725708, 0.15875448286533356, 0.10952657461166382, -0.18966591358184814, 0.028561463579535484, 0.5247484445571899, -0.04986875131726265, -0.004154114983975887, -0.01412154734134674, -0.22694754600524902, 0.15397582948207855, 0.46159565448760986, -0.08922203630208969, -0.2012040764093399, 0.1712113469839096, 0.07695740461349487, -0.09473009407520294, -0.018966687843203545, -0.0136277936398983, 0.2086368203163147, -0.10583969205617905, -0.12096753716468811, -0.5007047653198242, -0.16478736698627472, 0.34281113743782043, 0.07744457572698593, -0.07912635803222656, 0.11593320220708847, -0.20285005867481232, 0.22293245792388916, -0.03122633323073387, 0.0767192542552948, 0.5009506940841675, 0.020786451175808907, 0.37954598665237427, -0.15901803970336914, -0.08317478001117706, 0.1046980619430542, -0.29302188754081726, 0.29861778020858765, -0.10413633286952972, 0.4706863760948181, 0.15470874309539795, -0.18365803360939026, 0.19497117400169373, 0.3222697675228119, 0.09331272542476654, 0.26871201395988464, -0.2156863957643509, -0.18408401310443878, 0.05324326828122139, -0.018954548984766006, -0.07791724801063538, -0.0450143963098526, -0.08050905913114548, 0.00642582168802619, 0.09206307679414749, 0.1788574755191803, -0.11472596973180771, 0.023699073120951653, 0.1308504045009613, -0.27577346563339233, -0.004042427521198988, -0.3133585453033447, -0.020071743056178093, -0.0760107934474945, -0.7481521964073181, 0.5299270749092102, 0.2974834144115448, -0.03196486458182335, 0.03529149293899536, -0.22953057289123535, -0.10455655306577682, 0.1093473881483078, -0.050230298191308975, 0.2334478795528412, -0.3035040497779846, -0.15696077048778534, 0.32039979100227356, -0.12197393923997879, 0.02887645922601223, -0.20952659845352173, 0.1336372196674347, -0.3424612581729889, 0.3969971835613251, -0.3436797261238098, 0.18548844754695892, -0.015036424621939659, 0.1275441199541092, -0.14318068325519562, -0.20799125730991364, 0.15679986774921417, 0.004598794039338827, -0.01890292391180992, 0.1332034021615982, -0.10545797646045685, -0.17692147195339203, -0.04586818814277649, -0.010987103916704655, -0.06656509637832642, -0.2514467239379883, 0.055842362344264984, -0.030818050727248192, -0.11795391887426376, -0.03697910159826279, -0.2004813253879547, 0.21669021248817444, -0.10204759240150452, 0.33894747495651245, -0.2415722906589508, 0.02617531269788742, 0.2999816834926605, -0.19712774455547333, 0.20226722955703735, 0.4610574543476105, 0.060847699642181396, 0.30587565898895264, -0.200246199965477, 0.23191756010055542, 0.02328195795416832, -0.12037989497184753, 0.10715918242931366, 0.22775524854660034, -0.26347240805625916, 0.0065410081297159195, -0.028363443911075592, 0.23245657980442047, -0.03407653421163559, -0.14477604627609253, 0.11592168360948563, 0.0866524800658226, -0.008987927809357643, 0.3199651837348938, -0.3417419493198395, -0.08883613348007202, -0.06619082391262054, -0.06318461149930954, -0.09076716750860214, -0.1294810026884079, 0.030281489714980125, -0.008358980529010296, 0.21704831719398499, 0.24571776390075684, 0.10364148020744324, 0.1456979364156723, 0.07549778372049332, 0.06354235857725143, -0.17326287925243378, -0.0626869648694992, 0.013960368931293488, -0.056318338960409164, -0.004953202325850725, 0.04277702793478966, -0.09259644150733948, 0.07275659590959549, 0.07646353542804718, -0.5109483003616333, -0.134238600730896, -0.1377834975719452, -0.13568921387195587, 0.01047674473375082, 0.08145999163389206, 0.12858718633651733, -0.13836871087551117, 0.10143887251615524, 0.13127398490905762, -0.4453541338443756, -0.26045292615890503, 0.2702549397945404, -0.115432508289814, 0.012622009962797165, -0.2263346016407013, -0.14176872372627258, -0.08138109743595123, -0.23080340027809143, -0.06443537771701813, -0.10398470610380173, 0.13736775517463684, -0.01078224927186966, 0.14102968573570251, -0.12230071425437927, 0.12646915018558502, 0.09448828548192978, 0.01520291343331337, 0.18637265264987946, 0.23773720860481262, 0.24240541458129883, -0.09799149632453918, -0.04602624475955963, 0.011371457949280739, -0.03405758738517761, -0.08992062509059906, 0.1839534342288971, 0.19600844383239746, -0.05620507150888443, -0.11688666045665741, -0.12296111136674881, -0.1181350126862526, 0.06795049458742142, -0.11821236461400986, -0.007326797116547823, 0.05906074494123459, -0.11553007364273071, -0.06646336615085602, 0.349797785282135, 0.03430585935711861, -0.003186712274327874, -0.08422661572694778, -0.08379697799682617, -0.03681770712137222, -0.1864420622587204, -0.5045466423034668, 0.22610698640346527, -0.019962776452302933, 0.038335517048835754, -0.14047293365001678, -0.09786786139011383, 0.050971414893865585, -0.28785717487335205, 0.2960034906864166, 0.11694568395614624, -0.003651570063084364, 0.15469811856746674, -0.11738044768571854, -0.09175223857164383, -0.1157788336277008, -0.10933561623096466, 0.057384610176086426, -0.3105666935443878, 0.31486940383911133, -0.34586748480796814, -0.1702754646539688, 0.01767539419233799, 0.160054549574852, 0.01207485981285572, 0.04413705691695213, -0.013559706509113312, -0.048162613064050674, -0.23817025125026703, -0.09516452997922897, -0.05956568941473961, -0.13010014593601227, -0.20751360058784485, 0.3245319426059723, 0.08210961520671844, -0.016741612926125526, -0.06178022921085358, 0.05487312376499176, -0.12030511349439621, 0.034758877009153366, -0.03645586222410202, -0.016150685027241707, 0.2551721930503845, -0.21286945044994354, 0.15792202949523926, 0.05477290600538254, 0.2009470909833908, 0.12056655436754227, 0.163784921169281, 0.036210302263498306, -0.18449562788009644, -0.3792015612125397, 0.10220091789960861, 0.13229984045028687, 0.09008995443582535, 0.12492398917675018, -0.14055398106575012, 0.12642653286457062, -0.08003666251897812, -0.15319134294986725, 0.044319864362478256, -0.0628143846988678, 0.17347565293312073, -0.26668447256088257, 0.12443064898252487, -0.023570522665977478, -0.002906477777287364, -0.5021008253097534, 0.12547267973423004, -0.24921299517154694, -0.05397199094295502, 0.09329213947057724, 0.00417232234030962, -0.12989668548107147, -0.008541829884052277, -0.10091415047645569, 0.1238466128706932, 0.08372370153665543, -0.02893124893307686, -0.17878465354442596, -0.01628577895462513, 0.11416616290807724, -0.07019419223070145, -0.20880195498466492, 0.10241754353046417, -0.03619713708758354, -0.07542401552200317, -0.00027877790853381157, -0.047946613281965256, 0.03198707103729248, 0.39505431056022644, -0.14732331037521362, 0.1941838413476944, 0.2518312335014343, -0.06910325586795807, -0.15761083364486694, 0.18226131796836853, 0.10507110506296158, -0.29945841431617737, 0.12471163272857666, -0.17463275790214539, -0.0007045749807730317, 0.06683114171028137, -0.1934037059545517, -0.2176043689250946, 0.009231026284396648, -0.3230520486831665, -0.029981674626469612, -0.006998512893915176, 0.04479987546801567, 0.23211130499839783, -0.17049621045589447, -0.10681682080030441, 0.05806205794215202, -0.36872848868370056, 0.2483484447002411, 0.22846686840057373, -0.20750196278095245, -0.20521625876426697, 0.10508471727371216, 0.2124163657426834, -0.08945681154727936, -0.2299230694770813, -0.15818442404270172, -0.050524309277534485, 0.0039269509725272655, -0.01177961751818657, 0.03242870792746544, -0.08426562696695328, 0.17898917198181152, 0.15676070749759674, 0.0661851167678833, 0.16667740046977997, -0.005586068145930767, -0.10583661496639252, 0.06491373479366302, -0.008453509770333767, -0.05699380487203598, 0.1316348910331726, 0.0021769502200186253, -0.06862509995698929, 0.3138402998447418, -0.034645240753889084, -0.06222216784954071, 0.36244118213653564, -0.40896743535995483, 0.11629585921764374, -0.2501804232597351, 0.5988219976425171, 0.052148737013339996, 0.4789869785308838, 0.06926146149635315, -0.2961081564426422, 0.17897579073905945, 0.09026139974594116, -0.2815256118774414, -0.14362101256847382, -0.17783723771572113, 0.28672006726264954, -0.45653313398361206, 0.45607948303222656, 0.07183688879013062, 0.2017473727464676, -0.08644101768732071, -0.28726160526275635, -0.2009657919406891, 0.17904871702194214, 0.0627761259675026, 0.18105334043502808, 0.0019123844103887677, -0.08195694535970688, -0.3833329975605011, 0.3250212073326111, 0.17601408064365387, 0.17862989008426666, -0.018839357420802116, -0.3581101596355438, 0.28403863310813904, -0.24725870788097382, -0.18372735381126404, 0.217527836561203, -0.10817892849445343, -0.17647884786128998, 0.3248750865459442, -0.01807589642703533, -0.27065572142601013, 0.24696405231952667, -0.3758472800254822, 0.022929513826966286, 0.5115959048271179, -0.28560611605644226, -0.25469985604286194, 0.25710585713386536, -0.3489919900894165, 0.0026003550738096237, -0.32383620738983154, 0.5483495593070984, 0.3187483251094818, 0.13416561484336853, 0.20351117849349976, -0.19370372593402863, 0.08003315329551697, -0.02232862450182438, -0.4450089633464813, -0.20031236112117767, -0.06463134288787842, 0.056124281138181686, -0.30772948265075684, 0.2555021047592163, 0.16230684518814087, 0.131280779838562, 0.04732736200094223, -0.13582603633403778, -0.3298993706703186, 0.09507759660482407, 0.14407217502593994, 0.22063666582107544, 0.13368874788284302, -0.21182331442832947, -0.3111802637577057, 0.1510223150253296, 0.09989265352487564, 0.2681964933872223, -0.20019829273223877, -0.2926502525806427, 0.2629885673522949, -0.012235199101269245, -0.28730544447898865, 0.24097506701946259, 0.1016305685043335, -0.08073002099990845, 0.08123917132616043, -0.024073071777820587, -0.13804949820041656, 0.3226022720336914, -0.37821075320243835, -0.5185773372650146, 0.17670568823814392, -0.12375704944133759, -0.24534644186496735, 0.1665615439414978, -0.33779284358024597, -0.11971832066774368, -0.18766450881958008, 0.0031497711315751076, 0.07253804802894592, 0.20695605874061584, 0.11105503141880035, -0.22536824643611908, 0.06309482455253601, 0.1448136419057846, 0.017350533977150917, -0.12886828184127808, 0.034775350242853165, 0.23903553187847137, -0.17271246016025543, -0.07675178349018097, 0.009742463007569313, 0.2623121738433838, -0.08642734587192535, -0.13766607642173767, -0.14021475613117218, -0.12252555042505264, 0.09396574646234512, 0.18265636265277863, -0.1134154349565506, -0.12085268646478653, -0.2170363813638687, 0.09976266324520111, 0.225571870803833, 0.17380811274051666, -0.003956426400691271, -0.2761819064617157, 0.21672973036766052, 0.09468839317560196, -0.1767224371433258, 0.10463777184486389, 0.13980108499526978, -0.17145702242851257, 0.18269026279449463, -0.046093493700027466, -0.06921390444040298, 0.25281035900115967, 0.1360214501619339, -0.09037551283836365, 0.22743718326091766, -0.031813930720090866, -0.18376539647579193, -0.4359917640686035, 0.2749853730201721, -0.021486321464180946, 0.012922128662467003, -0.3370976746082306, 0.18398310244083405, -0.2426898181438446, -0.10357734560966492, 0.31127452850341797, -0.03218783065676689, 0.1273946762084961, -0.09211541712284088, 0.2184673547744751, 0.2260632961988449, -0.13458850979804993, 0.15939836204051971, -0.3398676812648773, -0.08120620250701904, -0.35082218050956726, 0.09411096572875977, -0.2566141188144684, 0.21263004839420319, -0.27726173400878906, -0.27609285712242126, -0.3280847668647766, -0.21432475745677948, 0.29403695464134216, 0.2939797043800354, -0.23751485347747803, -0.1755315065383911, -0.11797940731048584, 0.15773415565490723, 0.17840994894504547, -0.30002743005752563, 0.31078165769577026, 0.0720328539609909, -0.26643726229667664, -0.02159259095788002, 0.10591055452823639, -0.3121395409107208, -0.19895359873771667, 0.2435668557882309, -0.12002283334732056, 0.5852794647216797, -0.17130300402641296, -0.1526905745267868, 0.10180142521858215, 0.10728634148836136, -0.1431441307067871, -0.27761557698249817, 0.06205485761165619, -0.2879880666732788, 0.05012056976556778, 0.019460927695035934, 0.07507117837667465, 0.10832194238901138, 0.018918432295322418, 0.1702718734741211, -0.00051278923638165, -0.20267878472805023, 0.15181413292884827, -0.08262328058481216, 0.11699796468019485, -0.20853587985038757, 0.019659366458654404, 0.0553927980363369, 0.49568867683410645, -0.18616363406181335, -0.17420148849487305, -0.04156467691063881, 0.05643448978662491, 0.1644955575466156, 0.028986617922782898, 0.15923826396465302, -0.09132232517004013, -0.1336028128862381, -0.0031981500796973705, 0.1983889937400818, 0.2477961778640747, 0.16673070192337036, 0.01892210729420185, 0.16988728940486908, -0.12531569600105286, -0.11647165566682816, 0.2810579836368561, 0.08078312128782272, -0.03014531545341015, 0.14118541777133942, -0.060147810727357864, -0.13519978523254395, 0.3332977592945099, 0.16802982985973358, -0.29946690797805786, 0.13317477703094482, -0.10335706919431686, -0.09153419733047485, -0.09029097110033035, 0.2348271906375885, -0.14464841783046722, -0.11994646489620209, 0.10307636111974716, 0.3759141266345978, -0.11205282807350159, 0.012693550437688828, 0.20785415172576904, -0.03534983471035957, 0.10753842443227768, 0.07628512382507324, 0.20153973996639252, 0.04267651215195656, 0.037347834557294846, -0.12483394145965576, -0.15140703320503235, -0.03259190171957016, -0.012946405448019505, -0.22206972539424896, 0.1981242448091507, 0.06836823374032974, -0.14259611070156097, -0.2762041687965393, -0.3310733139514923, 0.07523152977228165, -0.022662919014692307, -0.13005270063877106, -0.0428335927426815, -0.20277172327041626, -0.25961875915527344, -0.07663334161043167, 0.02389228530228138, 0.08252786099910736, -0.0015771847683936357, 0.19908419251441956, -0.08963894098997116, -0.09045443683862686, 0.028346501290798187, -0.1963454782962799, -0.05851259455084801, 0.28131788969039917, -0.33826833963394165, -0.1469200849533081, 0.022120969370007515, -0.1396208256483078, -0.12425553798675537, -0.05135094001889229, -0.23494961857795715, -0.16208437085151672, 0.24876371026039124, 0.34325388073921204, 0.037081871181726456, 0.19225625693798065, -0.19407112896442413, -0.21222971379756927, 0.21393442153930664, 0.0252103041857481, 0.1407967358827591, 0.07011008262634277, 0.2615339457988739, 0.2674521803855896, -0.2025953084230423, 0.11566637456417084, -0.03287612274289131, 0.007887547835707664, -0.25427886843681335, 0.09753594547510147, -0.0503140352666378, 0.2433052510023117, -0.05897022783756256, -0.00540307629853487, -0.09636899828910828, -0.23807737231254578, 0.19498096406459808, 0.16820259392261505, 0.0931725725531578, -0.018025599420070648, -0.10511759668588638, 0.06781970709562302, 0.016534458845853806, -0.05098909139633179, -0.010106273926794529, 0.2068999707698822, -0.313961923122406, -0.012976698577404022, -0.003370573977008462, -0.07898972928524017, 0.025785772129893303, 0.20323596894741058, -0.0017476639477536082, 0.08095201104879379, -0.14624305069446564, 0.054544199258089066, 0.023943664506077766, 0.1791919767856598, 0.3171912133693695, 0.1958393156528473, -0.17686021327972412, 0.5173149704933167, -0.12464430183172226, 0.0236200001090765, 0.20382627844810486, 0.001851267064921558, 0.048669811338186264, -0.43405622243881226, -0.06050202250480652, 0.21120159327983856, -0.26204800605773926, 0.21460756659507751, 0.02209368534386158, 0.309356689453125, -0.024806037545204163, -0.03330979868769646, 0.07275863736867905, -0.03143993392586708, 0.09000564366579056, 0.046780116856098175, 0.05468008667230606, 0.032758887857198715, 0.2007947415113449, -0.012222404591739178, 0.13711503148078918, 0.315104216337204, 0.10870316624641418, 0.22556740045547485, -0.20743857324123383, -0.00499287573620677, -0.25552132725715637, 0.01628812961280346, 0.11665651202201843, 0.17666929960250854, -0.07531430572271347, 0.007524007000029087, 0.02777659147977829, 0.16804875433444977, 0.0330575630068779, 0.002264349954202771, -0.6448512077331543, -0.18312907218933105, -0.02208113670349121, -0.23845699429512024, -0.013881389051675797, 0.07836432754993439, -0.19712139666080475, 0.42295733094215393, 0.5362994074821472, 0.13382656872272491, 0.07181549817323685, -0.03111645206809044, -0.17075416445732117, 0.07881317287683487, 0.1915067583322525, -0.000978455995209515, -0.06747107207775116, 0.10095786303281784, 0.05904117226600647, -0.15646594762802124, -0.39723464846611023, 0.11355968564748764, 0.04461746662855148, -0.17765377461910248, -0.15327049791812897, -0.3100021779537201, -0.2870996594429016, 0.08132679015398026, 0.02133292146027088, -0.04439915344119072, -0.08092500269412994, -0.045082591474056244, 0.16517874598503113, 0.24617251753807068, 0.02014836296439171, 0.0029605363961309195, -0.1026671901345253, 0.015738947317004204, 0.15416337549686432, -0.10450514405965805, 0.07679835706949234, -0.003394179278984666, -0.2156628966331482, -0.08783542364835739, -0.019957242533564568, -0.21432089805603027, -0.04252716526389122, 0.16936005651950836, -0.026002537459135056, -0.16899317502975464, 0.10107925534248352, -0.050617482513189316, 0.13508468866348267, 0.058606766164302826, 0.2776815593242645, 0.398367315530777, 0.014722361229360104, -0.2990199327468872, -0.20970913767814636, 0.33083733916282654, -0.18249455094337463, -0.06393847614526749, 0.20734307169914246, -0.1270488053560257, 0.4076048731803894, 0.220079705119133, 0.09302666783332825, 0.5439344644546509, 0.1284952461719513, -0.1038956269621849, -0.5010001063346863, -0.18575796484947205, -0.10387950390577316, -0.5229635834693909, 0.006118312478065491, 0.09325854480266571, -0.07670027762651443, -0.051029033958911896, -0.1526404172182083, -0.1855059266090393, 0.08544348925352097, -0.07049209624528885, -0.021693255752325058, -0.07715265452861786, -0.1779170036315918, -0.05049620196223259, 0.13601639866828918, -0.15276619791984558, 0.2665005624294281, 0.13155731558799744, -0.1792968362569809, -0.013036909513175488, -0.028761543333530426, -0.13230876624584198, -0.09208791702985764, 0.04727095365524292, 0.24382947385311127, 0.4947550892829895, -0.0343325138092041, -0.14085526764392853, 0.05833614245057106, 0.1599632352590561, 0.0552162267267704, 0.019366607069969177, 0.2854788601398468, -0.07634978741407394, 0.012939932756125927, -0.08266205340623856, -0.18906119465827942, -0.13380789756774902, 0.01276586763560772, 0.10883822292089462, 0.06043636053800583, -0.07782816141843796, -0.23176370561122894, -0.08859368413686752, -0.02053447999060154, -0.06612642109394073, -0.2638912498950958, -0.38639700412750244, 0.8629249334335327, 0.38869529962539673, -0.37287572026252747, 0.07321254163980484, -0.1918264925479889, 0.07237418740987778, 0.5852882862091064, -0.8706468939781189, 1.0735632181167603, 0.6288343071937561, 0.01584654487669468, -0.31071382761001587, 0.16709157824516296, -0.7170314788818359, -0.16008800268173218, -0.21026422083377838, 0.3281008303165436, 0.07299456745386124, 0.06949102133512497, 0.6680201292037964, 0.6020473837852478, 0.3674527108669281, 0.1827310174703598, -0.35078924894332886, -0.0013469514669850469, -0.1191457137465477, -0.0920867919921875, 0.1397952288389206, -0.23703835904598236, -0.26956474781036377, 0.2667492628097534, 0.019363807514309883, 0.1042284443974495, -0.058646026998758316, 0.12336602807044983, -0.02877381071448326, -0.38823527097702026, -0.38299956917762756, -0.4730488955974579, 0.1534111201763153, -0.011917300522327423, -0.037035342305898666, 0.020426131784915924, 0.13441970944404602, 0.22612698376178741, -0.0029532748740166426, -0.039428554475307465, -0.20624835789203644, -0.14138619601726532, -0.3187726140022278, -0.06360416114330292, -0.24998943507671356, -0.5580753684043884, -0.528087317943573, -0.0012311990140005946, 0.5642133355140686, -0.08259396255016327, 0.3670910596847534, 0.17881818115711212, -0.3880104124546051, -0.24661922454833984, 0.17888934910297394, 0.47333604097366333, -0.1186978816986084, 0.1990537792444229, -0.05552700161933899, 0.2625453472137451, 0.13698779046535492, -0.29797881841659546, 0.10045687854290009, 0.34431371092796326, -0.12336381524801254, 0.33022406697273254, 0.052072249352931976, -0.029763519763946533, -0.04508453235030174, 0.07435927540063858, -0.27218854427337646, -0.006922670174390078, 0.002959072357043624, 0.26984328031539917, 0.040442973375320435, -0.04661654680967331, -0.14249950647354126, 0.10496916621923447, 0.04828651249408722, 0.02745486982166767, -0.19233205914497375, -0.1930343359708786, -0.014917087741196156, -0.17152592539787292, -0.2564864158630371, 0.29648345708847046, -0.23963510990142822, 0.22307664155960083, -0.23178796470165253, 0.10710175335407257, -0.47716793417930603, -0.0033454156946390867, -0.009383736178278923, 0.487074077129364, 0.4042282700538635, -0.3184189796447754, -0.42192542552948, 0.03554324433207512, 0.19427423179149628, -0.08875098079442978, 0.02814900502562523, 0.16959552466869354, 0.11635594069957733, 0.003854966489598155, 0.27755916118621826, -0.2978594899177551, 0.28282925486564636, -0.160849928855896, 0.0001580630341777578, -0.22457973659038544, -0.40398088097572327, 0.051579490303993225, 0.8432912230491638, 0.06765040010213852, 0.16565094888210297, 0.15716949105262756, 0.2291514128446579, 0.052908170968294144, 0.33112832903862, 0.17546865344047546, 0.3186580240726471, -0.300971657037735, 0.07265958189964294, 0.218323215842247, -0.07698105275630951, -0.057933270931243896, -0.10452565550804138, 0.0765228345990181, 0.12467190623283386, 0.1647164225578308, 0.2315238118171692, -0.2227821797132492, -0.09700607508420944, -0.08836439996957779, -0.07554226368665695, 0.07888811081647873, 0.090387262403965, -0.07370099425315857, 0.10919569432735443, 0.1392350047826767, 0.3869721591472626, -0.5391205549240112, -0.2595977187156677, 0.17788247764110565, 0.33773675560951233, -0.009198758751153946, 0.21592257916927338, -0.5317850708961487, -0.341888964176178, -0.261424720287323, 0.03955231234431267, 0.2625829577445984, -0.09919296950101852, -0.08695293217897415, 0.2836114466190338, 0.34598058462142944, 0.02552090585231781, -0.2208317071199417, -0.1245155781507492, -0.11686301976442337, 0.06710880249738693, 0.2800382375717163, -0.0895579606294632, -0.0034075770527124405, -0.45363563299179077, 0.29183605313301086, -0.19067543745040894, 0.48011666536331177, -0.1715298742055893, -0.157643124461174, 0.009878311306238174, 0.3542071282863617, -0.006831750273704529, 0.6451140642166138, 0.2936035096645355, 0.3905196487903595, -0.22921517491340637, 0.017502831295132637, 0.005482284352183342, 0.023851903155446053, -0.26901867985725403, 0.01757732219994068, 0.21058225631713867, 0.38875001668930054, 0.08606765419244766, -0.038876473903656006, -0.04060806706547737, 0.328093558549881, 0.15683582425117493, 0.09582249820232391, 0.0440027229487896, -0.0679263174533844, -0.19178295135498047, 0.1016114205121994, 0.17985939979553223, -0.2726553678512573, -0.3761407732963562, -0.14344282448291779, -0.05324897915124893, -0.111493781208992, -0.15218503773212433, -0.050640761852264404, -0.12544558942317963, 0.18976132571697235, -0.07096946984529495, -0.4616577923297882, -0.3308938443660736, 0.06722122430801392, 0.1632896065711975, -0.2027244120836258, 0.018693076446652412, 0.05632937327027321, 0.3275308310985565, 0.09249848872423172, -0.16943073272705078, -0.09708549827337265, 0.09333597868680954, -0.007500427309423685, 0.09120254963636398, 0.15157292783260345, -0.22014759480953217, 0.06447366625070572, -0.09720319509506226, 0.3115438222885132, 0.03733311966061592, 0.24086524546146393, -0.42184215784072876, -0.045487936586141586, -0.19446375966072083, -0.3860926032066345, 0.050595853477716446, -0.03389069065451622, 0.40126457810401917, -0.26519158482551575, -0.11680886894464493, 0.01654139719903469, -0.43149125576019287, 0.18636198341846466, -0.1853768676519394, 0.1421302706003189, 0.10492099076509476, 0.27984902262687683, 0.27984488010406494, -0.03256727010011673, 0.11613231897354126, 0.11153104901313782, -0.10157068818807602, -0.2741237282752991, 0.10323638468980789, -0.12028751522302628, -0.35927653312683105, -0.0918329581618309, -0.12681885063648224, -0.21484187245368958, -0.33222126960754395, 0.5372398495674133, 0.34934064745903015, 0.08996450901031494, 0.26848918199539185, -0.4253935217857361, 0.1665671318769455, -0.3586479425430298, 0.1568475216627121, 0.148122176527977, -0.14736789464950562, -0.1167726218700409, -0.1671500951051712, -0.07670259475708008, 0.20567072927951813, 0.01002455223351717, -0.026371609419584274, -0.30787158012390137, -0.20293112099170685, 0.24421581625938416, -0.026472849771380424, -0.05991791561245918, 0.06095505878329277, 0.16032463312149048, -0.04152677208185196, 0.3026030659675598, 0.15965557098388672, -0.12022195011377335, -0.2844030559062958, -0.1686897575855255, 0.025472061708569527, 0.2263355851173401, -0.18926674127578735, 0.05937892198562622, 0.20591317117214203, -0.05453542619943619, 0.10841619968414307, -0.042761776596307755, -0.11261012405157089, -0.14473259449005127, -0.06274279206991196, 0.043771255761384964, 0.025630434975028038, 0.10776673257350922, -0.07927999645471573, 0.10162073373794556, -0.31057634949684143, 0.07475753873586655, 0.11835689097642899, 0.15466248989105225, -0.22486869990825653, -0.09518539905548096, -0.17518313229084015, 0.13392773270606995, 0.03001442551612854, 0.214884415268898, -0.04514814913272858, 0.21161603927612305, 0.24480807781219482, -0.12220415472984314, -0.09447090327739716, -0.014452768489718437, -0.20341525971889496, -0.1872429996728897, 0.1550990641117096, -0.08034903556108475, -0.16287653148174286, 0.24961139261722565, -0.25871169567108154, 0.09744156897068024, 0.238893523812294, -0.13655950129032135, 0.006883232854306698, -0.030469607561826706, 0.13143187761306763, 0.09078174084424973, 0.07752353698015213, -0.15475347638130188, -0.21443699300289154, -0.009844568558037281, -0.007071852684020996, -0.145672008395195, -0.08419942110776901, 0.10827697068452835, -0.14970692992210388, 0.058248016983270645, 0.13200488686561584, 0.21032579243183136, -0.13698787987232208, -0.29471346735954285, 0.09726232290267944, -0.0665740966796875, 0.18096907436847687, -0.0392053946852684, 0.004795295652002096, -0.19398806989192963, -0.03886713832616806, 0.046657923609018326, 0.2356250137090683, -0.16234160959720612, 0.03089309297502041, -0.0024401177652180195, 0.19890116155147552, -0.18916794657707214, 0.04496864601969719, 0.16735491156578064, 0.18860818445682526, 0.030220579355955124, -0.26803162693977356, -0.17360015213489532, 0.047322358936071396, -0.24992556869983673, -0.12817923724651337, 0.260751336812973, -0.03060082159936428, -0.06604532897472382, 0.13160181045532227, -0.035681068897247314, 0.0777139961719513, 0.2306961864233017, -0.2879360020160675, 0.012005888856947422, 0.022644534707069397, -0.07644127309322357, 0.17354245483875275, -0.14755704998970032, -0.23780781030654907, -0.11011946201324463, -0.1157795861363411, 0.2951612174510956, 0.017625106498599052, -0.04722403734922409, 0.16945846378803253, 0.23106980323791504, -0.06861543655395508, 0.010703759267926216, -0.017220333218574524, -0.1082925871014595, -0.32193949818611145, -0.1205669716000557, 0.08942407369613647, -0.0020240633748471737, -0.05916973948478699, 0.1665429025888443, -0.04370062053203583, -0.0747910812497139, 0.03389986231923103, 0.16510826349258423, 0.05997469276189804, 0.25050559639930725, -5.954453081358224e-05, 0.002242226852104068, 0.2042393535375595, 0.034046873450279236, -0.1399536430835724, -0.24637652933597565, 0.12576963007450104, 0.13877582550048828, -0.32186731696128845, 0.09014313668012619, -0.12159056961536407, 0.02696441300213337, -0.0055768052116036415, 0.7839918732643127, -0.20717208087444305, 0.19270674884319305, -0.03590794652700424, -0.21850812435150146, 0.3290853798389435, 0.062200043350458145, 0.14679168164730072, 0.2666587233543396, -0.14153975248336792, 0.058981385082006454, -0.3980749845504761, 0.3012002408504486, 0.02279471978545189, -0.43158894777297974, 0.37458011507987976, 0.10516931861639023, -0.14954440295696259, -0.05949341505765915, 0.04134274646639824, 0.02152169868350029, -0.25683149695396423, -0.13479170203208923, 0.43263232707977295, 0.21968857944011688, 0.1969006061553955, -0.48501405119895935, -0.09813085943460464, 0.011500517837703228, 0.2637377083301544, 0.23933492600917816, -0.11524642258882523, -0.27547043561935425, -0.28020554780960083, -0.009726286865770817, 0.2326078861951828, 0.2703644633293152, 0.23960649967193604, 0.17401935160160065, 0.21949535608291626, 0.187809020280838, 0.017480159178376198, 0.1330430954694748, 0.08435479551553726, -0.5597777366638184, 0.23499329388141632, 0.10094346851110458, -0.16378188133239746, -0.18277312815189362, 0.10703308135271072, -0.27345287799835205, 0.10834508389234543, 0.039045799523591995, -0.3538833558559418, -0.08491777628660202, 0.04259642958641052, 0.12818500399589539, 0.17001973092556, -0.13174793124198914, -0.5016171932220459, -0.00046480458695441484, 0.23069602251052856, -0.08860582858324051, 0.24365948140621185, -0.30644917488098145, -0.47179102897644043, 0.28833651542663574, -0.15198896825313568, -0.22293925285339355, -0.2523842751979828, -0.16984349489212036, -0.08188062161207199, 0.15434099733829498, 0.3595404624938965, 0.30083945393562317, 0.06715132296085358, 0.12623576819896698, -0.1700279414653778, -0.18745596706867218, 0.1599811464548111, -0.16354811191558838, -0.02768929861485958, 0.03888879343867302, -0.12577112019062042, 0.056936755776405334, 0.2455851435661316, 0.22216859459877014, -0.18141056597232819, -0.2890349328517914, -0.11427991837263107, -0.1869015097618103, -0.13600988686084747, -0.07964085042476654, -0.16239777207374573, 0.07580021768808365, -0.006291339639574289, 0.6624913811683655, -0.45429694652557373, 0.308970183134079, 0.027140364050865173, -0.16293086111545563, 0.08019153028726578, -0.34305962920188904, -0.23266391456127167, 0.12009945511817932, 0.11460146307945251, 0.15553025901317596, -0.17323637008666992, -0.09212954342365265, 0.30583128333091736, 0.06454839557409286, -0.0826505497097969, 0.006021270528435707, -0.1638716608285904, 0.22333945333957672, -0.2966788113117218, -0.14124955236911774, -0.026638075709342957, -0.2290174663066864, 0.05407145619392395, 0.11794865131378174, 0.2274545133113861, -0.16027960181236267, 0.12838488817214966, 0.018540509045124054, -0.1399119794368744, -0.28670838475227356, 0.22067010402679443, -0.05575787276029587, 0.11514005064964294, 0.0487511046230793, -0.1442168802022934, -0.2247471660375595, -0.10256540030241013, -0.11711996048688889, -0.05946087837219238, -0.07279495894908905, 0.08737945556640625, -0.10343868285417557, 0.1181286945939064, -0.05456933751702309, -0.18402732908725739, 0.09062797576189041, -0.03588926047086716, 0.1470119059085846, -0.13339576125144958, -0.02797030285000801, -0.10805287957191467, 0.21014979481697083, 0.08884065598249435, 0.32215309143066406, -0.017754660919308662, -0.1932440549135208, -0.14956913888454437, -0.04124588146805763, -0.04704750329256058, 0.19356860220432281, -0.08326674997806549, 0.2002117931842804, -0.2042854279279709, 0.034402258694171906, -0.02182578481733799, -0.25740861892700195, 0.10892701894044876, 0.1155831515789032, -0.017891179770231247, 0.011422297917306423, 0.043596286326646805, -0.18687573075294495, -0.10491380840539932, -0.09059303253889084, -0.02894049510359764, -0.010711832903325558, 0.029643526300787926, 0.0792493224143982, -0.1013353019952774, 0.0032274352852255106, -0.16458344459533691, 0.0249557513743639, 0.06388390809297562, 0.30590254068374634, -0.10069611668586731, 0.08220889419317245, 0.18828429281711578, -0.023985641077160835, 0.0213929433375597, 0.5667657852172852, 0.07216056436300278, -0.0032242571469396353, 0.031213194131851196, -0.21423813700675964, -0.1832970827817917, -0.26494312286376953, 0.5217561721801758, 0.07072458416223526, 0.12285348773002625, -0.052636828273534775, -0.11924803256988525, 0.11900334060192108, 0.036105476319789886, -0.4399010241031647, -0.08727090805768967, -0.1477026492357254, 0.3834740221500397, -0.016547702252864838, -0.39373618364334106, 0.19102343916893005, -0.10307590663433075, 0.16948360204696655, 0.04581256955862045, -0.18918664753437042, 0.31148049235343933, 0.03348136693239212, -0.0459819920361042, 0.08296401053667068, -0.1571623831987381, -0.11743620038032532, -0.462894469499588, 0.3201388418674469, -0.17344363033771515, 0.06350067257881165, 0.042998578399419785, 0.20212464034557343, -0.16085949540138245, -0.005464714951813221, -0.21347570419311523, -0.043846774846315384, 0.16826725006103516, 0.1834142506122589, -0.01879369467496872, -0.16424794495105743, 0.1723831743001938, -0.009143320843577385, 0.10747510194778442, 0.1527223438024521, -0.194770947098732, 0.017167240381240845, 0.21796682476997375, -0.26937055587768555, -0.14296627044677734, -0.13857778906822205, -0.20249472558498383, -0.029730435460805893, 0.12938477098941803, -0.1441446989774704, -0.017360176891088486, 0.09439300000667572, 0.32478681206703186, 0.02683214657008648, -0.15660026669502258, -0.2208040952682495, -0.21679416298866272, 0.11032970994710922, -0.16510678827762604, -0.1263856738805771, 0.21950632333755493, -0.37375327944755554, -0.14700834453105927, -0.12518420815467834, -0.030894586816430092, 0.124771848320961, -0.2516629695892334, 0.10290084779262543, 0.07571835070848465, 0.011683027260005474, 0.03076752834022045, -0.16491498053073883, -0.25103485584259033, -0.06632192432880402, -0.07865186780691147, 0.09535808861255646, -0.05934622511267662, -0.27305352687835693, -0.10724105685949326, 0.16363929212093353, -0.012283038347959518, 0.3101852834224701, 0.09573695808649063, -0.07464156299829483, 0.3053731620311737, 0.03559676185250282, -0.24768970906734467, 0.2725003957748413, -0.20504333078861237, -0.19777071475982666, 0.06163220852613449, 0.1504058837890625, -0.1603115350008011, 0.27811434864997864, -0.0529475212097168, 0.1568603813648224, 0.1791715919971466, -0.16390885412693024, 0.02793346345424652, -0.2614448666572571, 0.47132575511932373, -0.1071431115269661, 0.20321284234523773, -0.28931424021720886, -0.07436329871416092, 0.35090914368629456, -0.2096187025308609, -0.04440363496541977, 0.3166036605834961, 0.1900503933429718, 0.0018767917063087225, -0.1205882877111435, 0.15337024629116058, 0.1254572570323944, -0.26324838399887085, 0.23305287957191467, -0.06602317094802856, 0.22694799304008484, -0.2695125937461853, 0.16182053089141846, -0.1289738118648529, 0.13649187982082367, 0.10332077741622925, 0.16714227199554443, -0.10414008051156998, -0.08350249379873276, -0.22853729128837585, 0.13959962129592896, 0.02233978547155857, -0.06667974591255188, 0.5379101037979126, -0.02781391516327858, 0.06127798929810524, 0.03575986623764038, -0.14154888689517975, 0.2680586278438568, -0.5153976678848267, -0.17870604991912842, -0.013946667313575745, 0.08397987484931946, -0.11527609825134277, 0.12347660958766937, -0.09430891275405884, -0.06440748274326324, 0.3026106655597687, -0.24391669034957886, 0.08977404981851578, -0.09842300415039062, -0.1796410083770752, 0.09426916390657425, 0.20338542759418488, -0.08035627007484436, 0.26558560132980347, -0.2627491354942322, -0.03061765432357788, 0.3458423912525177, -0.08910893648862839, 0.12045186758041382, 0.013241739943623543, -0.004424740094691515, -0.057841863483190536, -0.2092854231595993, 0.2274787724018097, 0.05668936297297478, 0.07943438738584518, 0.0987289547920227, -0.08478639274835587, -0.02330145053565502, 0.23935267329216003, 0.09340590983629227, 0.03183620423078537, -0.17515550553798676, 0.039370860904455185, 0.2630665600299835, 0.21217955648899078, 0.09125164896249771, -0.09846685081720352, -0.14486223459243774, 0.08974453806877136, 0.2187359631061554, -0.2970326840877533, -0.01255046296864748, 0.03218669444322586, -0.11473050713539124, -0.13657797873020172, 0.15359963476657867, -0.10775228589773178, -0.041831374168395996, 0.27667856216430664, -0.1254877895116806, 0.0014970492338761687, 0.12126653641462326, -0.17245447635650635, 0.04761991277337074, 0.03915392607450485, 0.19190305471420288, 0.2731282711029053, -0.08423662930727005, -0.1384531557559967, -0.255876362323761, -0.17596910893917084, 0.07693987339735031, -0.22850704193115234, 0.08810308575630188, 0.056540779769420624, -0.15825121104717255, -0.040428195148706436, -0.26179584860801697, -0.028980057686567307, 0.06841433793306351, -0.1166742667555809, -0.12417309731245041, -0.01458717416971922, 0.051697518676519394, 0.0804692879319191, 0.05950529873371124, -0.045039620250463486, -0.06876140832901001, 0.18420740962028503, -0.010988976806402206, -0.2543059289455414, -0.05979466438293457, -0.20897699892520905, 0.16038408875465393, 0.161102294921875, 0.3709849417209625, -0.09095755219459534, 0.09365101158618927, 0.19471795856952667, -0.08949579298496246, 0.011648397892713547, 0.19523315131664276, -0.0354226753115654, -0.16726502776145935, 0.23225967586040497, -0.17367224395275116, -0.033250804990530014, 0.25531166791915894, -0.4223518967628479, 0.17706643044948578, 0.20814049243927002, -0.18213485181331635, 0.0994332954287529, 0.17647720873355865, -0.2532418668270111, -0.052447181195020676, -0.0207471065223217, -0.12058472633361816, -0.1820889413356781, 0.1565173715353012, -0.19642025232315063, 0.058645401149988174, 0.02831180766224861, 0.4301649034023285, -0.050935789942741394, -0.22511592507362366, 0.20204302668571472, -0.13546983897686005, 0.07890701293945312, 0.05406377837061882, -0.10446610301733017, -0.08307082951068878, -0.14790429174900055, 0.11764240264892578, 0.1401839405298233, -0.010908960364758968, -0.02114180661737919, -0.04322750121355057, -0.1281399428844452, -0.2118801772594452, -0.14276772737503052, -0.05881262198090553, -0.018375039100646973, 0.04323011636734009, -0.14452116191387177, 0.12732243537902832, 0.057271428406238556, 0.14463946223258972, 0.2428959161043167, 0.18694645166397095, 0.3082605004310608, 0.04516834393143654, 0.2864735424518585, -0.26141396164894104, 0.0683707445859909, -0.40615370869636536, 0.35646018385887146, 0.25864672660827637, 0.07164023816585541, 0.22098408639431, -0.05072033405303955, -0.25333815813064575, -0.32160404324531555, 0.0937194898724556, 0.09507900476455688, 0.33607393503189087, 0.11372573673725128, -0.15218938887119293, 0.03457750007510185, 0.08482281118631363, -0.005284556187689304, 0.47394734621047974, 0.05420255661010742, 0.07901403307914734, -0.023390671238303185, -0.025467250496149063, -0.04730844125151634, 0.1614004671573639, 0.22760728001594543, -0.013744974508881569, 0.013010299764573574, 0.021116679534316063, 0.04304007440805435, -0.04641876742243767, -0.1341647356748581, -0.1018475592136383, -0.07644731551408768, 0.07332766801118851, 0.06151362881064415, -0.20214088261127472, 0.03077627532184124, -0.08679406344890594, -0.08290034532546997, 0.06887982040643692, 0.0450800359249115, 0.08345145732164383, 0.03616132214665413, -0.07097145169973373, 0.05534922331571579, -0.1701151430606842, -0.1674843430519104, -0.21777214109897614, 0.09179574251174927, -0.29020729660987854, 1.1894465684890747, -0.07999663800001144, -0.04652849957346916, 0.22468920052051544, 0.07395875453948975, -0.19946008920669556, -0.25825074315071106, 0.25764697790145874, 0.08542542159557343, 0.11777116358280182, -0.022342069074511528, -0.12487402558326721, 0.13325269520282745, 0.029023397713899612, -0.19356003403663635, 0.031223002821207047, 0.3105035126209259, -0.014588788151741028, -0.18478631973266602, -0.08181899040937424, 0.17985029518604279, -0.17029854655265808, -0.03597457334399223, 0.14075997471809387, -0.013091265223920345, -0.008398650214076042, 0.026345133781433105, 0.033612605184316635, -0.05727369338274002, -0.1283806413412094, 0.14975886046886444, 0.12015349417924881, 0.032378822565078735, 0.06667236983776093, -0.0519367940723896, -0.3096984624862671, -0.315756618976593, 0.012138305231928825, -0.07097623497247696, -0.18824262917041779, -0.10263972729444504, -0.1757604479789734, 0.2422393411397934, 0.10025235265493393, -0.18668928742408752, 0.1321907639503479, -0.04055007919669151, -0.020153090357780457, 0.14896462857723236, -0.23588262498378754, -0.16274291276931763, 0.1652751863002777, 0.08381965011358261, 0.19359920918941498, 0.3807514011859894, -0.02649250626564026, -0.3069710433483124, -0.09263315796852112, -0.06652850657701492, 0.014510774053633213, -0.21161611378192902, -0.1279125064611435, 0.25697624683380127, -0.194626122713089, 0.015931427478790283, -0.11517892777919769, 0.14784668385982513, 0.028687825426459312, -0.2874947488307953, 0.024087080731987953, 0.062436964362859726, 0.025161847472190857, -0.08889508247375488, 0.021033059805631638, -0.26407814025878906, 0.12179500609636307, -0.06031550467014313, 0.22224962711334229, -0.14588786661624908, -0.07692363113164902, -0.268866628408432, 0.04100555554032326, 0.17440031468868256, 0.11596279591321945, 0.06536245346069336, -0.19428382813930511, 0.18134768307209015, -0.16604579985141754, -0.1406392753124237, -0.018669961020350456, -0.20128338038921356, 0.01995384506881237, 0.01649479940533638, -0.021679775789380074, 0.009478272870182991, 0.32865679264068604, -0.5556250214576721, 0.11742039769887924, 0.10420680791139603, -0.13424676656723022, 0.13697394728660583, 0.030013911426067352, -0.0008508786559104919, 0.015588760375976562, -0.01474067009985447, 0.09054820984601974, 0.11436396092176437, -0.13586834073066711, -0.11991144716739655, 0.07733602076768875, 0.1164977103471756, 0.2210988700389862, -0.25832247734069824, 0.09021147340536118, 0.032729845494031906, -0.006216622889041901, 0.01146228238940239, 0.5359880328178406, 0.01820499822497368, 0.5837769508361816, -0.9011240005493164, -0.6284147500991821, 0.16675446927547455, 0.3646004796028137, -0.1650271862745285, 0.4079382121562958, 0.22572536766529083, -0.9868672490119934, 0.35189083218574524, -0.0826260969042778, -0.8288066983222961, 0.12169746309518814, -0.2552292048931122, -0.37294286489486694, -0.18042372167110443, 0.29074570536613464, -0.22728672623634338, 0.08782050013542175, 0.6602448225021362, -0.1055026650428772, -0.3064410388469696, -0.3832341432571411, -0.17072761058807373, 0.00730098458006978, -0.219803124666214, -0.19554740190505981, -0.2633415460586548, 0.39259815216064453, -0.24609845876693726, -0.02218625694513321, -0.20362044870853424, -0.12019457668066025, -0.13975314795970917, -0.2145213633775711, -0.22784708440303802, 0.44262227416038513, -0.07481751590967178, -0.073178231716156, -0.1268412321805954, -0.2900971472263336, 0.21025627851486206, 0.6140041351318359, 0.2744722068309784, 0.14729906618595123, 0.23162534832954407, -0.21533335745334625, 0.26577994227409363, -0.11360158026218414, -0.33096104860305786, 0.028869742527604103, -0.1380259096622467, -0.34638383984565735, 0.15890000760555267, 0.06136580929160118, -0.05097576230764389, 0.029293520376086235, -0.24929241836071014, -0.1501646488904953, 0.09108234196901321, 0.027620481327176094, 0.0844169482588768, -0.3957921266555786, 0.03384562209248543, -0.20891402661800385, 0.12046714872121811, 0.09512784332036972, 0.5217721462249756, 0.24182820320129395, -0.02295793779194355, -0.31480252742767334, -0.3574812114238739, 0.14119796454906464, -0.3896314799785614, 0.2000085711479187, 0.26502084732055664, 0.17328688502311707, -0.628607451915741, 0.05110573396086693, 0.06138342618942261, -0.05384575203061104, 0.14337706565856934, 0.26895830035209656, -0.14537368714809418, 0.17848807573318481, -0.2687382698059082, 0.2028999626636505, -0.027721671387553215, 0.10956865549087524, 0.031380586326122284, -0.3426547944545746, -0.07529791444540024, 0.10475490987300873, -0.3368341624736786, -0.0015393287176266313, 0.2566308379173279, -0.07511056959629059, 0.367924302816391, -0.039900243282318115, 0.0614352822303772, 0.022672375664114952, -0.17266245186328888, 0.10919933021068573, 0.06431611627340317, -0.5112442970275879, 0.6072721481323242, 0.2714462876319885, 0.039285022765398026, -0.2502988874912262, 0.1217023953795433, -0.244656503200531, -0.7312228679656982, 0.09092064201831818, -0.6258259415626526, -0.5647351145744324, -0.45311275124549866, 0.2691437900066376, 0.335310697555542, -0.6394845247268677, 0.16912125051021576, 0.23835670948028564, 0.09639595448970795, 0.03494192659854889, 0.1870374083518982, -0.13294951617717743, -0.12258529663085938, -0.2919113039970398, 0.3324863910675049, -0.0215139277279377, 0.3598758280277252, 0.31470295786857605, -0.19794592261314392, -0.2274205982685089, -0.07039839029312134, 0.20525896549224854, 0.19667842984199524, -0.06563247740268707, 0.15619204938411713, -0.06325236707925797, -0.18751004338264465, 0.21415750682353973, 0.2752017676830292, -0.31951820850372314, 0.2724737823009491, -0.3211001455783844, 0.1047920286655426, 0.23719626665115356, 0.19462020695209503, -0.36778780817985535, -0.0796622708439827, -0.12137825042009354, -0.015847133472561836, -0.07886172831058502, -0.43090876936912537, 0.5770397782325745, 0.316241979598999, -0.058977555483579636, -0.15900596976280212, -0.06250815838575363, 0.058619167655706406, -0.2487698346376419, -0.03322193771600723, -0.2713382840156555, 0.11206157505512238, 0.04548630490899086, 0.06504029780626297, -0.2777634263038635, -0.12609148025512695, 0.3014715015888214, -0.3579387664794922, 0.27715685963630676, 0.2766754627227783, 0.2785721719264984, -0.1267898678779602, -0.15210281312465668, 0.2139868289232254, -0.4835253059864044, 0.10205432027578354, -0.27618297934532166, 0.16122955083847046, 0.009172268211841583, -0.28654927015304565, -0.08305525779724121, -0.32935285568237305, -0.16275301575660706, -0.015989797189831734, -0.09901756793260574, 0.2978430390357971, 0.33854568004608154, -0.1718330830335617, 0.10136081278324127, 0.19433461129665375, -0.28099915385246277, -0.1656913161277771, -0.23678435385227203, -0.30109912157058716, -0.04369816929101944, 0.04547815024852753, -0.15289708971977234, 0.08251164853572845, 0.5088639259338379, -0.33441662788391113, 0.04107651859521866, 0.3104146122932434, -0.42713478207588196, -0.1591465175151825, 0.18614031374454498, 0.30137673020362854, 0.4064968228340149, 0.33477839827537537, 0.3326449990272522, -0.058751244097948074, -0.42168858647346497, 0.07390639185905457, 0.3067828118801117, 0.25234532356262207, -0.1421312391757965, -0.3887820243835449, -0.19193623960018158, 0.14245828986167908, -0.17508822679519653, 0.019318021833896637, 0.007201465778052807, 0.028907286003232002, 0.3095250427722931, 0.15713511407375336, 0.20132336020469666, -0.021445943042635918, -0.05072590336203575, 0.3160112798213959, 0.02213364653289318, 0.3183804452419281, 0.1298961490392685, -0.29588308930397034, -0.1426573395729065, -0.26761001348495483, -0.3092569410800934, 0.02864394523203373, 0.417116641998291, 0.10474973171949387, -0.08971773087978363, 0.23234720528125763, -0.21849894523620605, -0.41420459747314453, 0.13303060829639435, 0.11915842443704605, 0.14201050996780396, 0.061449889093637466, -0.452075332403183, 0.33089667558670044, 0.3263983130455017, -0.027442464604973793, -0.1261702924966812, 0.38076213002204895, -0.11630704253911972, 0.2348092645406723, -0.21371842920780182, -0.2030692845582962, -0.07486756891012192, -0.27438536286354065, 0.019144456833600998, 0.03653615713119507, -0.22874782979488373, -0.1245952919125557, -0.12940643727779388, -0.09865617007017136, 0.12811018526554108, -0.10184473544359207, 0.01896822266280651, 0.057196687906980515, -0.18996994197368622, 0.21860767900943756, -0.006415515206754208, -0.13886131346225739, 0.05835583433508873, 0.20100927352905273, 0.03216191381216049, 0.0463360995054245, -0.1509944200515747, -0.08199740946292877, 0.15182699263095856, -0.2686915695667267, -0.13882175087928772, -0.07611467689275742, -0.16655667126178741, 0.051815617829561234, 0.040266137570142746, -0.12116897106170654, 0.647947371006012, 0.027735311537981033, 0.29070407152175903, -0.3582631051540375, 0.008382344618439674, 0.06853818148374557, -0.17720653116703033, -0.05461157485842705, 0.0018473214004188776, 0.33344995975494385, -0.027417248114943504, 0.1954314410686493, -0.0289913322776556, 0.1523062288761139, -0.09538297355175018, 0.06936672329902649, 0.1645842045545578, 0.2500283122062683, -0.5520824193954468, 0.15247870981693268, 0.15116122364997864, -0.1136995330452919, -0.07826893776655197, -0.20575016736984253, 0.1817074418067932, 0.10425801575183868, -0.034374915063381195, -0.13407088816165924, 0.0767851173877716, 0.005048586521297693, 0.016748478636145592, 0.007528041955083609, -0.05957019329071045, -0.15190668404102325, 0.0002459184906911105, -0.11156009137630463, 0.2935926914215088, -0.1596369743347168, -0.21826182305812836, 0.061920009553432465, 0.082240529358387, -0.006624286063015461, -0.06429974734783173, -0.0280779842287302, 0.057870782911777496, 0.07624548673629761, -0.014843340963125229, -0.005224653519690037, 0.49049094319343567, 0.10643841326236725, -0.05618840083479881, -0.06107891723513603, -0.17248694598674774, -0.1404310017824173, 0.11248569190502167, -0.04260867461562157, 0.05125448480248451, 0.19209015369415283, 0.07715485990047455, 0.1319381594657898, -0.10356239974498749, 0.0617741160094738, -0.034332726150751114, -0.09099100530147552, 0.057838957756757736, 0.12431365996599197, -0.2018299251794815, -0.08582592010498047, 0.029253626242280006, -0.2792894244194031, -0.2066459059715271, 0.04529885947704315, 0.2592253088951111, 0.10407137125730515, 0.03567195311188698, -0.1988169550895691, -0.06977225840091705, -0.1490812748670578, 0.25544294714927673, -0.18852125108242035, -0.16811628639698029, 0.057975370436906815, -0.08333888649940491, -0.1290658563375473, 0.2054063379764557, -0.15058046579360962, -0.09492509812116623, 0.27304738759994507, -0.05598685145378113, 0.089589923620224, 0.029881315305829048, -0.16668009757995605, -0.15431644022464752, 0.09802153706550598, 0.07309172302484512, -0.2646608054637909, 0.8498600125312805, -0.1262718290090561, 0.08129852265119553, 0.35356032848358154, -0.10523449629545212, -0.5729973316192627, -0.013871812261641026, -0.09625466912984848, -0.5172047019004822, 0.7461285591125488, -0.05815725773572922, 0.5107867121696472, -0.24631762504577637, 0.14928404986858368, 1.1291005611419678, -0.16645148396492004, -0.39706742763519287, -1.873974084854126, 0.1006607711315155, -0.12059248238801956, 0.7831441164016724, -0.6888282895088196, 0.18969754874706268, -0.23334576189517975, 0.0825008675456047, 0.020436134189367294, -0.08205028623342514, 0.1287088841199875, 0.2535514831542969, 0.5172252655029297, 0.5606074929237366, -0.0399174802005291, -0.35987505316734314, 0.19549065828323364, 0.1090724840760231, 0.05983886867761612, -0.8131205439567566, 0.3294824957847595, 0.06150589883327484, -0.20410025119781494, -0.08578166365623474, 0.34639638662338257, -0.08346792310476303, 0.07902203500270844, -0.42206135392189026, 0.335343599319458, -0.08667188137769699, -0.06343842297792435, -0.1337279975414276, 0.08218173682689667, -0.008199815638363361, -0.029612412676215172, 0.12385539710521698, 0.16849400103092194, -0.08767769485712051, 0.09739195555448532, -0.09824997186660767, 0.09954697638750076, 0.05143146961927414, -0.020882094278931618, 0.10876964777708054, -0.10840974003076553, 0.040994688868522644, 0.2447504699230194, -0.04326413944363594, 0.06845805048942566, 0.4542662799358368, 0.02900874987244606, 0.026915645226836205, 0.03936243802309036, 0.19484874606132507, -0.010135221295058727, -0.04204179719090462, -0.2822835445404053, 0.0635494515299797, 0.19852331280708313, 0.22450514137744904, 0.12852488458156586, -0.029452858492732048, 0.021681971848011017, -7.346455731749302e-06, -0.0775689035654068, 0.04632171615958214, 0.12763768434524536, -0.21713465452194214, 0.12971937656402588, 0.05497675761580467, -0.339461088180542, 0.277541846036911, -0.1288493275642395, 0.054247792810201645, 0.24372974038124084, 0.06319517642259598, -0.110674187541008, -0.08019733428955078, 0.24810297787189484, 0.17776502668857574, 0.06731041520833969, 0.44068673253059387, -0.1714845448732376, 0.024807758629322052, 0.4361361563205719, 0.32742735743522644, -0.16940318048000336, 0.35699692368507385, -0.08174643665552139, 0.16583788394927979, -0.44556331634521484, 0.04593672230839729, 0.14056392014026642, -0.5129961967468262, -0.13172423839569092, 0.2708236873149872, 1.0577304363250732, -0.3774253726005554, 0.17331524193286896, -0.23239561915397644, 0.0006848077173344791, -0.2865407168865204, 0.04884175956249237, 0.37008094787597656, 0.2770145833492279, 0.253204882144928, -0.03424379602074623, -0.3153069019317627, -0.3296055793762207, -0.08322133868932724, -0.06359294056892395, 0.15756936371326447, 0.03267964720726013, -0.33242228627204895, -0.1305406242609024, 0.2762325704097748, -0.3428303897380829, 0.10659832507371902, 0.25295302271842957, -0.06990634649991989, -0.2614987790584564, 0.11012711375951767, -0.18024159967899323, 0.045062702149152756, 0.1904480904340744, 0.0315089114010334, 0.19232682883739471, 0.005224377848207951, -0.05094461143016815, 0.12947630882263184, -0.09431737661361694, -0.19037294387817383, 0.028124161064624786, -0.012121216394007206, -0.03570181503891945, 0.045557327568531036, 0.16655167937278748, -0.2538951337337494, -0.30110347270965576, -0.03064531460404396, 0.04802930727601051, -0.03802357614040375, -0.13249753415584564, 0.025135381147265434, -0.15625864267349243, -0.07095974683761597, -0.19762662053108215, -0.06369747966527939, 0.06853333115577698, -0.13150493800640106, 0.0016618353547528386, 0.025596486404538155, -0.06728604435920715, 0.03884332254528999, -0.0703136995434761, 0.1637074202299118, -0.15641319751739502, -0.23565958440303802, -0.15643444657325745, 0.12163322418928146, 0.13921372592449188, -0.022670764476060867, 0.09804345667362213, 0.04718200862407684, -0.24383297562599182, -0.11838535219430923, -0.11187656968832016, 0.27406296133995056, 0.2190139889717102, -0.022539302706718445, 0.1525138020515442, 0.09860876202583313, 0.13809627294540405, -0.11322054266929626, -0.0892648845911026, 0.21017076075077057, 0.229061558842659, 0.11360226571559906, -0.05659867078065872, -0.04050745069980621, -0.23630625009536743, 0.07289153337478638, -0.06407912075519562, -0.10747361928224564, 0.043785348534584045, 0.10830163210630417, 0.2062845677137375, -0.12344641983509064, 0.17528292536735535, 0.1064581423997879, -0.0029720677994191647, -0.018691133707761765, 0.1419406235218048, -0.06284981220960617, -0.034288302063941956, -0.02385408617556095, -0.10674449056386948, -0.13113130629062653, -0.10537441819906235, 0.24336616694927216, 0.13557901978492737, 0.20509575307369232, -0.1758747547864914, -0.04269825667142868, 0.04619394987821579, 0.13176821172237396, -0.11124792695045471, -0.20714928209781647, 0.1660185009241104, -0.1114313006401062, -0.03669922798871994, 0.2702973186969757, 0.07173047959804535, 0.08122724294662476, 0.261398583650589, -0.22661566734313965, -0.16461412608623505, 0.04162764549255371, 0.027846764773130417, -0.11453068256378174, 0.0994841456413269, 0.09133002907037735, 0.1821444183588028, 1.007832407951355, 