{
    "version": "0.5.0",
    "architecture": "WaveNet",
    "config": {
        "layers": [
            {
                "input_size": 1,
                "condition_size": 1,
                "head_size": 8,
                "channels": 16,
                "kernel_size": 3,
                "dilations": [
                    1,
                    2,
                    4,
                    8,
                    16,
                    32,
                    64,
                    128,
                    256,
                    512
                ],
                "activation": "Tanh",
                "gated": false,
                "head_bias": false
            },
            {
                "input_size": 16,
                "condition_size": 1,
                "head_size": 1,
                "channels": 8,
                "kernel_size": 3,
                "dilations": [
                    1,
                    2,
                    4,
                    8,
                    16,
                    32,
                    64,
                    128,
                    256,
                    512
                ],
                "activation": "Tanh",
                "gated": false,
                "head_bias": true
            }
        ],
        "head": null,
        "head_scale": 0.02
    },
    "weights": [
        -0.004685353022068739,
        0.4132499098777771,
        -0.8555001616477966,
        -0.798909068107605,
        -0.3595489263534546,
        0.2933381199836731,
        0.001785137690603733,
        0.8176966905593872,
        -0.05338321253657341,
        0.19301524758338928,
        -0.41478124260902405,
        0.0033637636806815863,
        -0.8881555795669556,
        -0.7185417413711548,
        -0.47132089734077454,
        0.012936401180922985,
        0.03825666382908821,
        0.14700140058994293,
        -0.0028170193545520306,
        -0.13325968384742737,
        -0.029868774116039276,
        0.18178844451904297,
        0.0383649542927742,
        0.192664235830307,
        -0.08311818540096283,
        0.08325879275798798,
        0.2140294760465622,
        -0.1954219788312912,
        -0.01758485846221447,
        0.0505576990544796,
        -0.11192327737808228,
        0.05642359331250191,
        -0.17693692445755005,
        -0.007343030534684658,
        -0.04579762741923332,
        -0.1530103087425232,
        -0.14003396034240723,
        0.05568493530154228,
        -0.02025022730231285,
        0.1301874965429306,
        0.09261149913072586,
        0.011257545091211796,
        -0.016261667013168335,
        -0.20098209381103516,
        -0.17902317643165588,
        -0.014687775634229183,
        0.16214731335639954,
        0.17003624141216278,
        -0.12532058358192444,
        0.04283558204770088,
        0.11053719371557236,
        0.07580440491437912,
        0.12440823018550873,
        0.10238885879516602,
        0.036751504987478256,
        -0.01581585966050625,
        0.1109124943614006,
        -0.17273899912834167,
        -0.027242299169301987,
        0.01218578964471817,
        0.006009742151945829,
        -0.047918617725372314,
        -0.1534000039100647,
        0.033284738659858704,
        0.12200330197811127,
        -0.10433045029640198,
        -0.07552836090326309,
        0.0693294107913971,
        0.004620950669050217,
        0.11479885131120682,
        -0.14469517767429352,
        0.032918334007263184,
        0.08109433948993683,
        0.0851319432258606,
        0.21122001111507416,
        0.1512175351381302,
        -0.010880409739911556,
        -0.045036572962999344,
        0.03256262466311455,
        -0.04656170681118965,
        -0.20908193290233612,
        0.11364146322011948,
        0.02455696277320385,
        -0.10377136617898941,
        0.03791810944676399,
        0.009756835177540779,
        -0.1093728169798851,
        -0.09010088443756104,
        -0.01188165694475174,
        -0.033746518194675446,
        0.043172549456357956,
        0.11579082906246185,
        0.02701437845826149,
        0.03964114934206009,
        -0.18486790359020233,
        -0.013669467531144619,
        0.08972198516130447,
        -0.02786775678396225,
        -0.04772764444351196,
        -0.05483473092317581,
        0.10343929380178452,
        0.18403127789497375,
        -0.03779236972332001,
        -0.07146342098712921,
        -0.05226448178291321,
        0.02077655680477619,
        -0.14799965918064117,
        -0.029408898204565048,
        0.01224974449723959,
        0.05772079899907112,
        -0.14046519994735718,
        0.02378314919769764,
        -0.14815373718738556,
        0.1358843594789505,
        0.0015650982968509197,
        -0.10811126977205276,
        0.026614753529429436,
        -0.07134311646223068,
        0.0052167377434670925,
        -0.030969811603426933,
        0.133858323097229,
        -0.0058185867965221405,
        -0.13534881174564362,
        0.14793862402439117,
        -0.1477176547050476,
        -0.14515453577041626,
        0.0487937405705452,
        -0.06590969860553741,
        0.0026620326098054647,
        -0.203096404671669,
        0.011670905165374279,
        -0.0007211315096355975,
        -0.015084919519722462,
        0.007900397293269634,
        0.16852037608623505,
        -0.09309174120426178,
        0.032054584473371506,
        -0.03926272317767143,
        0.15636709332466125,
        0.09310909360647202,
        0.19060853123664856,
        -0.0029699665028601885,
        0.12865042686462402,
        -0.07076898962259293,
        -0.0400129072368145,
        -0.06005636975169182,
        0.06091540306806564,
        0.06387197971343994,
        -0.08780602365732193,
        -0.1768428385257721,
        -0.05792912095785141,
        -0.1352834850549698,
        -0.09352944046258926,
        0.16070574522018433,
        0.06733600795269012,
        -0.20065373182296753,
        0.17497225105762482,
        -0.14428578317165375,
        -0.003840105375275016,
        -0.11615733057260513,
        0.03953852877020836,
        0.002532606478780508,
        -0.07618946582078934,
        -0.13525648415088654,
        -0.07205329090356827,
        0.01415945217013359,
        -0.05311574786901474,
        0.10434643179178238,
        -0.1423141360282898,
        0.001960269408300519,
        0.17759259045124054,
        -0.07210727035999298,
        0.13636307418346405,
        0.09655241668224335,
        -0.14907494187355042,
        0.08703779429197311,
        -0.0593339167535305,
        -0.04663756862282753,
        0.062285371124744415,
        -0.13249024748802185,
        -0.03245358541607857,
        -0.04243609681725502,
        0.052840616554021835,
        0.05297161638736725,
        0.04406147822737694,
        0.07094290852546692,
        -0.08559376746416092,
        -0.030210206285119057,
        -0.16250164806842804,
        0.10439365357160568,
        0.11999544501304626,
        0.1428162157535553,
        -0.12264963239431381,
        -0.012966886162757874,
        -0.09078790247440338,
        -0.10276857763528824,
        -0.07108481973409653,
        0.10152339190244675,
        -0.09796760231256485,
        0.007511680480092764,
        0.05585050955414772,
        0.07858101278543472,
        -0.10124941170215607,
        -0.0526411347091198,
        -0.10092000663280487,
        0.12358404695987701,
        -0.07707646489143372,
        0.13314513862133026,
        -0.01866186037659645,
        0.011853598989546299,
        -0.11642631888389587,
        0.0046831280924379826,
        0.1617148518562317,
        -0.08659261465072632,
        -0.03357391059398651,
        -0.12530098855495453,
        -0.0559534877538681,
        -0.10759653151035309,
        -0.02798120677471161,
        -0.0585666261613369,
        -0.03742898255586624,
        0.004229038953781128,
        0.1156335324048996,
        0.02265455760061741,
        0.003546019783243537,
        0.006685687694698572,
        -0.07595878839492798,
        -0.09592267870903015,
        0.025988049805164337,
        0.011068407446146011,
        0.14596869051456451,
        0.06180505454540253,
        0.029225729405879974,
        0.029381215572357178,
        0.1974659562110901,
        -0.07187818735837936,
        0.1962675005197525,
        -0.17588092386722565,
        -0.08775468170642853,
        -0.098879374563694,
        0.11589574068784714,
        0.10645526647567749,
        -0.13571412861347198,
        0.04857657477259636,
        0.04121796786785126,
        -0.2843893766403198,
        0.16070657968521118,
        -0.1505102515220642,
        -0.14200715720653534,
        0.03624885156750679,
        -0.10541142523288727,
        -0.12348590791225433,
        0.18213436007499695,
        -0.03009219281375408,
        0.023971769958734512,
        -0.030217722058296204,
        -0.18326228857040405,
        0.1076478511095047,
        -0.11982078850269318,
        -0.052275095134973526,
        -0.020955989137291908,
        0.03138414025306702,
        0.030370227992534637,
        0.04623350128531456,
        0.10418486595153809,
        -0.09305735677480698,
        -0.10481221973896027,
        0.09663628041744232,
        0.07905218005180359,
        -0.02048237808048725,
        -0.009401289746165276,
        -0.03307665139436722,
        -0.08366061747074127,
        -0.02868647873401642,
        -0.017682943493127823,
        -0.14326731860637665,
        0.20787179470062256,
        -0.04827786237001419,
        0.04798964411020279,
        -0.011582139879465103,
        0.0025840173475444317,
        -0.12749259173870087,
        -0.016687797382473946,
        0.14675167202949524,
        0.07882704585790634,
        0.05143144726753235,
        -0.08655562251806259,
        -0.017068402841687202,
        0.03130339831113815,
        -0.0008723489590920508,
        -0.11347372084856033,
        0.10055883228778839,
        -0.0007023724028840661,
        -0.06866633147001266,
        0.01926593668758869,
        -0.1328088939189911,
        0.035788558423519135,
        -0.051707953214645386,
        0.01819457858800888,
        -0.10970395803451538,
        -0.010551637038588524,
        0.013082939200103283,
        -0.04836813360452652,
        -0.013628389686346054,
        0.06291452050209045,
        -0.027153095230460167,
        -0.12408071756362915,
        0.12343408167362213,
        0.1464448720216751,
        -0.16998454928398132,
        -0.17884057760238647,
        -0.11133918911218643,
        0.2020578682422638,
        -0.11263871192932129,
        -0.034130487591028214,
        0.2515403628349304,
        -0.13169477880001068,
        -0.08412434160709381,
        0.21811458468437195,
        0.05345127359032631,
        0.08186943084001541,
        -0.1427849680185318,
        -0.14131340384483337,
        -0.08793671429157257,
        0.2136767953634262,
        0.189983069896698,
        0.1737264096736908,
        -0.13447681069374084,
        0.047897834330797195,
        -0.11922810226678848,
        0.08278050273656845,
        -0.07700996845960617,
        0.21924397349357605,
        -0.08071956783533096,
        -0.15697278082370758,
        -0.03135603666305542,
        0.27385345101356506,
        0.0934615507721901,
        0.0440111868083477,
        0.2288874387741089,
        -0.0937017947435379,
        -0.1400759369134903,
        0.27141255140304565,
        0.020897220820188522,
        -0.1758386641740799,
        0.2875044345855713,
        0.010530690662562847,
        -0.009564625099301338,
        0.06922738254070282,
        0.042619261890649796,
        -0.01775028184056282,
        -0.019499868154525757,
        -0.036722809076309204,
        0.13267023861408234,
        0.03717705234885216,
        0.14274518191814423,
        0.0737668052315712,
        0.13754135370254517,
        -0.18399247527122498,
        -0.0926787257194519,
        -0.16425064206123352,
        -0.22467339038848877,
        -0.2415570765733719,
        0.048634015023708344,
        0.0007719008717685938,
        0.014640810899436474,
        0.05613328516483307,
        -0.05876558646559715,
        0.012842163443565369,
        0.030523499473929405,
        -0.10520784556865692,
        -0.004418637603521347,
        -0.1423177868127823,
        0.012445425614714622,
        -0.013922248035669327,
        -0.015738563612103462,
        0.07848235219717026,
        0.02881959080696106,
        0.09105852246284485,
        0.18113122880458832,
        0.24355150759220123,
        0.010274015367031097,
        -0.014415373094379902,
        0.005028287414461374,
        -0.011065914295613766,
        0.09809960424900055,
        -0.0217704139649868,
        0.03300720825791359,
        -0.13391868770122528,
        -0.056786537170410156,
        -0.04981377348303795,
        -0.11609411239624023,
        -0.2067805826663971,
        -0.14499886333942413,
        -0.1907445639371872,
        -0.026989392936229706,
        0.0404682531952858,
        -0.010036973282694817,
        -0.0260965283960104,
        0.1328049749135971,
        0.06585141271352768,
        0.059970684349536896,
        -0.10797657817602158,
        0.17902810871601105,
        0.16025078296661377,
        -0.13799162209033966,
        0.09002955257892609,
        0.0060802241787314415,
        -0.024515202268958092,
        0.03405045345425606,
        -0.185283824801445,
        0.007082337513566017,
        0.08036265522241592,
        -0.09251012653112411,
        -0.06745060533285141,
        -0.013246945105493069,
        0.050229378044605255,
        -0.06682031601667404,
        0.027679817751049995,
        0.06473517417907715,
        0.04666558653116226,
        -0.041404929012060165,
        0.11093445122241974,
        0.04040227085351944,
        0.06516851484775543,
        -0.19710905849933624,
        0.04815179854631424,
        -0.07293672859668732,
        0.029719840735197067,
        0.008183140307664871,
        -0.14493833482265472,
        -0.04675866290926933,
        0.15957120060920715,
        -0.008775302208960056,
        -0.17057180404663086,
        -0.025053726509213448,
        -0.016940591856837273,
        -0.2142358422279358,
        0.09938251972198486,
        -0.17756503820419312,
        -0.2418619990348816,
        -0.10943164676427841,
        -0.07316125929355621,
        -0.003554191207513213,
        -0.10267677903175354,
        0.12226053327322006,
        0.010934493504464626,
        0.03582780808210373,
        0.1203092709183693,
        0.05350836366415024,
        0.2770369350910187,
        0.13693571090698242,
        0.4715746343135834,
        0.43205246329307556,
        -0.15692098438739777,
        -0.2167878895998001,
        -0.36049845814704895,
        0.007648882921785116,
        -0.45273464918136597,
        -0.4087444543838501,
        -0.2071695178747177,
        -0.3939390480518341,
        -0.33612963557243347,
        -0.04719177260994911,
        0.38320332765579224,
        0.44116127490997314,
        -0.11301932483911514,
        -0.25606250762939453,
        -0.2693653106689453,
        0.016361670568585396,
        0.4000905752182007,
        0.5099620223045349,
        -0.009275793097913265,
        -0.3643816113471985,
        -0.3125910758972168,
        -0.07696933299303055,
        0.21114152669906616,
        0.426088809967041,
        -0.14505334198474884,
        -0.2721220552921295,
        -0.4728677272796631,
        -0.17673397064208984,
        -0.35130059719085693,
        -0.17282810807228088,
        -0.073956698179245,
        -0.22321157157421112,
        -0.2752968370914459,
        0.01766658015549183,
        -0.33426180481910706,
        -0.4136488437652588,
        -0.09543291479349136,
        -0.32088780403137207,
        -0.2985440492630005,
        -0.02734985388815403,
        0.3355739414691925,
        0.1943507194519043,
        -0.17566604912281036,
        -0.12149424105882645,
        0.2519978880882263,
        0.023653250187635422,
        -0.24584528803825378,
        0.21627619862556458,
        0.175832137465477,
        0.19561712443828583,
        0.0062024244107306,
        0.026831554248929024,
        0.1557426005601883,
        -0.05868411436676979,
        0.058318138122558594,
        0.15550629794597626,
        -0.16052892804145813,
        0.0042962306179106236,
        -0.13360074162483215,
        0.06666141748428345,
        0.11487318575382233,
        0.1462704986333847,
        -0.16009961068630219,
        -0.09145533293485641,
        -0.02713925950229168,
        0.10216709971427917,
        0.11320389062166214,
        0.034493520855903625,
        -0.09954918175935745,
        -0.19908607006072998,
        -0.18042144179344177,
        0.05433259159326553,
        0.23790578544139862,
        0.07259169965982437,
        -0.1224454715847969,
        0.020437443628907204,
        0.24122966825962067,
        0.05285565182566643,
        -0.004176731687039137,
        -0.006962675601243973,
        -0.22562825679779053,
        0.10430576652288437,
        0.07342801243066788,
        -0.21375401318073273,
        0.05345090851187706,
        0.13795314729213715,
        -0.19477616250514984,
        -0.00792137160897255,
        -0.09135574847459793,
        -0.008448121137917042,
        0.035329293459653854,
        0.030199360102415085,
        0.009986174292862415,
        -0.040378592908382416,
        -0.19238728284835815,
        0.19676001369953156,
        -0.08925583958625793,
        0.0016770513029769063,
        0.08496108651161194,
        -0.044509924948215485,
        0.16877390444278717,
        -0.07168198376893997,
        0.01176119688898325,
        0.10371803492307663,
        0.027278829365968704,
        -0.027332818135619164,
        -0.2649262547492981,
        -0.020360015332698822,
        -0.03869533911347389,
        0.19839759171009064,
        -0.1454002559185028,
        0.08890324085950851,
        -0.172615185379982,
        0.0323750339448452,
        0.11795377731323242,
        0.17610742151737213,
        0.015232019126415253,
        0.0487193837761879,
        -0.17427770793437958,
        -0.022735940292477608,
        0.03201562911272049,
        0.25981494784355164,
        -0.11699031293392181,
        -0.08595594018697739,
        0.19043579697608948,
        0.12014535814523697,
        0.006710533984005451,
        0.021577969193458557,
        -0.1878042370080948,
        0.08227530866861343,
        0.12993618845939636,
        -0.13442428410053253,
        0.07366491109132767,
        0.19457101821899414,
        0.050794389098882675,
        0.10903876274824142,
        -0.10023590922355652,
        -0.07811292260885239,
        -0.12476130574941635,
        0.09417052567005157,
        0.0765366479754448,
        -0.005412386264652014,
        -0.23125751316547394,
        0.11341576278209686,
        0.20428510010242462,
        0.23499268293380737,
        -0.10415313392877579,
        0.012888441793620586,
        0.006061756517738104,
        0.154044970870018,
        0.00028234790079295635,
        0.0339176245033741,
        0.08801104128360748,
        -0.12242382019758224,
        -0.16378967463970184,
        -0.022097008302807808,
        -0.0017836486222222447,
        -0.03864598274230957,
        0.11333559453487396,
        -0.13134002685546875,
        -0.05407435819506645,
        0.10765191167593002,
        0.09970702975988388,
        0.0852506011724472,
        0.09617505222558975,
        -0.036463458091020584,
        -0.16077925264835358,
        0.1321479231119156,
        0.09823530167341232,
        -0.03786991909146309,
        -0.028330599889159203,
        -0.05981433391571045,
        0.21177607774734497,
        -0.017545079812407494,
        -0.06369749456644058,
        0.09624648839235306,
        0.10852617025375366,
        0.10436752438545227,
        0.1505727767944336,
        0.02974318154156208,
        0.11875464022159576,
        0.06808605790138245,
        -0.04280745983123779,
        -0.17650604248046875,
        -0.19505305588245392,
        0.010014482773840427,
        -0.03535537049174309,
        0.009554457850754261,
        0.0592811219394207,
        -0.00574285164475441,
        -0.18148313462734222,
        0.14832472801208496,
        -0.06575796753168106,
        0.20843781530857086,
        -0.12377957254648209,
        -0.017564604058861732,
        0.16806669533252716,
        -0.06928210705518723,
        0.13315725326538086,
        -0.015550835989415646,
        -0.13663221895694733,
        -0.07208942621946335,
        -0.05508507415652275,
        0.15135730803012848,
        -0.1006036028265953,
        0.08671736717224121,
        -0.057094261050224304,
        -0.049174319952726364,
        0.016326455399394035,
        -0.10246913880109787,
        -0.006392094772309065,
        0.18697011470794678,
        -0.0724000409245491,
        0.10664784163236618,
        -0.12301959097385406,
        0.14018051326274872,
        -0.12772931158542633,
        0.06417897343635559,
        -0.04200831428170204,
        0.02964750863611698,
        0.10448591411113739,
        0.08893933892250061,
        -0.0029141344130039215,
        0.08492731302976608,
        0.08990080654621124,
        -0.02269064076244831,
        0.21544823050498962,
        -0.10736119002103806,
        -0.002171226544305682,
        0.07824794203042984,
        0.05028170719742775,
        0.12227346003055573,
        -0.07714328914880753,
        -0.13050588965415955,
        0.03487382456660271,
        0.03279858082532883,
        -0.012855220586061478,
        0.004709835164248943,
        0.17027518153190613,
        0.1344616860151291,
        -0.08303317427635193,
        -0.2136213630437851,
        0.10307981818914413,
        -0.20229743421077728,
        -0.04601825773715973,
        0.023437976837158203,
        -0.15650585293769836,
        -0.022577404975891113,
        -0.12046898156404495,
        0.11540380120277405,
        -0.025903446599841118,
        -0.027820149436593056,
        0.028231214731931686,
        0.08131548762321472,
        -0.037390220910310745,
        0.18789663910865784,
        0.06071247160434723,
        -0.07060985267162323,
        -0.17846985161304474,
        -0.17332562804222107,
        0.18672385811805725,
        0.04604934900999069,
        0.07556264847517014,
        0.022793537005782127,
        0.0070538897998631,
        0.047775667160749435,
        0.12539753317832947,
        -0.12738150358200073,
        -0.05152544379234314,
        -0.0390755794942379,
        -0.17832669615745544,
        -0.045711711049079895,
        0.13710667192935944,
        -0.21011710166931152,
        0.008796071633696556,
        -0.07121505588293076,
        -0.12010534852743149,
        0.03884444758296013,
        -0.026417501270771027,
        0.026163002476096153,
        -0.08787130564451218,
        0.08872661739587784,
        0.009519468061625957,
        -0.1443716138601303,
        0.08766261488199234,
        -0.1607034057378769,
        -0.21050213277339935,
        4.2447700252523646e-05,
        0.17395035922527313,
        0.05619192123413086,
        0.07682780176401138,
        0.18264977633953094,
        0.1933198720216751,
        -0.06847864389419556,
        0.03762214258313179,
        0.04676060378551483,
        -0.11429040133953094,
        -0.04654018208384514,
        0.0250655896961689,
        0.12171120941638947,
        0.01695777289569378,
        0.11726795881986618,
        -0.06773769110441208,
        0.04974197596311569,
        -0.15747828781604767,
        -0.10870125144720078,
        0.03745969384908676,
        0.14611056447029114,
        -0.17497964203357697,
        0.08514995127916336,
        -0.03541399538516998,
        -0.08996127545833588,
        0.02229081094264984,
        0.2190694361925125,
        -0.11114032566547394,
        -0.01255318894982338,
        0.11939956247806549,
        -0.12125462293624878,
        0.13873407244682312,
        0.17340944707393646,
        0.09771333634853363,
        -0.03417551517486572,
        0.24086949229240417,
        -0.0801563411951065,
        0.19986172020435333,
        -0.04344930127263069,
        -0.12501788139343262,
        0.06678837537765503,
        -0.0598311573266983,
        -0.01872946321964264,
        -0.07289673388004303,
        -0.10870282351970673,
        -0.04668714106082916,
        -0.13095422089099884,
        0.04883342608809471,
        0.06340347230434418,
        -0.030585287138819695,
        0.02064773626625538,
        0.05438917130231857,
        0.12722361087799072,
        -0.0314168743789196,
        -0.02753368206322193,
        -0.02005075104534626,
        -0.011795843951404095,
        -0.0708889439702034,
        -0.002027519978582859,
        0.5093466639518738,
        -0.45781928300857544,
        0.7274667024612427,
        -0.6963272094726562,
        -0.0457235611975193,
        0.8541849255561829,
        0.8485599160194397,
        -0.5046994686126709,
        0.15730661153793335,
        0.48260217905044556,
        -0.35715290904045105,
        -0.2955211102962494,
        0.24555881321430206,
        -0.6936390995979309,
        0.17106656730175018,
        0.41579577326774597,
        -0.2102283090353012,
        0.16245555877685547,
        0.037050824612379074,
        0.07229293137788773,
        0.3604699373245239,
        -0.08357914537191391,
        0.25412946939468384,
        0.027440346777439117,
        0.01231615524739027,
        -0.171875461935997,
        -0.07490973174571991,
        -0.14067164063453674,
        0.01583826169371605,
        -0.019308680668473244,
        0.25570806860923767,
        -0.15239186584949493,
        -0.022853530943393707,
        -0.025239000096917152,
        -0.31042179465293884,
        0.16100753843784332,
        -0.16931559145450592,
        -0.11507496982812881,
        -0.2824661433696747,
        -0.10289200395345688,
        -0.13549275696277618,
        0.2229762226343155,
        0.15129408240318298,
        0.1747540682554245,
        0.1922784447669983,
        0.02421853318810463,
        -0.09573067724704742,
        0.42328447103500366,
        0.019051004201173782,
        0.12203989923000336,
        -0.0014771706191822886,
        0.227279931306839,
        -0.12130915373563766,
        -0.16746696829795837,
        0.08426542580127716,
        -0.15482638776302338,
        -0.036633893847465515,
        0.00020417601626832038,
        0.1692923754453659,
        -0.21666139364242554,
        0.12472714483737946,
        0.2823207676410675,
        0.056709032505750656,
        -0.02252873219549656,
        0.15000879764556885,
        -0.05027621611952782,
        -0.15968835353851318,
        -0.06359703093767166,
        -0.1974381059408188,
        0.031653400510549545,
        -0.16284947097301483,
        -0.1754903495311737,
        -0.30625706911087036,
        0.12381269782781601,
        0.1291828602552414,
        0.11498043686151505,
        0.2875852882862091,
        0.3169606029987335,
        -0.3423849642276764,
        0.19870774447917938,
        -0.2795041501522064,
        -0.18815378844738007,
        -0.3143225610256195,
        0.21207009255886078,
        0.11868084967136383,
        0.03961694985628128,
        0.02967771887779236,
        -0.14016026258468628,
        0.02324226126074791,
        0.27148133516311646,
        -0.19985613226890564,
        0.23671485483646393,
        -0.036102525889873505,
        0.21500636637210846,
        -0.22092877328395844,
        0.12659059464931488,
        -0.10722073167562485,
        -0.13045775890350342,
        0.18515731394290924,
        -0.030957205221056938,
        0.33180731534957886,
        0.3122880458831787,
        0.3275834619998932,
        0.24208933115005493,
        0.25556692481040955,
        -0.10393786430358887,
        -0.24382062256336212,
        -0.16946519911289215,
        -0.10280919075012207,
        -0.23452839255332947,
        0.2473166584968567,
        -0.08844321221113205,
        0.16594582796096802,
        0.08577185869216919,
        0.25516295433044434,
        0.14746491611003876,
        -0.25936996936798096,
        -0.14583748579025269,
        0.07578719407320023,
        0.11927789449691772,
        0.0868161991238594,
        -0.30004119873046875,
        -0.06149451434612274,
        0.2076481133699417,
        0.18242162466049194,
        -0.224854975938797,
        0.18885104358196259,
        -0.16655242443084717,
        0.2919384241104126,
        -0.021655432879924774,
        0.3485943377017975,
        -0.29319527745246887,
        -0.18051497638225555,
        0.25366002321243286,
        0.27438226342201233,
        0.12666238844394684,
        0.20302599668502808,
        -0.22894524037837982,
        0.19874629378318787,
        -0.29340413212776184,
        0.06220259517431259,
        -0.23919281363487244,
        -0.03148801624774933,
        -0.03396447002887726,
        -0.021948067471385002,
        0.023473821580410004,
        -0.27685126662254333,
        -0.13934935629367828,
        -0.10192511230707169,
        -0.14037911593914032,
        -0.3397485911846161,
        -0.2591303288936615,
        -0.2721485197544098,
        -0.02162403054535389,
        0.3035999536514282,
        0.16939200460910797,
        0.14064474403858185,
        -0.07681161165237427,
        -0.0777561366558075,
        0.2522163391113281,
        -0.20164404809474945,
        0.1001400500535965,
        0.1659960150718689,
        -0.22395727038383484,
        -0.22392503917217255,
        -0.010608497075736523,
        0.149631068110466,
        -0.058371007442474365,
        0.01115766167640686,
        0.21766339242458344,
        0.07005757838487625,
        0.07179649919271469,
        0.23100534081459045,
        0.21474620699882507,
        -0.13469727337360382,
        0.009855094365775585,
        0.11214199662208557,
        0.32428842782974243,
        -0.37235936522483826,
        0.22616508603096008,
        -0.19940577447414398,
        -0.3396231234073639,
        -0.08165886253118515,
        -0.14022944867610931,
        -0.06521742790937424,
        -0.20272691547870636,
        -0.05823877826333046,
        0.10578258335590363,
        -0.02185027301311493,
        0.2572382688522339,
        -0.07058669626712799,
        0.3282352089881897,
        0.06350924074649811,
        -0.2708534300327301,
        0.257728636264801,
        -0.11659432202577591,
        0.17045162618160248,
        0.002119604032486677,
        0.04798250272870064,
        0.002036870224401355,
        0.11977503448724747,
        -0.3149086534976959,
        -0.0005958297988399863,
        -0.3569195568561554,
        -0.10867434740066528,
        -0.031114546582102776,
        -0.14915405213832855,
        -0.29429003596305847,
        -0.12201537191867828,
        -0.049080051481723785,
        0.1624416559934616,
        0.0974305123090744,
        0.1744711846113205,
        -0.232757568359375,
        0.03593204915523529,
        -0.027393242344260216,
        0.23215681314468384,
        0.11812251061201096,
        -0.18358440697193146,
        -0.07076491415500641,
        0.19360926747322083,
        -0.20965726673603058,
        -0.1826465129852295,
        0.12546560168266296,
        -0.07937269657850266,
        -0.08172765374183655,
        -0.23921608924865723,
        0.20285481214523315,
        -0.2178911715745926,
        0.02645050548017025,
        0.059015411883592606,
        -0.005000242963433266,
        -0.1037212535738945,
        -0.04706933721899986,
        0.06640385091304779,
        0.13596364855766296,
        -0.143259197473526,
        0.038246821612119675,
        -0.29483509063720703,
        0.27637186646461487,
        -0.2557388246059418,
        0.3220992088317871,
        -0.17097605764865875,
        -0.059907834976911545,
        0.04765131324529648,
        -0.08309509605169296,
        0.06932754814624786,
        0.08815449476242065,
        -0.3177187144756317,
        0.04836643487215042,
        0.0015028092311695218,
        -0.01835533045232296,
        0.17252051830291748,
        0.27645257115364075,
        -0.308133065700531,
        0.05142388865351677,
        0.1484895795583725,
        0.042242325842380524,
        0.1868746280670166,
        -0.16444292664527893,
        -0.046976931393146515,
        0.26069751381874084,
        0.17309412360191345,
        0.30193033814430237,
        -0.06975910067558289,
        -0.24364888668060303,
        -0.10995860397815704,
        -0.1409429907798767,
        0.03988105431199074,
        0.17346292734146118,
        0.169521301984787,
        -0.11111301928758621,
        0.14501427114009857,
        -0.08852711319923401,
        0.1707574725151062,
        -0.19833864271640778,
        -0.10733074694871902,
        -0.023301569744944572,
        0.09315429627895355,
        0.011863190680742264,
        0.07053658366203308,
        -0.10576678812503815,
        0.03940519690513611,
        0.00357486167922616,
        -0.048719435930252075,
        0.10046470165252686,
        0.07411237806081772,
        0.02746047079563141,
        -0.002526024356484413,
        -0.2893199920654297,
        -0.025433292612433434,
        0.14823196828365326,
        0.19690561294555664,
        0.10033811628818512,
        -0.17537598311901093,
        -0.05475566163659096,
        0.04589336737990379,
        -0.15644031763076782,
        0.06548076122999191,
        0.0092789800837636,
        -0.2532886266708374,
        -0.10155376046895981,
        0.11512669920921326,
        0.21223942935466766,
        -0.16405242681503296,
        -0.003069491358473897,
        0.0012644127709791064,
        -0.014496068470180035,
        0.13724622130393982,
        0.13927607238292694,
        -0.05506378412246704,
        -0.2428053766489029,
        -0.08502031862735748,
        0.13537858426570892,
        -0.0788314938545227,
        -0.151589497923851,
        0.060417767614126205,
        -0.0719333291053772,
        -0.19215841591358185,
        0.014415932819247246,
        0.10217933356761932,
        -0.13566599786281586,
        -0.3575475215911865,
        -0.2120319902896881,
        -0.46841931343078613,
        -0.41493287682533264,
        -0.10567045211791992,
        -0.14085941016674042,
        0.08990802615880966,
        -0.0695572942495346,
        -0.2258407175540924,
        0.07740789651870728,
        0.09179792553186417,
        0.34555599093437195,
        -0.0399513877928257,
        -0.01952914521098137,
        0.14442698657512665,
        -0.08200034499168396,
        -0.018283652141690254,
        -0.19518882036209106,
        0.0496591255068779,
        0.22584864497184753,
        -0.22050458192825317,
        -0.0718255266547203,
        0.36516159772872925,
        -0.2498755007982254,
        0.05510495603084564,
        0.1290927678346634,
        0.17295819520950317,
        0.19130373001098633,
        0.5564005970954895,
        0.07715049386024475,
        -0.06707992404699326,
        -0.24618452787399292,
        -0.030927587300539017,
        -0.27782735228538513,
        0.05752470716834068,
        0.19649216532707214,
        -0.08465077728033066,
        -0.3588693141937256,
        -0.327430784702301,
        -0.10662171244621277,
        0.1429886519908905,
        0.23500323295593262,
        0.2051660567522049,
        -0.1878228485584259,
        -0.12748782336711884,
        -0.04757688194513321,
        0.24046970903873444,
        -0.1770002543926239,
        -0.0895993560552597,
        -0.4714909791946411,
        -0.22040025889873505,
        0.12156366556882858,
        0.46506616473197937,
        -0.16799281537532806,
        -0.011589186266064644,
        0.21406181156635284,
        -0.16758963465690613,
        -0.09090708941221237,
        0.30311259627342224,
        0.11992035061120987,
        0.05476761609315872,
        -0.2430102378129959,
        -0.2435721457004547,
        -0.11388876289129257,
        0.009495728649199009,
        0.22231125831604004,
        0.16130508482456207,
        -0.11547418683767319,
        0.08805443346500397,
        0.04422549158334732,
        0.03848126903176308,
        0.24823729693889618,
        0.04744340106844902,
        -0.042573995888233185,
        0.19263485074043274,
        0.021015651524066925,
        0.1404542773962021,
        -0.17127026617527008,
        0.1169104129076004,
        0.17270170152187347,
        0.21937187016010284,
        -0.11943455040454865,
        -0.04300457239151001,
        -0.14285477995872498,
        -0.03441126272082329,
        0.17010797560214996,
        0.12423522770404816,
        -0.1266813576221466,
        -0.08378791064023972,
        -0.14805075526237488,
        0.0497664250433445,
        -0.19299174845218658,
        -0.021724484860897064,
        -0.20055843889713287,
        0.026881610974669456,
        0.22902052104473114,
        0.012748630717396736,
        0.025248149409890175,
        0.38755664229393005,
        0.10885777324438095,
        0.04781953990459442,
        0.12613895535469055,
        -0.009372223168611526,
        0.09621217846870422,
        0.014448297210037708,
        0.042924344539642334,
        0.07555527985095978,
        -0.29508310556411743,
        0.12869307398796082,
        0.16927003860473633,
        -0.1751530021429062,
        -0.21769782900810242,
        0.02184343710541725,
        -0.07163747400045395,
        0.1786504089832306,
        0.11238357424736023,
        0.15791316330432892,
        -0.26442447304725647,
        -0.18739837408065796,
        0.1916341930627823,
        0.041779082268476486,
        -0.11691494286060333,
        0.12384463846683502,
        -0.09617575258016586,
        -0.09715946763753891,
        -0.0946183055639267,
        0.20338203012943268,
        0.027529120445251465,
        0.1344497948884964,
        -0.017651116475462914,
        0.07097073644399643,
        -0.200742706656456,
        0.2099875807762146,
        0.07983395457267761,
        0.1554259955883026,
        -0.22876912355422974,
        0.048057131469249725,
        0.09551578015089035,
        0.008643994107842445,
        0.024098379537463188,
        0.1517876237630844,
        -0.2576971650123596,
        -0.0018097700085490942,
        0.2992665767669678,
        -0.011226515285670757,
        0.14019426703453064,
        0.5014637112617493,
        0.0667344331741333,
        -0.14843611419200897,
        0.15481844544410706,
        -0.27404892444610596,
        -0.16306227445602417,
        0.04144636541604996,
        -0.1993551254272461,
        0.07319304347038269,
        -0.15294234454631805,
        0.007368843536823988,
        0.15215978026390076,
        -0.14393870532512665,
        0.03029198758304119,
        0.06666362285614014,
        0.08941381424665451,
        0.022069448605179787,
        -0.044438283890485764,
        -0.008445876650512218,
        0.02980537712574005,
        -0.0003993366553913802,
        -0.05499441176652908,
        0.05081756040453911,
        0.13650096952915192,
        -0.11490394175052643,
        -0.04824840649962425,
        -0.19971561431884766,
        -0.17306873202323914,
        0.1814061850309372,
        -0.08294545114040375,
        0.20266152918338776,
        -0.16436663269996643,
        0.118715800344944,
        -0.024366868659853935,
        0.21577513217926025,
        0.08972187340259552,
        0.16207659244537354,
        -0.04115042835474014,
        -0.020268935710191727,
        -0.15848709642887115,
        -0.07717116922140121,
        -0.0829848125576973,
        0.20774275064468384,
        -0.15931622684001923,
        0.07809384167194366,
        -0.033704835921525955,
        0.21579650044441223,
        0.19744068384170532,
        -0.2314225733280182,
        -0.11341758817434311,
        0.09900616109371185,
        0.08025860041379929,
        -0.07756003737449646,
        0.07121039181947708,
        0.04070859029889107,
        -0.20754431188106537,
        -0.07964200526475906,
        0.08926726877689362,
        0.08070243149995804,
        0.0778665617108345,
        -0.1519584208726883,
        -0.08412545174360275,
        0.06477319449186325,
        -0.0457233302295208,
        0.10573285073041916,
        -0.06251953542232513,
        -0.13898666203022003,
        0.002740488387644291,
        -0.046005379408597946,
        -0.04977802559733391,
        0.09210309386253357,
        0.04485110938549042,
        -0.07269804924726486,
        -0.06686468422412872,
        0.04029151052236557,
        0.0832180455327034,
        -0.17164307832717896,
        0.10763638466596603,
        0.000984843005426228,
        -0.021073466166853905,
        -0.12545256316661835,
        0.17726728320121765,
        -0.19871209561824799,
        0.24623379111289978,
        0.09112375974655151,
        0.2181399166584015,
        -0.17927013337612152,
        0.2529725730419159,
        -0.12480420619249344,
        0.05112646147608757,
        0.028652774170041084,
        0.19538307189941406,
        -0.11204951256513596,
        -0.039983898401260376,
        -0.1385541409254074,
        0.14788006246089935,
        0.004695857875049114,
        -0.1224791631102562,
        -0.06727518141269684,
        -0.11499837040901184,
        -0.0719369500875473,
        0.025212500244379044,
        -0.16011713445186615,
        0.20076599717140198,
        -0.2426445484161377,
        -0.055010661482810974,
        -0.01093304343521595,
        0.0477190800011158,
        0.08035015314817429,
        -0.031774718314409256,
        0.08358295261859894,
        -0.0002040030958596617,
        0.22996878623962402,
        -0.1637243628501892,
        -0.011843901127576828,
        -0.04383198171854019,
        0.151822030544281,
        0.14945709705352783,
        0.07814537733793259,
        0.016210654750466347,
        0.11016283929347992,
        0.24204687774181366,
        0.1819695085287094,
        0.1391659677028656,
        0.010348300449550152,
        0.1509580910205841,
        -0.02686399035155773,
        -0.20125812292099,
        -0.058171987533569336,
        -0.1569841057062149,
        -0.04534655436873436,
        -0.1383054405450821,
        -0.07088657468557358,
        -0.09083110094070435,
        -0.21202394366264343,
        0.10599914938211441,
        0.03905002027750015,
        0.006912492215633392,
        0.06981237977743149,
        -0.03866227716207504,
        0.016233623027801514,
        -0.17232142388820648,
        -0.031552381813526154,
        0.11143648624420166,
        0.2914581298828125,
        0.31743666529655457,
        0.5011866688728333,
        -0.05308111384510994,
        0.06668975949287415,
        -0.17700518667697906,
        -0.08985918015241623,
        0.05909973010420799,
        0.03609190136194229,
        -0.07643942534923553,
        -0.1628390997648239,
        -0.09110104292631149,
        -0.007499894127249718,
        0.07224028557538986,
        0.06728795915842056,
        0.03481569141149521,
        -0.11868254840373993,
        -0.11144141852855682,
        -0.06760714948177338,
        -0.015236697159707546,
        0.05743006616830826,
        -0.09242730587720871,
        -0.21743272244930267,
        -0.22102020680904388,
        -0.24089474976062775,
        -0.16594897210597992,
        -0.4550345242023468,
        0.13463911414146423,
        0.013836969621479511,
        0.032229166477918625,
        0.10193595290184021,
        -0.2330092340707779,
        -0.04081409424543381,
        -0.005723246373236179,
        -0.00240612612105906,
        0.08301489800214767,
        0.07339970022439957,
        -0.17267967760562897,
        0.13716115057468414,
        -0.00815142784267664,
        0.1250787377357483,
        -0.038886476308107376,
        0.15327174961566925,
        -0.2274036705493927,
        -0.05379223823547363,
        -0.0614347942173481,
        -0.006996127311140299,
        0.2114071100950241,
        -0.32932206988334656,
        0.09844942390918732,
        -0.20536848902702332,
        -0.07042789459228516,
        -0.034971050918102264,
        -0.1399676352739334,
        0.13965363800525665,
        0.008530348539352417,
        0.057648949325084686,
        0.048037152737379074,
        -0.058556947857141495,
        0.025668106973171234,
        0.18051980435848236,
        0.12664327025413513,
        0.013860853388905525,
        -0.19831140339374542,
        -0.13150916993618011,
        -0.18516412377357483,
        0.1254739910364151,
        0.12656137347221375,
        0.14975184202194214,
        0.05433167889714241,
        0.03460487723350525,
        -0.09269565343856812,
        0.21719425916671753,
        -0.10573460906744003,
        -0.10334261506795883,
        -0.08878283202648163,
        -0.05075479671359062,
        0.007170667871832848,
        -0.042057327926158905,
        0.15939530730247498,
        0.05764133110642433,
        -0.2169879525899887,
        -0.17751626670360565,
        0.05298619344830513,
        -0.1094263419508934,
        0.002475694054737687,
        0.09415080398321152,
        0.06771370023488998,
        -0.021489357575774193,
        -0.16607806086540222,
        0.004336502868682146,
        0.07439399510622025,
        -0.06991849839687347,
        -0.11254565417766571,
        -0.08854329586029053,
        0.28720811009407043,
        0.2815662622451782,
        0.012363307178020477,
        -0.03711884468793869,
        -0.09141119569540024,
        -0.029167549684643745,
        -0.15898333489894867,
        -0.044691890478134155,
        -0.04117295891046524,
        -0.017049169167876244,
        -0.0847751796245575,
        -0.0013190058525651693,
        -0.06233809515833855,
        0.017530059441924095,
        0.0020561208948493004,
        -0.1528485119342804,
        -7.3157629230991e-05,
        0.10693557560443878,
        0.15297289192676544,
        -0.13800878822803497,
        -0.02672116830945015,
        -0.009510325267910957,
        -0.010051121935248375,
        0.15828536450862885,
        0.00664760684594512,
        0.24236413836479187,
        0.033805932849645615,
        0.0503876768052578,
        -0.09972553700208664,
        -0.07397346943616867,
        0.018554778769612312,
        -0.07824481278657913,
        -0.10765911638736725,
        0.014699619263410568,
        -0.15526430308818817,
        0.014467724598944187,
        0.08292864263057709,
        -0.028013398870825768,
        0.1329391896724701,
        0.025604240596294403,
        -0.02954605594277382,
        -0.046595498919487,
        0.1171460822224617,
        -0.0932072326540947,
        0.017363794147968292,
        0.1250501275062561,
        -0.19225531816482544,
        -0.10897056758403778,
        0.013503490015864372,
        -0.05656684935092926,
        -0.0012141347397118807,
        0.017530715093016624,
        -0.13582533597946167,
        0.02606489509344101,
        0.017664577811956406,
        -0.07622019946575165,
        -0.14960092306137085,
        0.07225553691387177,
        -0.13883142173290253,
        -0.045611195266246796,
        -0.2079310566186905,
        -0.007967889308929443,
        0.13075104355812073,
        -0.08512549102306366,
        -0.11817866563796997,
        0.07212498039007187,
        -0.04126330092549324,
        -0.016866419464349747,
        -0.017372991889715195,
        0.07176998257637024,
        -0.13670533895492554,
        -0.062291380017995834,
        -0.020729271695017815,
        -0.05847262218594551,
        0.11125130206346512,
        -0.13611038029193878,
        0.07664048671722412,
        0.10836023837327957,
        0.01278110034763813,
        0.04032925143837929,
        0.09737280756235123,
        0.1647375226020813,
        0.028799699619412422,
        0.10840769112110138,
        0.12822893261909485,
        -0.012789283879101276,
        -0.04576953127980232,
        0.136926531791687,
        -0.15049532055854797,
        -0.12267773598432541,
        -0.04216410964727402,
        0.11343888938426971,
        -0.06997863203287125,
        -0.09626326709985733,
        0.10767586529254913,
        -0.0441780649125576,
        -0.3109250068664551,
        -0.009146638214588165,
        0.10013340413570404,
        0.12083582580089569,
        0.07449180632829666,
        -0.06229659169912338,
        0.061505042016506195,
        0.05663098394870758,
        0.033811602741479874,
        -0.054536908864974976,
        0.03212270885705948,
        -0.12687493860721588,
        0.14232519268989563,
        -0.02062416449189186,
        -0.01654069870710373,
        -0.029874073341488838,
        0.01549234427511692,
        0.01971837878227234,
        -0.19886048138141632,
        -0.0466994009912014,
        0.1907998025417328,
        0.04684184491634369,
        0.08062383532524109,
        0.10965738445520401,
        -0.010961202904582024,
        0.01907029002904892,
        -0.028533117845654488,
        -0.11618402600288391,
        -0.12226186692714691,
        0.008237103000283241,
        0.0755465030670166,
        -0.14301583170890808,
        -0.056708335876464844,
        -0.0011586123146116734,
        0.09165426343679428,
        0.034454524517059326,
        0.10047482699155807,
        0.18792228400707245,
        -0.022468524053692818,
        -0.15796193480491638,
        -0.19168256223201752,
        -0.03353181481361389,
        -0.05368964001536369,
        -0.018518565222620964,
        0.12477922439575195,
        -0.18601135909557343,
        -0.09701263904571533,
        -0.03958185389637947,
        0.00323501112870872,
        0.18396858870983124,
        -0.16086719930171967,
        0.06978517025709152,
        0.17617282271385193,
        0.09799499809741974,
        -0.09067562967538834,
        0.10467784106731415,
        0.1041545420885086,
        -0.19110636413097382,
        -0.3054957985877991,
        -0.016819890588521957,
        0.018492715433239937,
        0.0739021822810173,
        0.043683916330337524,
        -0.05447940528392792,
        0.000735792622435838,
        0.091465525329113,
        -0.052894122898578644,
        0.0952184721827507,
        0.11677403748035431,
        -0.15771758556365967,
        -0.07234922796487808,
        0.04281231760978699,
        -0.09845612198114395,
        0.1791253536939621,
        -0.09869391471147537,
        -0.08999171853065491,
        -0.04658437892794609,
        -0.19227063655853271,
        0.21799063682556152,
        -0.09098343551158905,
        -0.03822330757975578,
        -0.09913299977779388,
        -0.12587974965572357,
        -0.14069125056266785,
        0.15436536073684692,
        -0.14446493983268738,
        0.13651801645755768,
        0.001387815224006772,
        -0.0012200959026813507,
        -0.017568111419677734,
        -0.036184005439281464,
        0.11258600652217865,
        0.21742236614227295,
        -0.08898540586233139,
        0.17689920961856842,
        -0.19611063599586487,
        -0.019898658618330956,
        0.21734370291233063,
        -0.09909000992774963,
        0.07901601493358612,
        -0.05949702113866806,
        0.005788707174360752,
        -0.1824234575033188,
        0.08266210556030273,
        -0.01683717593550682,
        -0.0991257056593895,
        0.11253225803375244,
        0.036819055676460266,
        0.006561776623129845,
        -0.14707374572753906,
        -0.1476559042930603,
        0.12283489853143692,
        0.06541194021701813,
        0.19706758856773376,
        -0.023435011506080627,
        0.07272083312273026,
        -0.12160687148571014,
        0.05078696087002754,
        -0.048802658915519714,
        0.01844489760696888,
        -0.0011708216043189168,
        0.05585987865924835,
        0.009263408370316029,
        0.2022193968296051,
        -0.07217332720756531,
        -0.01270505040884018,
        -0.050459641963243484,
        -0.11822134256362915,
        0.0803636983036995,
        -0.03420444577932358,
        0.1274324506521225,
        0.02041928842663765,
        -0.02810719795525074,
        -0.009689352475106716,
        -0.02607049234211445,
        0.010308612138032913,
        0.15903054177761078,
        -0.12088896334171295,
        0.14208193123340607,
        -0.05801617354154587,
        0.01646125316619873,
        -0.14364399015903473,
        0.018155772238969803,
        -0.06649848818778992,
        -0.019735150039196014,
        0.007899327203631401,
        -0.13853442668914795,
        0.09050965309143066,
        0.04898989945650101,
        0.10279593616724014,
        -0.1685636341571808,
        -0.064571812748909,
        -0.030862364917993546,
        -0.13678193092346191,
        -0.13038650155067444,
        -0.11851576715707779,
        0.024759871885180473,
        -0.10983923822641373,
        0.16460222005844116,
        0.011844605207443237,
        -0.07439437508583069,
        -0.05635083466768265,
        -0.21328581869602203,
        -0.08238846063613892,
        0.17944057285785675,
        0.05046715959906578,
        -0.04086342081427574,
        -0.012305940501391888,
        0.018622541800141335,
        -0.11713927984237671,
        0.14494208991527557,
        0.029630348086357117,
        0.12345945835113525,
        -0.10010291635990143,
        -0.0007079888018779457,
        -0.049338676035404205,
        0.10960804671049118,
        0.08554576337337494,
        0.0457686111330986,
        -0.1403312385082245,
        -0.1262001246213913,
        -0.0211003590375185,
        -0.1672152876853943,
        -0.15599073469638824,
        -0.06241684406995773,
        -0.1743248552083969,
        0.08613911271095276,
        -0.039563026279211044,
        0.14958520233631134,
        0.07579687982797623,
        0.0024099661968648434,
        0.06811938434839249,
        0.22855134308338165,
        -0.03192797303199768,
        0.34038254618644714,
        0.3090039789676666,
        -0.11817453801631927,
        -0.007228709291666746,
        -0.05252975970506668,
        -0.20228002965450287,
        0.07200229912996292,
        -0.12442585080862045,
        0.1864238828420639,
        0.11883588135242462,
        0.10563074052333832,
        -0.15958327054977417,
        0.15253211557865143,
        -0.06263431906700134,
        0.12630340456962585,
        0.023379601538181305,
        0.03215796500444412,
        -0.024537261575460434,
        0.08895813673734665,
        0.07475490868091583,
        0.03727978840470314,
        0.06882313638925552,
        -0.09490948915481567,
        0.0032776701264083385,
        -0.07424993813037872,
        0.014454364776611328,
        -0.04079185426235199,
        -0.15713748335838318,
        -0.008264569565653801,
        -0.08989524841308594,
        0.13273049890995026,
        -0.2029615044593811,
        0.11024874448776245,
        -0.17525047063827515,
        -0.10591564327478409,
        -0.1446068435907364,
        -0.01940402016043663,
        -0.02925937995314598,
        -0.014124155044555664,
        0.048080891370773315,
        0.117218017578125,
        -0.06552260369062424,
        0.13418935239315033,
        -0.1448574662208557,
        -0.10546964406967163,
        0.06326458603143692,
        0.084144227206707,
        -0.12329316884279251,
        -0.1825893074274063,
        0.016360541805624962,
        -0.014113572426140308,
        0.14730246365070343,
        -0.08883841335773468,
        -0.025402219966053963,
        -0.03313130885362625,
        0.03046886809170246,
        -0.030385490506887436,
        0.1891506314277649,
        0.11564386636018753,
        0.06274222582578659,
        0.01650558039546013,
        -0.04489653930068016,
        0.047591570764780045,
        -0.13341481983661652,
        0.1209656149148941,
        0.10397463291883469,
        0.2821867763996124,
        -0.03882722556591034,
        -0.08386577665805817,
        0.06565088778734207,
        0.1336187720298767,
        0.10635172575712204,
        0.058065179735422134,
        0.04035695269703865,
        0.0026342321652919054,
        -0.41396135091781616,
        -0.07003168016672134,
        0.44269630312919617,
        -0.501083254814148,
        0.15713898837566376,
        -0.7344921827316284,
        -0.5183778405189514,
        -0.28804075717926025,
        0.7200126647949219,
        -1.0297729969024658,
        -0.42061305046081543,
        -0.9139062166213989,
        0.24667899310588837,
        -0.8797832131385803,
        0.12440192699432373,
        -0.7507074475288391,
        -0.23915481567382812,
        0.010599215514957905,
        0.044874053448438644,
        0.26119184494018555,
        0.2768729329109192,
        -0.11286650598049164,
        -0.236542209982872,
        -0.03461700305342674,
        0.11801709234714508,
        -0.1384696215391159,
        0.2767673432826996,
        -0.024355212226510048,
        -0.08757196366786957,
        -0.2507229447364807,
        0.14482219517230988,
        -0.17503145337104797,
        0.059475116431713104,
        -0.25110989809036255,
        -0.06807617843151093,
        -0.20826104283332825,
        -0.36548203229904175,
        0.23272036015987396,
        -0.23821808397769928,
        -0.33600783348083496,
        0.055068790912628174,
        -0.09170018136501312,
        0.06769529730081558,
        0.24523304402828217,
        0.2641177475452423,
        0.08868604898452759,
        0.11516665667295456,
        0.29759275913238525,
        -0.08559484779834747,
        -0.18603625893592834,
        0.0959073156118393,
        0.14347228407859802,
        0.060043852776288986,
        -0.024004094302654266,
        0.03454360365867615,
        0.11777494102716446,
        -0.15231071412563324,
        -0.044037170708179474,
        -0.10215652734041214,
        -0.23470556735992432,
        -0.06365662813186646,
        0.0651249885559082,
        0.0062233563512563705,
        -0.0538812018930912,
        0.012850365601480007,
        -0.1250014454126358,
        -0.034297626465559006,
        -0.034937843680381775,
        -0.04781392589211464,
        -0.029751546680927277,
        0.021125752478837967,
        -0.07631664723157883,
        -0.07325369864702225,
        -0.05020489916205406,
        0.06997597962617874,
        0.2901250422000885,
        0.21876591444015503,
        -0.1161126121878624,
        0.08467026054859161,
        0.008882553316652775,
        0.013388419523835182,
        -0.09009809046983719,
        -0.1806594729423523,
        -0.23600544035434723,
        0.09194713830947876,
        0.08558498322963715,
        -0.16130687296390533,
        0.13207826018333435,
        0.2387191355228424,
        -0.07356307655572891,
        -0.10936592519283295,
        0.33118364214897156,
        0.1567583978176117,
        -0.16297736763954163,
        -0.08169972896575928,
        -0.12147495895624161,
        -0.12785586714744568,
        0.0458909347653389,
        -0.2626326382160187,
        -0.020205678418278694,
        0.13589347898960114,
        -0.21416224539279938,
        -0.1710672676563263,
        -0.06897001713514328,
        -0.03304949402809143,
        0.12488630414009094,
        0.11803169548511505,
        -0.17703290283679962,
        -0.21369580924510956,
        -0.19814786314964294,
        -0.0034150381106883287,
        -0.046417802572250366,
        -0.02446957305073738,
        -0.07955896109342575,
        0.2972573935985565,
        -0.06305685639381409,
        0.2430216372013092,
        0.1405969262123108,
        -0.21466822922229767,
        -0.23203951120376587,
        0.12762954831123352,
        -0.151000514626503,
        -0.15652239322662354,
        0.2802560031414032,
        0.03509557992219925,
        0.027658626437187195,
        -0.19230711460113525,
        0.19846570491790771,
        -0.03695514798164368,
        0.0990849956870079,
        0.23704488575458527,
        0.3861311674118042,
        0.35260722041130066,
        -0.09917062520980835,
        -0.023334268480539322,
        0.032189734280109406,
        -0.19614163041114807,
        0.047931771725416183,
        -0.2799443304538727,
        0.06901194155216217,
        -0.1711607426404953,
        0.11301577836275101,
        0.059929803013801575,
        0.05730171129107475,
        0.10172819346189499,
        0.21227557957172394,
        -0.2015870064496994,
        -0.32257482409477234,
        -0.3912093937397003,
        -0.24024900794029236,
        0.12334515899419785,
        -0.05048425868153572,
        -0.011704293079674244,
        0.1633535921573639,
        0.16577666997909546,
        -0.23668798804283142,
        -0.25767847895622253,
        0.12942683696746826,
        0.03271520882844925,
        0.2793261408805847,
        -0.22285795211791992,
        -0.22988519072532654,
        0.08594180643558502,
        0.12891869246959686,
        0.1968238204717636,
        -0.16461139917373657,
        0.006415487267076969,
        -0.07959898561239243,
        -0.07178597897291183,
        -0.013715086504817009,
        0.11126546561717987,
        0.24093462526798248,
        0.22260825335979462,
        -0.00642821192741394,
        0.0098366504535079,
        -0.07039418816566467,
        -0.12867966294288635,
        -0.14478962123394012,
        -0.048385921865701675,
        0.06369931250810623,
        0.111953504383564,
        -0.10514538735151291,
        -0.040322933346033096,
        -0.00898330844938755,
        0.0855175107717514,
        0.14973941445350647,
        -0.13611945509910583,
        0.11071716248989105,
        0.015743093565106392,
        0.039138443768024445,
        -0.031952206045389175,
        0.06289839744567871,
        0.18027952313423157,
        0.45439741015434265,
        -0.22499020397663116,
        -0.043962664902210236,
        -0.11737925559282303,
        -0.010867339558899403,
        -0.06393445283174515,
        0.29930394887924194,
        -0.1362551599740982,
        0.05639531463384628,
        0.28611478209495544,
        -0.22121405601501465,
        -0.14354923367500305,
        -0.20432287454605103,
        0.049578677862882614,
        -0.24266301095485687,
        -0.02439727447926998,
        -0.1970319300889969,
        -0.31714269518852234,
        -0.22607918083667755,
        -0.18071654438972473,
        0.13381394743919373,
        -0.17944218218326569,
        -0.01675041764974594,
        0.07848411053419113,
        0.04088982567191124,
        -0.26020339131355286,
        -0.1889263540506363,
        0.4426841735839844,
        -0.19575637578964233,
        0.02667747251689434,
        0.03518811985850334,
        0.057553183287382126,
        -0.03621206805109978,
        -0.07207871228456497,
        0.20608410239219666,
        -0.16681928932666779,
        -0.018181821331381798,
        0.13534501194953918,
        -0.05654532089829445,
        0.0879097655415535,
        0.14193065464496613,
        0.0511481948196888,
        0.013380960561335087,
        0.1956017017364502,
        0.20492932200431824,
        -0.019985079765319824,
        -0.032285723835229874,
        0.03852180019021034,
        0.16759665310382843,
        0.062480807304382324,
        -0.06882001459598541,
        -0.09660521894693375,
        -0.11960820853710175,
        0.04373666271567345,
        0.05192416533827782,
        -0.04184544458985329,
        0.09176173061132431,
        0.0026607601903378963,
        0.04660852253437042,
        -0.16926312446594238,
        0.0003642156079877168,
        0.08423974364995956,
        0.1344074010848999,
        0.34792274236679077,
        -0.17438296973705292,
        -0.11678075790405273,
        0.07194596529006958,
        -0.13117162883281708,
        0.3317060172557831,
        -0.20241788029670715,
        0.17589470744132996,
        -0.17101524770259857,
        -0.31408166885375977,
        0.3295508623123169,
        -0.018423235043883324,
        -0.33280086517333984,
        0.11528738588094711,
        0.09231358021497726,
        -0.24939680099487305,
        -0.021716641262173653,
        0.04127143323421478,
        -0.09383456408977509,
        -0.06561143696308136,
        -0.10068058222532272,
        0.005047022830694914,
        0.13154911994934082,
        0.14728426933288574,
        0.1448846161365509,
        0.00535747641697526,
        -0.02533631958067417,
        -0.1367884874343872,
        -0.0004894236917607486,
        -0.25877654552459717,
        -0.13074526190757751,
        -0.08754010498523712,
        0.08401653170585632,
        0.16846863925457,
        -0.2044880986213684,
        -0.10508117824792862,
        -0.10011664777994156,
        0.04986679181456566,
        0.2929280400276184,
        0.0032487749122083187,
        -0.08469707518815994,
        0.17879483103752136,
        -0.06962641328573227,
        -0.09677756577730179,
        0.16953372955322266,
        -0.04891956225037575,
        -0.03094177506864071,
        5.744339796365239e-05,
        0.01066782046109438,
        -0.09352388232946396,
        -0.10353302210569382,
        -0.05619203671813011,
        0.01046829018741846,
        -0.3069150149822235,
        -0.01753261499106884,
        -0.1501336246728897,
        0.10687731951475143,
        0.05763300880789757,
        0.054443806409835815,
        -0.16817286610603333,
        0.14694666862487793,
        -0.1711905598640442,
        0.10184544324874878,
        -0.03596804291009903,
        -0.108867347240448,
        0.11490915715694427,
        -0.08411965519189835,
        0.12643788754940033,
        0.08491481840610504,
        0.05846279859542847,
        0.17265887558460236,
        0.11768285185098648,
        0.040463730692863464,
        -0.06196821853518486,
        0.4304277002811432,
        -0.0902533307671547,
        -0.1336100846529007,
        -0.03614531457424164,
        -0.151666060090065,
        0.0006533017731271684,
        -0.021486354991793633,
        0.018644386902451515,
        0.11284788697957993,
        -0.09926769137382507,
        0.03563229367136955,
        -0.2602700889110565,
        0.28493621945381165,
        0.006818621885031462,
        0.16659307479858398,
        -0.00020608353952411562,
        -0.019642015919089317,
        -0.09265772998332977,
        0.055565524846315384,
        -0.17594975233078003,
        -0.012308825738728046,
        -0.09511013329029083,
        -0.05380796641111374,
        -0.17367206513881683,
        0.10020089894533157,
        -0.19296549260616302,
        0.05694064125418663,
        -0.12339343130588531,
        -0.1123138964176178,
        -0.010671154595911503,
        0.02307320013642311,
        0.030823005363345146,
        -0.1354113072156906,
        0.1016542837023735,
        0.05816777050495148,
        -0.015289757400751114,
        0.2250836342573166,
        -0.02059199847280979,
        -0.037245720624923706,
        -0.21460087597370148,
        0.09500716626644135,
        0.010979178361594677,
        0.05203370749950409,
        0.2522367835044861,
        -0.012228609062731266,
        0.040255285799503326,
        -0.07813544571399689,
        -0.1198471337556839,
        0.03195124864578247,
        0.06622368097305298,
        0.11535091698169708,
        0.028631577268242836,
        0.07285623997449875,
        0.07647603005170822,
        0.07602421939373016,
        -0.3087785542011261,
        -0.33659300208091736,
        -0.10129248350858688,
        -0.020423265174031258,
        0.1442592591047287,
        -0.04918801039457321,
        0.07617472112178802,
        0.215911865234375,
        -0.2809911370277405,
        0.031031319871544838,
        0.20928002893924713,
        -0.24907761812210083,
        -0.14988268911838531,
        0.21626918017864227,
        0.2880123555660248,
        0.020243648439645767,
        -0.03746539354324341,
        -0.048820074647665024,
        0.2236999124288559,
        0.2279142588376999,
        0.08527986705303192,
        0.043883297592401505,
        -0.06593655049800873,
        0.02396107092499733,
        0.1767130196094513,
        0.08927065879106522,
        -0.19127392768859863,
        -0.34801197052001953,
        -0.04979686811566353,
        -0.25556838512420654,
        0.215140700340271,
        0.15021906793117523,
        0.44573527574539185,
        0.330079585313797,
        -0.24739989638328552,
        -0.09571146219968796,
        0.0019151052692905068,
        0.40493324398994446,
        -0.11725159734487534,
        0.20177088677883148,
        0.25575488805770874,
        0.07403411716222763,
        0.1455889344215393,
        0.046558305621147156,
        0.0975562185049057,
        -0.11773823201656342,
        -0.0713447853922844,
        -0.03936789557337761,
        -0.06326675415039062,
        0.1891411542892456,
        0.027383407577872276,
        0.20984230935573578,
        0.06796374171972275,
        0.0411047488451004,
        0.1940041333436966,
        -0.09019813686609268,
        0.15139520168304443,
        0.14374575018882751,
        -0.057939428836107254,
        0.04745863378047943,
        -0.08560901135206223,
        -0.07673487812280655,
        -0.10091838985681534,
        -0.18554696440696716,
        0.0941864624619484,
        0.25411543250083923,
        0.15292567014694214,
        -0.07748866826295853,
        -0.009394108317792416,
        -0.0550185926258564,
        0.08629391342401505,
        0.04852093756198883,
        0.12394572794437408,
        0.09327274560928345,
        -0.055392272770404816,
        -0.2198125720024109,
        -0.24027571082115173,
        0.0759587213397026,
        0.12285701185464859,
        0.04471169784665108,
        -0.0179482102394104,
        0.0062661608681082726,
        0.09028405696153641,
        0.1553964912891388,
        -0.024836309254169464,
        -0.11433811485767365,
        0.08427906036376953,
        0.04838952422142029,
        0.15881001949310303,
        -0.05327305197715759,
        -0.006007491610944271,
        0.12200231105089188,
        -0.09837266802787781,
        0.09416920691728592,
        0.13372065126895905,
        0.11120166629552841,
        -0.24594449996948242,
        0.09783478081226349,
        -0.05687687546014786,
        0.17856907844543457,
        0.04265693575143814,
        0.04585588350892067,
        0.13107433915138245,
        -0.048383332788944244,
        -0.024914469569921494,
        0.19341112673282623,
        -0.04569020867347717,
        -0.042762015014886856,
        0.1174975112080574,
        0.008025671355426311,
        -0.025048987939953804,
        0.05254786089062691,
        -0.04946344345808029,
        -0.21841536462306976,
        -0.062754787504673,
        -0.01106551568955183,
        0.0015753121115267277,
        -0.14990253746509552,
        -0.008843899704515934,
        -0.08452989906072617,
        -0.1677926778793335,
        0.0802689641714096,
        0.11048031598329544,
        0.07493389397859573,
        0.10842613875865936,
        -0.0796155035495758,
        0.002945812651887536,
        0.07629089802503586,
        0.006692478898912668,
        -0.009880760684609413,
        -0.20551057159900665,
        -0.013615676201879978,
        0.28803566098213196,
        -0.039197761565446854,
        -0.12524829804897308,
        -0.06771381944417953,
        0.055603187531232834,
        -0.09903161227703094,
        -0.07689948379993439,
        0.10942716896533966,
        0.14740920066833496,
        -0.06804904341697693,
        0.046294163912534714,
        0.02915981411933899,
        0.02962672896683216,
        -0.1887218952178955,
        0.05229763314127922,
        -0.04452390596270561,
        0.0426626019179821,
        0.07799826562404633,
        -0.1942691206932068,
        -0.05156530812382698,
        -0.018867846578359604,
        -0.1605929434299469,
        0.1031331792473793,
        0.14809292554855347,
        0.05073948949575424,
        0.11483664065599442,
        -0.10057598352432251,
        0.051555100828409195,
        0.1316440850496292,
        -0.16176995635032654,
        0.07287341356277466,
        0.11368591338396072,
        -0.2655383050441742,
        -0.10325883328914642,
        0.060621339827775955,
        0.07276435941457748,
        -0.052609045058488846,
        -0.11194539815187454,
        -0.08847202360630035,
        -0.009210998192429543,
        -0.10005289316177368,
        0.09623975306749344,
        -0.026022279635071754,
        -0.01793685555458069,
        0.04048250988125801,
        0.15934236347675323,
        0.12186913937330246,
        0.22710847854614258,
        -0.012576057575643063,
        0.1359068751335144,
        0.12204673886299133,
        0.027401799336075783,
        0.10763657093048096,
        0.1219145804643631,
        -0.1474538892507553,
        -0.06896360218524933,
        0.11684704571962357,
        -0.06585682928562164,
        0.019026027992367744,
        -0.142279714345932,
        -0.04040256142616272,
        -0.1412413865327835,
        0.13460005819797516,
        -0.2061551809310913,
        -0.14643129706382751,
        0.2038579285144806,
        -0.19939211010932922,
        0.03083069622516632,
        0.06029150262475014,
        0.009202721528708935,
        0.09365542978048325,
        0.013336071744561195,
        -0.07739633321762085,
        0.09063965082168579,
        -0.13022956252098083,
        0.20163024961948395,
        -0.05839420109987259,
        0.0691056102514267,
        -0.18465080857276917,
        -0.14787645637989044,
        0.0016094938619062304,
        0.18266601860523224,
        -0.16902825236320496,
        -0.22001202404499054,
        -0.1477547138929367,
        0.24694177508354187,
        0.056620728224515915,
        0.32747793197631836,
        -0.23713070154190063,
        -0.09814721345901489,
        -0.13051722943782806,
        -0.05576635152101517,
        -0.33856436610221863,
        -0.17646273970603943,
        0.2734355926513672,
        -0.11950523406267166,
        -0.17070281505584717,
        0.008546121418476105,
        0.03635894134640694,
        -0.26849862933158875,
        0.05150614678859711,
        -0.12466168403625488,
        -0.13793979585170746,
        0.2269764095544815,
        0.0444210059940815,
        -0.07831514626741409,
        -0.07637814432382584,
        0.006163360085338354,
        -0.21189641952514648,
        -0.2010767161846161,
        0.04579564183950424,
        0.09118325263261795,
        0.10234522074460983,
        -0.12101239711046219,
        -0.10134752094745636,
        -0.17505858838558197,
        -0.1344902068376541,
        -0.11162202805280685,
        -0.06010426953434944,
        -0.025329098105430603,
        0.14935556054115295,
        -0.025143034756183624,
        0.126561239361763,
        0.08131092041730881,
        0.07198165357112885,
        -0.09406743943691254,
        -0.1040397360920906,
        -0.03994496166706085,
        -0.16786183416843414,
        -0.06227134168148041,
        0.10318180173635483,
        -0.052316468209028244,
        0.1942063868045807,
        -0.15680673718452454,
        0.025533832609653473,
        0.01664622128009796,
        -0.04828318580985069,
        0.10042217373847961,
        -0.2742038369178772,
        -0.15200552344322205,
        -0.0011572365183383226,
        0.1854558289051056,
        -0.08392339199781418,
        0.0427972674369812,
        0.46928003430366516,
        0.16965116560459137,
        -0.04205140471458435,
        -0.11339361220598221,
        -0.04808767884969711,
        0.052090708166360855,
        -0.11834404617547989,
        -0.2232874631881714,
        -0.20054975152015686,
        -0.15857556462287903,
        -0.2599220275878906,
        -0.13772085309028625,
        -0.047290168702602386,
        -0.01811802387237549,
        0.05443546548485756,
        -0.29118138551712036,
        -0.03966531157493591,
        -0.1860911101102829,
        0.10845712572336197,
        0.0020326764788478613,
        -0.1883973479270935,
        -0.07068611681461334,
        0.06889264285564423,
        -0.10081740468740463,
        -0.06902570277452469,
        -0.0696972906589508,
        0.0005161450826562941,
        -0.006284606177359819,
        -0.17583945393562317,
        0.055767253041267395,
        -0.0634002834558487,
        0.1142653375864029,
        0.13720695674419403,
        0.051980793476104736,
        0.022205626592040062,
        0.04956342279911041,
        -0.11392168700695038,
        0.09995874017477036,
        -0.0991566926240921,
        0.17713750898838043,
        0.10777012258768082,
        -0.13248200714588165,
        -0.04052012786269188,
        -0.06631495803594589,
        0.3514363467693329,
        0.20041285455226898,
        -0.16125503182411194,
        0.0983763262629509,
        -0.018636196851730347,
        -0.2984303832054138,
        -0.07140811532735825,
        -0.12149116396903992,
        0.13472415506839752,
        -0.013319134712219238,
        0.027398210018873215,
        0.0077656833454966545,
        0.2582545876502991,
        0.1574983298778534,
        -0.040054190903902054,
        0.0589027926325798,
        0.12937617301940918,
        0.07107128202915192,
        0.04133136197924614,
        0.11472291499376297,
        -0.07923642545938492,
        0.21950240433216095,
        0.06612833589315414,
        0.09002316743135452,
        -0.015787456184625626,
        0.060763273388147354,
        -0.14638346433639526,
        -0.24001149833202362,
        -0.05280725657939911,
        0.13315999507904053,
        -0.20577050745487213,
        -0.05577770620584488,
        -0.11326225847005844,
        -0.09675560146570206,
        0.054144907742738724,
        -0.29137083888053894,
        -0.06766252964735031,
        -0.19483999907970428,
        -0.06908638775348663,
        0.12280344218015671,
        -0.11536899954080582,
        0.07998798042535782,
        -0.0883379727602005,
        -0.0465969555079937,
        0.031221313402056694,
        0.188773050904274,
        0.08442994952201843,
        -0.12595345079898834,
        -0.11149901151657104,
        0.16951999068260193,
        -0.021899856626987457,
        -0.010168657638132572,
        0.09045392274856567,
        0.01120082475244999,
        0.0014545520534738898,
        -0.136294424533844,
        -0.11565576493740082,
        0.07924682646989822,
        0.08520060032606125,
        -0.1285467892885208,
        0.1426505148410797,
        -0.008265546523034573,
        -0.017518173903226852,
        -0.10835883766412735,
        0.07296556234359741,
        0.019141100347042084,
        0.11294197291135788,
        0.062458284199237823,
        0.15718702971935272,
        0.085879385471344,
        -0.011249781586229801,
        0.007984442636370659,
        0.16591407358646393,
        0.08934319019317627,
        0.05674359202384949,
        0.20655514299869537,
        -0.05943942815065384,
        0.06623490154743195,
        0.06979074329137802,
        0.06955171376466751,
        0.05647137761116028,
        0.14590570330619812,
        0.08710236102342606,
        -0.18880532681941986,
        -0.09446442127227783,
        0.08514951914548874,
        0.05326839163899422,
        0.07300718128681183,
        0.058115385472774506,
        -0.06877049058675766,
        -0.055586472153663635,
        -0.06629205495119095,
        -0.06225216016173363,
        0.15876728296279907,
        -0.05489072576165199,
        -0.023060908541083336,
        0.009640783071517944,
        0.026466762647032738,
        0.1423678994178772,
        0.15123721957206726,
        0.08319856971502304,
        0.10079050809144974,
        0.2348305881023407,
        -0.1749655157327652,
        -0.11259616166353226,
        0.04490547254681587,
        0.05150556564331055,
        -0.19613760709762573,
        -0.14956355094909668,
        -0.11936646699905396,
        0.022887296974658966,
        0.0053843786008656025,
        0.0005396096385084093,
        0.06642316281795502,
        -0.031405046582221985,
        -0.16091597080230713,
        0.09305906295776367,
        -0.034632712602615356,
        0.0006551339756697416,
        0.08371786028146744,
        -0.15253251791000366,
        -0.0380706861615181,
        0.05026433989405632,
        0.06613978743553162,
        0.05074789747595787,
        0.11186303198337555,
        -0.04977252706885338,
        -0.06832852214574814,
        -0.06868293881416321,
        -0.1105543002486229,
        0.02155262976884842,
        0.10170137137174606,
        0.02660415694117546,
        -0.0258711539208889,
        -0.10439759492874146,
        -0.06257496774196625,
        0.00017034498159773648,
        -0.1581474095582962,
        -0.18540561199188232,
        0.04932736977934837,
        -0.06478855013847351,
        -0.1241760328412056,
        -0.12953682243824005,
        -0.10866998136043549,
        0.21452492475509644,
        -0.1269671618938446,
        -0.0744825080037117,
        0.10384764522314072,
        -0.10243097692728043,
        -0.07035667449235916,
        -0.08864615857601166,
        -0.1446547508239746,
        0.10609995573759079,
        -0.013044788502156734,
        -0.16699355840682983,
        0.13025690615177155,
        0.12325994670391083,
        -0.14682945609092712,
        -0.24632222950458527,
        0.013811882585287094,
        -0.16922627389431,
        0.2042694091796875,
        0.07752800732851028,
        0.1279754340648651,
        -0.07967556267976761,
        -0.03260624408721924,
        -0.2287292331457138,
        -0.009402809664607048,
        -0.05908907949924469,
        0.04598987102508545,
        -0.027214575558900833,
        0.03108411282300949,
        0.0927702784538269,
        0.09966090321540833,
        -0.08197331428527832,
        -0.13417606055736542,
        -0.002451895270496607,
        -0.1289282888174057,
        0.26816004514694214,
        -0.09502724558115005,
        0.12181603908538818,
        -0.1659567952156067,
        -0.01927465945482254,
        0.05235561728477478,
        -0.050706300884485245,
        0.10769980400800705,
        -0.07026444375514984,
        -0.12007485330104828,
        -0.08167649060487747,
        0.06424931436777115,
        0.17130285501480103,
        0.02549401856958866,
        -0.06261236220598221,
        0.028542354702949524,
        0.21467521786689758,
        -0.13934756815433502,
        0.1805608570575714,
        -0.03441474214196205,
        -0.013751357793807983,
        0.1547374576330185,
        0.06596946716308594,
        -0.10564585030078888,
        0.10988228768110275,
        -0.1452745646238327,
        0.14618265628814697,
        0.031386829912662506,
        0.20279836654663086,
        -0.017172839492559433,
        -0.01948464848101139,
        0.04781586304306984,
        0.023721007630228996,
        -0.045942991971969604,
        -0.16120506823062897,
        0.28180059790611267,
        -0.10855463147163391,
        -0.11564081907272339,
        -0.03756013512611389,
        0.03099505603313446,
        0.1365363597869873,
        -0.06090725213289261,
        0.07757971435785294,
        0.08634912967681885,
        -0.1295829564332962,
        -0.09575572609901428,
        -0.04306921362876892,
        -0.011749633587896824,
        -0.03433502838015556,
        -0.12131574749946594,
        0.01781534031033516,
        0.017001619562506676,
        -0.02819587104022503,
        -0.0160337183624506,
        0.018468469381332397,
        -0.02995072491466999,
        0.03413807973265648,
        -0.17007727921009064,
        0.043942708522081375,
        0.11582645028829575,
        -0.050512757152318954,
        -0.1498887687921524,
        -0.18546552956104279,
        0.18869498372077942,
        0.15085969865322113,
        -0.37437865138053894,
        0.21269255876541138,
        0.010530264116823673,
        0.1301177442073822,
        0.10628911852836609,
        -0.10169113427400589,
        0.11543335765600204,
        -0.05982505530118942,
        -0.028114113956689835,
        -0.24519133567810059,
        0.020057301968336105,
        0.11659736931324005,
        0.04424140602350235,
        0.03008406050503254,
        0.018757289275527,
        0.06310415267944336,
        -0.0002007265284191817,
        0.21590231359004974,
        -0.11057886481285095,
        0.05829162895679474,
        0.13164427876472473,
        -0.049817509949207306,
        0.06605231016874313,
        0.1976305991411209,
        -0.06013884395360947,
        -0.18961960077285767,
        -0.26466915011405945,
        0.1299380660057068,
        -0.11562243849039078,
        -0.19929438829421997,
        -0.20412684977054596,
        -0.01365786325186491,
        -0.11080478131771088,
        -0.05928216129541397,
        -0.20072022080421448,
        -0.12913037836551666,
        0.15546633303165436,
        0.07321397215127945,
        0.14068762958049774,
        0.02118418738245964,
        -0.2790950536727905,
        -0.17098119854927063,
        -0.03298559412360191,
        0.18738186359405518,
        0.183864027261734,
        0.103662870824337,
        0.32837334275245667,
        -0.14126482605934143,
        -0.030953994020819664,
        -0.14555001258850098,
        -0.12019965797662735,
        -0.054774340242147446,
        0.05685253068804741,
        0.21836894750595093,
        0.06550153344869614,
        0.11412249505519867,
        0.14631347358226776,
        -0.012094327248632908,
        0.11890547722578049,
        -0.05620315670967102,
        0.10410115867853165,
        0.33243128657341003,
        0.027468979358673096,
        0.11021333187818527,
        -0.056726861745119095,
        0.18340180814266205,
        -0.05587593838572502,
        0.08738356083631516,
        0.08611828833818436,
        -0.1543310284614563,
        -0.04418562352657318,
        0.0624183788895607,
        -0.16674721240997314,
        0.011590960435569286,
        0.11144736409187317,
        0.03709106892347336,
        0.02789396606385708,
        -0.17204242944717407,
        0.2129041850566864,
        -0.08578281104564667,
        0.004460094962269068,
        0.12662163376808167,
        0.23540636897087097,
        0.13900701701641083,
        -0.002491198480129242,
        -0.1263885200023651,
        0.08069396018981934,
        -0.14533153176307678,
        0.1630614846944809,
        -0.1353570520877838,
        -0.009953362867236137,
        -0.23053041100502014,
        0.0015929570654407144,
        -0.5446991920471191,
        -0.1276390552520752,
        0.09431300312280655,
        0.06260725110769272,
        0.036457985639572144,
        0.035879503935575485,
        -0.08027882128953934,
        -0.08547697216272354,
        -0.13134999573230743,
        -0.02745991013944149,
        -0.23744751513004303,
        -0.05288003012537956,
        -0.09803910553455353,
        0.0004108757129870355,
        0.08883050084114075,
        0.11839769780635834,
        0.021158069372177124,
        0.010741460137069225,
        -0.020804567262530327,
        -0.008927049115300179,
        0.021951239556074142,
        -0.10941249877214432,
        0.034053072333335876,
        0.22075609862804413,
        0.07175814360380173,
        0.05314932391047478,
        0.0021070970688015223,
        -0.04191860184073448,
        -0.043312665075063705,
        -0.06873529404401779,
        0.05198970064520836,
        -0.03413577005267143,
        -0.3475133776664734,
        0.6497789621353149,
        0.4262683093547821,
        -0.5150172114372253,
        0.24471288919448853,
        -0.39806264638900757,
        0.23840756714344025,
        0.30919209122657776,
        -0.6733155846595764,
        1.1960606575012207,
        0.5793232321739197,
        0.11476979404687881,
        -0.2071666121482849,
        0.12873834371566772,
        -0.7706363797187805,
        0.22737433016300201,
        -0.1962766796350479,
        0.12238182127475739,
        -0.35508018732070923,
        0.07664120942354202,
        0.21286648511886597,
        0.1684497892856598,
        0.12934885919094086,
        0.14705145359039307,
        -0.11189393699169159,
        0.24146927893161774,
        0.19414325058460236,
        -0.31842511892318726,
        -0.05019371584057808,
        -0.10424874722957611,
        -0.05524643510580063,
        0.14805401861667633,
        0.03919093310832977,
        0.09632015973329544,
        0.2473050057888031,
        0.11180458217859268,
        0.12164182960987091,
        -0.06929169595241547,
        -0.31716984510421753,
        -0.41382554173469543,
        0.15834742784500122,
        0.022418808192014694,
        -0.3141031563282013,
        0.15672749280929565,
        0.4145143926143646,
        0.16468298435211182,
        -0.09713380038738251,
        -0.10409033298492432,
        -0.1821611523628235,
        -0.025618722662329674,
        -0.1620449274778366,
        0.324827641248703,
        0.05321460962295532,
        -0.2127532660961151,
        -0.07242677360773087,
        -0.048120927065610886,
        -0.051738981157541275,
        -0.1807689666748047,
        0.1993793547153473,
        0.2637353241443634,
        -0.2877676486968994,
        -0.15664947032928467,
        -0.005507062654942274,
        0.1566571742296219,
        -0.061496321111917496,
        0.19303134083747864,
        -0.06085764244198799,
        -0.17244422435760498,
        0.1390298306941986,
        -0.3297067880630493,
        0.34794411063194275,
        0.2755223512649536,
        -0.1778659075498581,
        0.14007242023944855,
        0.22616715729236603,
        0.02883497066795826,
        0.1307380199432373,
        0.029591618105769157,
        -0.2838326692581177,
        -0.28048384189605713,
        -0.1506432741880417,
        0.36636975407600403,
        -0.037924010306596756,
        0.0384400300681591,
        -0.18897008895874023,
        -0.20341157913208008,
        -0.12524648010730743,
        0.20676547288894653,
        -0.18608956038951874,
        -0.1867447793483734,
        0.020285917446017265,
        -0.1514018028974533,
        -0.3615923225879669,
        0.3043915033340454,
        -0.04973606392741203,
        -0.1279941201210022,
        -0.15852564573287964,
        0.07942363619804382,
        -0.13837872445583344,
        -0.14442718029022217,
        -0.03711043670773506,
        0.14906418323516846,
        0.1361253708600998,
        -0.10282497853040695,
        -0.18385080993175507,
        -0.05630034953355789,
        0.1324680894613266,
        -0.003048861864954233,
        0.10029257088899612,
        0.15293651819229126,
        0.031620245426893234,
        0.2193017601966858,
        0.2978289723396301,
        -0.12061012536287308,
        0.21430279314517975,
        0.196321040391922,
        -0.020802736282348633,
        0.32220470905303955,
        -0.011914883740246296,
        -0.40370914340019226,
        0.23620560765266418,
        0.28466635942459106,
        -0.38138464093208313,
        0.3067473769187927,
        0.3448268175125122,
        0.1280299723148346,
        0.05362747237086296,
        0.5986675024032593,
        0.40456217527389526,
        -0.37954404950141907,
        -0.06040298193693161,
        0.13934412598609924,
        0.2808643579483032,
        0.13478711247444153,
        0.009197069332003593,
        -0.08039851486682892,
        0.26006177067756653,
        0.30261123180389404,
        0.011835606768727303,
        0.13867181539535522,
        0.46461763978004456,
        0.02299216389656067,
        -0.4561048746109009,
        -0.0388965867459774,
        0.26987919211387634,
        -0.13674768805503845,
        0.13577286899089813,
        -0.05219342187047005,
        0.13168327510356903,
        0.14366385340690613,
        0.13659651577472687,
        -0.14117316901683807,
        0.1411820948123932,
        -0.05631963536143303,
        0.1511879712343216,
        -0.26035016775131226,
        0.02214972861111164,
        -0.11737170815467834,
        0.20733916759490967,
        0.2488735318183899,
        -0.10376039147377014,
        -0.19908718764781952,
        0.3231671154499054,
        -0.020372258499264717,
        0.12408500909805298,
        -0.28861498832702637,
        -0.22823244333267212,
        -0.07058026641607285,
        0.04579722508788109,
        0.31363624334335327,
        -0.20947882533073425,
        -0.023345496505498886,
        -0.1756015568971634,
        0.2190595120191574,
        0.2831154465675354,
        0.29257655143737793,
        -0.07743026316165924,
        -0.24878782033920288,
        -0.21124088764190674,
        0.09650413691997528,
        0.1090790331363678,
        0.23401033878326416,
        -0.013140393421053886,
        0.15132185816764832,
        0.10907150059938431,
        -0.130968376994133,
        -0.003952529281377792,
        -0.005865946412086487,
        -0.10144899785518646,
        0.014591222628951073,
        0.19197621941566467,
        0.061929672956466675,
        0.11460576951503754,
        -0.1254778653383255,
        0.08582424372434616,
        0.011605777777731419,
        0.04409334808588028,
        0.40283069014549255,
        0.15151065587997437,
        -0.13924221694469452,
        -0.1253582239151001,
        -0.11244763433933258,
        0.2550407350063324,
        -0.19875368475914001,
        -0.21727731823921204,
        -0.002344984794035554,
        0.1090230792760849,
        -0.5943109393119812,
        -0.5175203084945679,
        0.3986278474330902,
        0.024251451715826988,
        0.34065738320350647,
        -0.17722755670547485,
        -0.5833677649497986,
        -0.4546956419944763,
        0.26032933592796326,
        -0.20417778193950653,
        -0.45923998951911926,
        0.20094935595989227,
        0.03993692249059677,
        -0.25097227096557617,
        0.2630564868450165,
        -0.20873236656188965,
        -0.417778879404068,
        0.0029326053336262703,
        -0.05353546887636185,
        -0.16346879303455353,
        0.03087467886507511,
        -0.31986209750175476,
        0.15671712160110474,
        -0.1736563742160797,
        0.1374230682849884,
        -0.00592260854318738,
        -0.1180216446518898,
        -0.15477213263511658,
        -0.07738319784402847,
        -0.014006094075739384,
        -0.15642815828323364,
        0.04617999494075775,
        0.13148438930511475,
        0.2794741988182068,
        -0.146658256649971,
        -0.00461459020152688,
        -0.25307536125183105,
        0.26095646619796753,
        0.270086407661438,
        -0.17715688049793243,
        0.12341036647558212,
        0.22905991971492767,
        0.22255192697048187,
        0.12399167567491531,
        -0.15525764226913452,
        0.1893671154975891,
        0.03956348076462746,
        -0.09075180441141129,
        -0.10845714807510376,
        -0.17464138567447662,
        -0.039161812514066696,
        -0.4961976110935211,
        -0.2404741495847702,
        -0.046831484884023666,
        0.13859444856643677,
        -0.06841174513101578,
        0.3230825364589691,
        0.13308237493038177,
        0.10205297917127609,
        0.5025424957275391,
        -0.37524157762527466,
        -0.2690126895904541,
        -0.2251267433166504,
        0.128122016787529,
        0.15519237518310547,
        0.09810186177492142,
        0.0018874207744374871,
        0.08691254258155823,
        -0.03577059134840965,
        0.0961943119764328,
        0.18177105486392975,
        -0.05059906840324402,
        -0.08697759360074997,
        -0.12505999207496643,
        -0.015354691073298454,
        0.12257756292819977,
        0.16964970529079437,
        0.11800391972064972,
        0.05764046311378479,
        -0.205837681889534,
        0.03056998923420906,
        0.06804101169109344,
        -0.11015640199184418,
        -0.0866452008485794,
        -0.14199091494083405,
        0.1698933094739914,
        0.15691041946411133,
        -0.21793591976165771,
        0.028756966814398766,
        -0.12150070071220398,
        0.16088521480560303,
        0.15375380218029022,
        0.13349032402038574,
        -0.08725487440824509,
        -0.24574880301952362,
        0.18625976145267487,
        0.15179961919784546,
        -0.01996912993490696,
        0.04520057886838913,
        -0.16480325162410736,
        0.09504494816064835,
        -0.141465961933136,
        0.13743369281291962,
        0.16750767827033997,
        0.0014617545530200005,
        -0.15401162207126617,
        0.020895417779684067,
        -0.05620339885354042,
        0.0634741559624672,
        0.15656594932079315,
        -0.14935243129730225,
        -0.07669176161289215,
        0.25595685839653015,
        0.04292815551161766,
        0.03973532095551491,
        -0.16191940009593964,
        -0.17847634851932526,
        -0.17038197815418243,
        -0.31866028904914856,
        -0.03649083152413368,
        -0.09256935119628906,
        0.0228886641561985,
        -0.2545783221721649,
        -0.03887907415628433,
        0.13118378818035126,
        0.06382835656404495,
        0.1384614259004593,
        -0.1650087535381317,
        -0.04921955615282059,
        0.310979962348938,
        -0.08551017194986343,
        0.14550675451755524,
        -0.21148566901683807,
        -0.07076391577720642,
        -0.04474099725484848,
        -0.4113438129425049,
        -0.014775354415178299,
        -0.4149596095085144,
        -0.15447989106178284,
        0.30998775362968445,
        0.06667222827672958,
        0.04605823755264282,
        -0.03366979584097862,
        0.04291190207004547,
        -0.048356398940086365,
        -0.17587681114673615,
        -0.1508636474609375,
        0.025191478431224823,
        0.031576767563819885,
        -0.05702320113778114,
        0.025754062458872795,
        -0.04636559635400772,
        0.10970284044742584,
        0.06724288314580917,
        0.035161398351192474,
        0.03663806989789009,
        0.08102966845035553,
        0.28823816776275635,
        -0.23978017270565033,
        -0.0060479119420051575,
        -0.01513026561588049,
        0.0429304838180542,
        0.1086510494351387,
        -0.2609739899635315,
        -0.12402752786874771,
        -0.15157262980937958,
        -0.14572551846504211,
        -0.29083094000816345,
        -0.18336255848407745,
        -0.21919004619121552,
        -0.11127715557813644,
        -0.12101037800312042,
        0.03189263865351677,
        -0.06306889653205872,
        0.1817888468503952,
        -0.15484564006328583,
        -0.28126806020736694,
        -0.1510671228170395,
        0.22609347105026245,
        0.26457124948501587,
        0.039690569043159485,
        -0.3164750337600708,
        -0.041552621871232986,
        0.10259834676980972,
        -0.03213086351752281,
        -0.053798381239175797,
        0.1490423083305359,
        -0.4122457504272461,
        0.1897413432598114,
        0.03189631924033165,
        -0.3469208776950836,
